svm_type c_svc
kernel_type rbf
gamma 0.000322685
nr_class 2
total_sv 8048
rho 5.00262
label 1 -1
nr_sv 4048 4000
SV
1 1:1 2:1 3:1 4:2 5:1 6:1 7:1 8:1 9:1 10:1 
1 4:1 5:1 10:1 11:1 12:1 13:1 14:1 
1 4:2 5:1 6:1 10:1 15:1 16:1 17:1 21:2 22:1 23:1 
1 4:1 5:1 8:1 10:1 24:2 
1 4:1 5:2 6:1 8:1 10:1 20:1 25:1 26:1 27:1 28:1 29:1 
1 4:2 5:1 8:1 9:1 10:1 15:1 16:1 17:1 30:1 31:1 
1 5:1 10:1 20:2 39:1 40:1 41:1 
1 5:2 10:1 20:1 28:1 29:1 38:1 42:1 
1 5:1 6:1 7:1 8:1 9:1 10:1 38:1 45:1 48:1 
1 6:1 8:1 9:1 10:1 15:1 49:1 50:2 
1 5:1 10:1 13:1 14:1 17:1 26:1 28:1 38:1 
1 4:1 5:2 10:1 15:1 19:1 20:1 28:1 29:1 51:1 
1 4:1 5:1 10:1 20:1 28:1 29:1 
1 4:2 5:2 6:1 10:1 15:1 16:1 17:1 18:1 19:1 20:1 28:1 29:1 
1 4:3 5:1 6:1 7:1 8:1 9:1 10:1 28:1 45:1 52:1 
1 4:1 6:1 7:1 10:1 13:1 14:1 15:1 55:1 56:1 57:1 58:1 
1 5:1 10:1 19:3 20:1 29:1 
1 4:1 5:1 6:1 7:1 8:1 10:1 28:1 38:1 59:1 60:1 61:1 
1 10:1 20:1 29:1 38:1 59:1 62:1 63:1 64:1 
1 4:1 6:1 7:1 8:1 9:1 10:1 17:1 38:1 59:1 65:1 66:1 67:1 68:1 
1 4:1 6:1 7:1 8:1 9:1 10:1 59:1 69:1 70:1 71:1 
1 6:1 8:1 9:1 10:1 38:1 59:1 62:1 72:1 73:1 74:1 
1 4:1 6:1 8:1 9:1 10:1 59:1 62:1 73:1 74:1 76:1 
1 5:1 10:1 17:1 20:1 28:1 29:1 40:1 
1 5:1 10:1 20:1 29:1 41:2 
1 4:1 5:1 8:1 9:1 10:1 40:1 84:1 85:1 
1 5:1 8:1 9:1 10:1 20:1 29:1 38:1 
1 4:1 5:1 8:1 9:1 10:1 20:1 29:1 
1 4:1 5:1 6:1 8:1 9:1 10:1 38:1 45:1 48:1 
1 4:1 7:1 8:1 9:1 10:1 51:2 82:1 86:1 87:1 88:1 
1 4:1 5:1 8:1 9:1 10:1 38:1 49:1 69:1 89:1 
1 4:1 6:2 7:1 8:1 9:1 10:1 26:1 31:1 90:1 91:1 
1 5:1 10:1 20:1 28:1 29:1 53:1 92:2 
1 5:1 7:1 10:1 20:1 29:1 49:1 51:1 86:1 87:1 88:1 92:1 
1 5:1 10:1 20:1 28:1 29:1 53:1 93:1 94:1 
1 5:1 10:1 20:1 29:1 98:1 
1 4:2 5:2 6:2 7:1 8:1 9:1 10:1 15:1 16:1 17:1 23:1 33:2 34:2 35:2 36:1 
1 4:1 6:1 8:1 10:1 43:1 44:1 99:1 100:1 
1 4:1 5:1 6:1 10:1 12:1 13:1 14:1 38:1 62:1 84:1 85:1 
1 4:2 5:1 6:2 8:1 10:1 43:1 44:1 99:1 100:1 103:1 
1 4:2 5:1 6:1 8:1 9:1 10:1 15:1 17:1 18:1 20:1 29:1 32:1 87:1 
1 4:2 6:2 8:1 9:1 10:1 15:3 30:1 38:1 51:1 69:2 104:1 
1 4:1 5:1 6:2 7:2 8:1 9:1 10:1 15:1 102:1 105:1 106:1 
1 4:1 10:1 15:1 17:2 27:1 28:1 69:1 80:1 84:1 92:1 114:2 115:1 116:1 117:2 118:1 119:1 120:1 121:1 122:1 123:1 
1 4:1 5:1 10:1 92:1 113:1 114:3 129:1 130:1 
1 5:1 10:1 17:1 26:1 92:1 113:1 114:3 131:1 132:1 
1 10:1 19:1 26:1 28:1 112:1 114:1 
1 6:2 10:1 17:2 22:1 26:1 27:1 30:1 112:1 114:2 139:1 140:1 141:1 142:1 143:1 144:1 145:1 
1 5:1 10:1 41:1 92:1 114:2 
1 4:1 10:1 41:1 114:2 
1 4:1 10:1 41:1 114:2 
1 10:1 41:1 61:1 141:1 170:1 171:1 
1 10:1 41:1 141:1 171:1 172:1 173:1 
1 10:1 38:1 62:1 84:1 87:1 110:1 150:1 177:1 
1 6:1 10:1 17:1 26:1 61:1 102:1 104:1 136:1 168:1 170:1 179:1 
1 10:1 38:1 59:1 62:1 180:1 181:1 
1 5:1 10:1 41:1 165:1 169:1 
1 5:1 10:1 41:1 167:1 169:1 
1 10:1 41:1 165:1 169:1 
1 6:2 7:1 10:1 15:1 100:1 132:1 141:1 168:1 
1 10:1 41:1 165:1 169:1 
1 4:1 6:1 10:1 15:1 17:1 26:1 63:1 105:1 112:1 137:1 138:1 174:1 177:1 198:1 199:1 200:1 201:1 
1 5:1 10:1 17:2 81:1 85:1 189:1 190:1 202:1 203:2 204:1 205:1 206:1 
1 10:1 19:1 63:1 112:1 
1 10:1 19:1 63:1 64:1 189:1 196:1 
1 10:1 19:1 63:1 189:1 
1 10:1 19:1 63:1 112:1 177:1 201:1 
1 10:1 19:1 63:1 177:1 189:1 201:1 
1 5:1 10:1 17:2 26:2 69:1 81:1 85:1 190:1 197:1 204:1 206:1 224:1 
1 4:1 10:1 84:1 94:1 102:1 112:1 141:1 150:1 225:1 226:1 227:1 
1 4:1 10:1 84:1 94:1 141:1 150:1 189:1 225:1 226:1 227:1 228:1 
1 10:1 17:1 59:1 63:1 73:1 74:1 81:1 112:1 
1 10:1 17:1 40:1 59:1 73:1 74:1 95:1 112:1 141:1 
1 10:1 15:2 17:1 26:1 38:1 65:1 66:1 139:1 140:1 201:1 211:1 220:1 230:1 231:1 232:1 
1 10:1 17:1 26:1 63:1 69:1 112:1 201:1 207:1 
1 5:1 6:1 10:1 17:2 63:1 112:1 141:1 180:1 214:1 215:1 236:1 265:1 266:1 
1 5:1 6:1 10:1 17:2 63:1 139:1 141:1 189:1 222:1 265:1 266:1 
1 10:1 17:1 49:1 63:1 69:2 95:1 206:1 235:1 
1 10:1 17:1 26:2 49:1 69:2 201:1 268:1 269:1 
1 10:1 17:1 38:1 65:1 66:1 139:1 140:1 201:1 203:1 211:1 220:1 230:1 231:1 232:1 257:2 
1 5:1 10:1 17:1 63:1 177:1 186:1 189:1 275:1 
1 5:1 10:1 17:1 63:1 87:1 112:1 177:1 275:1 
1 4:1 5:1 10:1 15:1 17:1 41:1 55:1 69:2 268:1 
1 4:1 5:1 10:1 17:1 28:1 41:1 205:2 257:1 268:1 
1 10:1 15:1 69:2 95:1 234:1 235:1 
1 10:1 26:2 35:1 40:1 49:1 69:2 97:1 156:2 191:1 192:1 289:1 
1 10:1 17:1 24:2 26:2 69:2 81:1 97:1 289:1 
1 10:1 26:2 49:1 69:2 97:1 150:1 240:1 289:1 
1 5:1 10:1 17:1 49:1 69:2 97:1 128:1 206:2 289:1 
1 5:1 10:1 17:1 97:1 128:1 205:2 206:2 266:1 289:1 
1 6:1 10:1 17:1 26:2 49:1 69:2 97:1 214:1 215:1 289:1 
1 3:1 10:1 26:2 30:1 49:1 69:2 97:1 150:1 240:1 289:1 309:1 
1 10:1 17:1 26:2 49:1 59:1 69:2 97:1 150:1 240:1 289:1 
1 10:1 17:1 26:2 49:1 59:1 69:2 300:1 315:1 
1 10:1 17:2 26:2 40:1 49:1 59:2 69:3 97:1 289:1 
1 10:1 17:1 26:2 40:1 49:1 59:1 69:2 97:1 289:1 
1 10:1 17:1 26:2 49:1 59:1 69:2 97:1 247:1 289:1 
1 10:1 26:2 49:1 81:1 97:1 289:1 
1 10:1 26:2 49:1 69:1 97:1 289:1 
1 10:1 17:1 26:2 49:1 69:2 97:1 150:1 240:1 289:1 
1 10:1 17:1 26:3 49:1 69:2 97:1 163:1 289:1 297:1 
1 10:1 17:2 28:1 49:1 69:2 81:1 95:1 221:1 239:1 247:1 287:1 
1 5:1 6:1 10:1 17:2 26:2 38:1 39:1 69:1 137:1 138:1 174:1 200:1 289:1 
1 5:1 6:1 10:1 17:2 38:1 39:1 137:1 138:1 174:1 200:1 203:2 205:1 289:1 
1 10:1 17:1 40:2 48:1 97:1 205:2 206:3 266:2 289:1 305:1 
1 10:1 17:1 40:2 48:1 49:2 69:2 97:1 206:3 289:1 305:1 
1 10:1 17:1 26:2 49:1 69:2 326:1 327:1 
1 10:1 17:1 26:2 40:1 49:1 69:2 94:2 97:1 289:1 
1 10:1 17:1 26:2 40:1 49:1 69:2 94:1 97:1 289:1 
1 10:1 17:1 26:2 49:1 69:2 300:1 315:1 
1 10:1 17:1 26:2 40:1 49:1 69:2 300:1 315:1 
1 10:1 17:1 26:2 49:1 69:2 247:1 300:1 315:1 
1 10:1 17:1 26:2 40:1 69:2 300:1 315:1 
1 10:1 17:1 49:1 69:2 92:1 246:2 328:1 331:1 
1 10:1 17:1 26:2 40:1 49:1 69:2 97:1 289:1 
1 10:1 17:1 26:2 38:1 49:1 69:2 97:1 289:1 
1 10:1 17:1 26:2 49:1 69:2 81:1 97:1 289:1 
1 10:1 17:1 26:2 41:1 49:1 69:2 97:1 289:1 
1 10:1 17:1 26:2 49:1 69:2 97:1 247:1 289:1 
0.6350875545609964 10:1 17:1 26:2 49:1 69:2 76:1 97:1 289:1 
1 10:1 17:1 26:2 41:1 69:1 97:1 289:1 
1 10:1 17:1 26:2 41:1 69:2 97:1 289:1 
1 6:1 10:1 17:2 22:1 49:1 62:1 69:2 97:1 137:2 206:2 289:1 
1 10:1 17:1 26:2 49:1 69:2 81:1 97:1 289:1 
1 10:1 17:1 26:2 49:1 69:2 97:1 123:1 340:1 
0.7517956656105981 10:1 17:1 49:1 69:2 95:2 204:1 281:1 282:1 343:1 
1 10:1 17:1 26:2 49:1 69:2 73:1 74:1 97:1 289:1 
1 10:1 17:1 26:2 49:1 69:2 81:1 97:1 137:1 146:1 289:1 
1 10:1 26:2 69:2 300:1 315:1 
1 10:1 26:1 40:1 49:1 69:2 97:1 289:1 
1 10:1 26:2 40:1 49:1 69:2 97:1 289:1 
1 10:1 26:2 49:1 69:2 97:1 247:1 289:1 
1 10:1 26:2 69:2 97:1 289:1 
1 10:1 40:1 49:1 69:2 97:1 206:2 289:1 
1 6:1 10:1 15:1 17:1 26:2 69:2 97:1 139:1 140:1 232:1 289:1 
1 6:1 9:1 10:1 17:1 26:1 69:1 97:1 102:1 113:1 206:1 
1 6:3 10:1 17:3 26:3 49:1 69:3 97:1 206:1 214:1 215:1 289:1 347:1 348:1 349:1 
1 6:1 10:1 17:1 22:1 26:1 137:1 163:1 180:1 236:1 297:1 
1 6:1 10:1 17:1 69:1 71:1 81:1 94:1 97:1 179:1 206:1 
1 10:1 26:2 69:1 71:1 97:1 178:1 350:1 351:1 352:1 
1 10:1 17:2 26:2 49:1 69:2 97:1 137:1 141:1 206:1 289:1 
1 6:1 7:1 10:1 15:1 17:1 19:2 62:1 90:1 353:1 356:1 357:1 
1 10:1 38:1 62:1 102:1 180:1 185:1 197:1 218:1 236:1 283:1 357:1 359:1 364:1 
1 5:1 6:1 10:1 17:1 144:1 185:1 218:1 220:1 283:1 357:1 359:1 371:1 
1 10:1 90:1 102:1 180:1 236:2 356:1 357:1 361:1 364:1 
1 10:1 102:1 180:1 185:1 236:2 283:1 357:1 361:1 364:1 
1 5:1 10:1 17:1 144:1 174:1 179:1 200:1 230:1 257:1 283:1 357:1 359:1 
1 5:1 10:1 31:1 86:1 185:1 257:1 283:1 357:1 359:1 374:1 375:1 
1 6:1 10:1 38:1 59:1 62:1 197:1 278:1 353:1 356:1 357:1 364:1 
1 10:1 38:1 59:1 62:1 353:1 356:1 357:1 
1 10:1 59:1 62:1 102:1 197:1 353:1 357:1 364:1 
1 10:1 30:1 38:1 59:1 62:1 90:1 102:1 180:1 197:1 236:1 353:1 357:1 364:1 
1 5:1 6:1 10:1 17:1 30:1 59:1 90:1 144:1 220:1 353:1 357:1 371:1 
1 5:1 10:1 17:1 26:1 28:1 30:1 41:1 146:1 353:1 357:1 
1 5:1 10:1 17:1 26:1 28:1 41:1 276:1 283:1 357:1 359:1 
1 5:1 10:1 15:1 17:1 30:1 144:1 174:1 200:1 220:1 353:1 357:1 
1 5:1 10:1 15:1 30:1 31:1 90:1 353:1 357:1 371:1 374:1 375:1 
1 6:1 10:1 15:1 17:1 26:1 30:1 38:1 62:1 69:2 90:1 353:1 357:1 371:1 
1 6:1 7:1 10:1 15:1 26:1 69:2 313:1 353:2 357:1 
1 6:1 7:1 10:1 17:1 19:2 62:1 185:1 257:1 283:1 357:1 359:1 
1 10:1 35:1 40:1 92:1 156:2 191:1 192:1 
1 4:1 5:1 6:1 10:1 17:1 28:1 30:1 35:1 156:2 191:1 192:1 413:1 
1 10:1 17:1 28:1 35:1 92:1 156:2 191:1 192:1 
1 5:1 10:1 17:1 28:1 35:1 40:1 156:2 191:1 192:1 
1 5:1 10:1 35:1 54:2 156:2 191:1 192:1 
1 5:1 10:1 35:1 41:1 156:2 191:1 192:1 
1 4:1 5:1 6:1 10:1 17:1 22:1 35:1 92:1 156:2 191:1 192:1 
1 4:1 5:1 10:1 17:1 24:1 75:1 414:1 415:1 
1 4:1 5:1 6:1 10:1 17:1 24:1 75:1 344:1 414:1 
1 4:1 5:1 6:1 10:1 17:1 22:1 24:1 75:1 344:1 
1 4:1 5:1 10:1 17:1 22:1 24:1 75:1 
1 5:2 6:2 10:1 17:1 24:1 27:1 28:1 40:1 47:1 48:1 75:1 136:1 205:1 414:2 415:2 
1 5:2 6:2 10:1 17:1 22:2 24:1 28:1 40:1 47:1 48:1 75:1 136:1 230:1 
1 5:2 6:1 10:1 15:1 17:1 22:2 27:1 40:1 251:1 417:1 
1 4:1 5:1 10:1 15:1 17:1 22:1 28:1 165:1 227:1 344:1 
1 4:1 6:1 10:1 17:2 28:1 44:1 92:1 144:1 245:1 414:1 
1 4:1 6:1 10:1 17:2 22:1 28:1 74:1 92:1 144:1 245:1 
1 5:1 6:1 10:1 17:1 414:1 415:1 425:1 426:1 
1 5:1 6:1 10:1 17:1 22:1 425:1 426:1 
1 6:1 10:1 17:1 22:1 26:1 28:1 247:1 421:1 422:1 
1 6:1 10:1 17:1 22:1 30:1 78:1 81:1 363:1 377:1 429:1 
1 4:2 5:1 6:1 10:1 15:1 17:2 22:1 69:1 102:2 144:1 224:1 
1 6:1 10:1 17:1 26:1 28:2 232:1 414:2 415:2 
1 4:1 5:1 6:2 10:1 17:2 40:1 141:1 414:2 415:2 432:1 
1 6:1 10:1 17:1 22:1 26:1 61:1 420:1 
1 6:1 10:1 17:1 61:1 236:1 429:1 433:1 434:1 
1 6:1 10:1 17:1 22:1 62:1 69:1 
1 4:2 5:1 6:1 10:1 17:2 69:1 144:1 202:1 228:1 257:1 414:1 415:1 
1 4:1 5:1 6:2 10:1 17:2 22:2 40:1 136:1 141:2 
1 6:1 10:1 17:1 22:1 28:1 78:1 92:1 
1 6:1 10:1 17:1 22:2 26:1 55:2 78:1 
1 6:1 10:1 17:1 61:1 236:1 266:1 414:1 415:1 
1 6:1 10:1 17:1 22:1 61:1 236:1 266:1 
1 6:1 10:1 17:1 22:1 26:1 61:1 236:1 266:1 
1 6:1 10:1 17:1 22:1 26:2 27:2 28:1 
1 6:1 10:1 17:1 22:1 26:2 27:2 28:1 40:1 
1 5:1 10:1 17:1 22:1 73:1 74:1 121:1 135:1 441:1 
1 4:2 6:2 10:1 17:1 22:2 26:1 27:1 29:1 62:1 82:1 87:1 136:1 442:1 
1 6:1 10:1 17:1 28:1 81:1 134:2 445:1 446:1 
1 6:2 10:1 17:1 28:1 38:1 445:1 446:1 447:1 448:1 
1 6:1 10:1 15:1 17:1 26:1 62:1 69:2 230:1 415:1 445:1 446:1 449:1 
1 10:1 17:2 26:1 28:1 41:1 206:1 347:1 445:1 446:1 
1 6:1 10:1 17:1 28:1 41:1 247:1 445:1 446:1 
1 6:1 10:1 17:1 26:1 78:1 314:1 445:1 446:1 451:1 452:1 
1 6:1 10:1 17:1 26:1 27:1 55:1 314:1 445:1 446:1 451:1 
1 6:1 10:1 17:1 28:1 41:1 445:1 446:1 
1 6:1 10:1 17:1 19:1 55:1 445:1 446:1 
1 6:1 10:1 17:1 41:1 78:1 445:1 446:1 
1 6:1 10:1 17:1 26:1 27:1 28:1 41:1 445:1 446:1 
1 6:1 10:1 17:1 26:1 27:1 41:1 55:1 445:1 446:1 
1 6:1 10:1 17:1 26:1 27:1 55:1 247:1 445:1 446:1 
1 7:1 10:1 26:1 27:1 69:1 435:1 445:1 446:1 461:1 
1 5:1 10:1 17:2 93:1 205:1 222:1 257:1 290:1 302:1 424:1 462:1 466:1 
1 5:1 8:1 9:1 10:1 15:1 17:3 30:1 74:1 80:1 178:1 290:1 463:1 
1 5:1 10:1 17:1 24:1 75:1 81:1 144:1 322:1 463:1 
1 5:1 10:1 17:1 81:1 93:1 291:1 292:1 293:1 
1 10:1 28:1 64:1 81:1 93:1 196:1 462:1 
1 5:1 10:1 17:1 54:2 93:1 205:1 293:1 424:1 
1 5:1 10:1 17:1 54:2 74:1 144:1 463:1 
1 5:1 10:1 17:1 93:1 205:1 304:1 424:1 462:1 
1 5:1 10:1 17:1 74:1 304:1 352:1 463:1 
1 10:1 17:1 59:1 73:1 74:2 352:1 463:1 
1 5:1 10:1 17:2 28:1 81:1 144:1 463:1 
1 5:1 6:1 10:1 17:2 28:1 74:1 137:1 144:1 463:1 
1 5:1 10:1 17:2 28:1 40:1 81:1 93:1 293:1 
1 5:1 6:1 10:1 17:3 28:1 40:1 93:1 205:1 277:1 293:1 424:1 
1 10:1 17:1 73:1 74:2 81:1 352:1 463:1 
1 5:1 10:1 15:1 17:2 26:1 74:2 80:1 145:1 178:1 463:1 481:1 
1 5:1 10:1 15:1 17:2 74:1 93:1 145:1 203:1 205:1 218:1 424:1 462:1 481:1 
0.2761720030958734 6:1 10:1 17:1 40:1 58:1 74:1 81:1 102:1 144:1 463:1 474:1 
1 5:1 10:1 17:1 74:1 80:1 178:1 232:1 385:1 463:1 
1 5:1 10:1 17:1 93:1 205:1 260:1 385:1 424:1 430:1 
1 6:1 10:1 17:2 28:1 29:1 44:1 64:2 82:1 93:1 139:1 140:1 141:1 187:1 196:2 260:1 293:1 310:1 466:1 489:1 
1 5:1 10:1 81:1 98:1 352:1 463:1 
1 5:1 10:1 17:1 40:1 93:1 98:1 205:1 260:1 424:1 
1 5:1 10:1 17:1 74:1 80:1 98:1 178:1 247:1 463:1 
1 5:1 10:1 17:1 74:1 98:1 137:1 146:1 247:1 352:1 463:1 
1 5:1 10:1 17:1 40:1 93:1 98:1 205:1 276:1 277:1 424:1 462:1 
1 5:1 10:1 40:1 93:1 98:1 462:1 
1 6:1 10:1 17:1 19:1 81:1 93:1 205:1 260:1 424:1 430:1 490:1 491:1 
1 6:1 10:1 17:1 19:1 74:1 81:1 144:1 180:1 463:1 491:1 
1 6:1 10:1 17:1 74:1 81:1 204:1 495:1 496:1 
1 5:1 6:1 10:1 17:1 74:2 80:1 178:1 463:1 495:1 497:1 
1 10:1 41:1 93:1 150:1 205:1 309:1 424:1 462:1 
1 10:1 17:1 26:1 28:1 63:1 74:1 80:1 81:1 93:1 178:1 180:1 247:1 500:1 
1 10:1 73:1 74:2 352:1 463:1 
1 4:1 10:1 73:1 74:2 352:1 463:1 
1 10:1 74:1 95:1 352:1 463:1 503:1 
1 5:1 10:1 17:1 40:1 93:1 95:1 205:1 234:1 235:1 424:1 462:1 
1 5:1 10:1 17:1 74:1 95:1 144:1 234:1 235:1 247:1 463:1 
1 10:1 38:1 74:1 352:1 463:1 
1 10:1 74:1 81:1 352:1 463:1 
1 10:1 74:1 247:1 352:1 463:1 
1 10:1 41:1 74:1 80:1 150:1 178:1 309:1 463:1 
1 5:1 6:2 10:1 15:1 17:2 40:1 55:1 92:1 230:1 445:1 446:1 506:1 507:1 508:1 
1 4:1 10:1 17:1 26:1 136:1 141:1 206:1 223:1 506:1 507:1 509:1 
1 3:1 10:1 15:1 206:1 236:1 322:1 445:1 446:1 514:1 
1 5:1 10:1 34:1 35:1 36:2 41:1 155:1 156:1 192:2 250:1 464:1 
1 5:1 10:1 40:2 518:1 
1 4:1 5:1 10:1 40:1 87:1 206:1 344:1 524:1 
1 10:1 81:1 87:1 92:1 
1 6:1 10:1 26:1 87:1 
1 10:1 36:1 154:1 191:1 192:1 250:1 518:1 526:1 
1 5:1 10:1 17:1 28:1 92:1 
1 5:1 6:1 10:1 17:1 28:1 94:1 105:1 278:1 514:1 533:1 
1 5:1 6:1 10:1 17:1 28:1 94:1 102:1 105:1 278:1 395:1 396:1 514:1 533:1 
1 5:1 6:1 10:1 17:1 28:1 105:1 294:1 336:1 395:1 396:1 514:1 533:1 534:1 
1 5:2 10:1 17:2 28:2 30:1 40:1 81:1 413:1 
1 5:1 6:1 10:1 17:1 28:1 105:1 294:1 336:1 514:1 533:1 
1 10:1 17:1 28:1 92:1 
1 5:1 10:1 17:1 28:1 165:1 181:1 497:1 543:1 
1 5:1 10:1 17:1 28:1 167:1 181:1 497:1 543:1 
1 4:1 6:1 10:1 17:1 69:1 74:1 123:1 150:1 165:1 248:1 314:1 545:1 
1 6:1 10:1 17:1 28:1 145:1 150:1 167:1 232:1 285:1 
1 6:1 10:1 17:1 55:1 78:1 145:1 150:1 224:1 552:1 
1 5:1 10:1 17:1 28:1 395:1 396:1 
1 10:1 17:1 26:1 27:1 69:1 145:1 168:1 448:1 546:1 552:1 554:1 
1 5:1 10:1 17:1 28:1 395:1 396:1 553:1 
1 10:1 19:1 28:1 518:1 
1 4:5 10:1 28:5 
1 6:1 10:1 17:1 62:1 69:1 92:1 194:1 323:1 465:1 556:1 557:1 
1 10:1 28:1 40:1 145:1 556:1 
1 5:1 6:1 10:1 40:1 61:1 71:1 80:1 178:1 206:1 214:1 215:1 220:1 251:1 556:1 
1 6:1 10:1 28:1 110:1 145:1 556:1 562:1 
1 6:1 10:1 28:1 110:1 145:1 563:1 
1 10:1 26:1 27:1 206:1 556:1 
1 4:1 6:1 10:1 15:1 30:1 80:1 84:1 90:1 112:1 163:1 371:1 
1 10:1 15:1 30:2 31:1 61:1 62:1 163:1 206:1 
1 10:1 15:1 17:1 26:1 81:1 115:1 116:1 139:1 140:1 
1 10:1 15:1 31:1 90:1 206:1 232:1 356:1 371:1 530:2 531:2 
1 6:2 10:1 15:1 17:1 26:1 40:2 80:1 178:1 224:1 278:2 371:1 455:1 573:1 574:1 575:1 576:1 
1 10:1 15:1 17:1 26:2 30:1 38:1 69:1 206:1 353:1 584:1 
1 6:1 10:1 15:1 17:1 26:1 30:1 78:1 80:1 90:1 178:1 236:1 247:1 364:1 371:1 
1 5:1 6:1 10:1 15:1 17:1 30:1 69:1 90:1 267:1 371:1 
1 6:1 10:1 30:1 39:1 69:1 80:1 81:1 115:1 116:1 178:1 180:1 236:1 
1 10:1 26:1 30:1 40:1 69:1 80:1 115:1 116:1 178:1 
1 5:1 6:1 10:1 17:1 26:1 30:1 40:1 267:1 573:1 574:1 587:1 
1 5:1 6:1 10:1 17:1 26:1 30:1 80:1 178:1 247:1 587:1 
1 10:1 15:1 17:1 26:1 30:1 55:1 69:1 70:1 71:1 570:1 571:1 
1 10:1 69:1 80:1 84:1 115:1 116:1 178:1 247:1 
1 5:2 6:1 10:1 15:1 17:2 26:1 27:1 30:1 31:1 231:1 232:1 290:1 371:1 417:1 
1 4:1 5:1 10:1 15:1 17:1 61:1 80:1 123:1 178:1 232:1 247:1 290:1 417:1 
1 4:1 5:1 10:1 17:1 76:1 98:1 123:1 290:1 417:1 
1 5:1 10:1 17:1 62:1 63:1 69:1 84:1 85:1 102:1 417:1 539:1 576:1 
1 10:1 26:1 179:1 230:1 417:1 
1 10:1 26:1 230:1 417:1 577:1 598:1 599:1 
1 5:1 10:1 15:3 17:1 61:3 80:1 178:1 232:1 
1 10:1 63:1 417:1 518:1 539:1 
1 10:1 17:1 55:1 62:1 69:1 102:1 247:1 417:1 418:1 576:1 
1 6:1 9:1 10:1 17:1 62:1 69:1 99:1 129:1 130:1 417:1 418:1 
1 4:1 10:1 15:1 17:2 26:1 27:1 61:1 62:1 69:2 80:1 123:1 178:1 232:1 417:1 440:1 615:1 
1 10:1 17:1 18:1 26:1 28:1 38:1 69:1 94:1 236:1 417:1 539:1 577:1 
1 5:1 10:1 54:2 344:1 417:1 
1 10:1 17:2 62:2 63:1 69:2 86:1 94:2 234:1 417:1 539:1 624:1 
1 5:1 10:1 15:2 17:1 26:1 30:2 224:1 230:2 417:1 
1 10:1 62:1 69:1 81:1 266:1 299:1 417:1 
1 10:1 17:1 26:1 30:1 62:1 69:1 204:1 268:1 
1 10:1 17:1 59:1 62:1 69:1 94:1 236:1 417:1 539:1 
1 4:1 6:1 10:1 17:1 26:1 145:1 232:1 417:1 596:1 
0.6944054979139307 10:1 17:3 69:2 134:1 233:1 272:3 417:1 628:3 629:3 
1 4:1 5:1 10:1 16:1 17:2 28:1 30:1 31:1 69:1 74:1 247:1 251:1 417:1 
1 5:1 10:1 15:1 17:1 28:1 84:1 139:1 140:1 232:1 247:1 417:1 
1 5:1 10:1 15:1 17:2 55:1 139:2 140:1 417:1 
1 4:1 5:1 6:1 10:1 15:1 16:1 17:2 18:1 55:1 87:1 262:1 417:1 
1 10:1 15:1 17:2 40:1 92:1 139:1 140:1 190:1 197:1 232:1 
1 3:1 10:1 15:1 17:1 62:1 86:1 220:1 624:1 641:1 642:1 
1 10:1 15:1 17:1 62:1 69:1 84:1 94:1 139:1 140:1 232:1 417:1 
1 5:1 10:1 15:1 17:2 62:1 69:1 80:1 94:1 139:1 140:1 178:1 232:1 417:1 539:1 
1 10:1 17:1 62:1 63:1 69:1 176:1 236:1 417:1 597:1 
1 4:1 5:1 10:1 15:1 17:1 61:1 76:1 84:1 94:1 123:1 231:1 232:1 247:1 290:1 417:1 
1 5:1 10:1 15:1 17:1 26:1 69:1 80:2 110:1 139:1 140:1 178:2 204:1 232:1 296:1 645:1 
1 5:1 10:1 17:2 27:1 417:1 539:1 646:1 
1 10:1 15:1 17:1 48:1 69:2 81:1 94:1 206:1 236:1 305:1 417:1 539:1 
0.7223111400148122 10:1 15:1 17:1 26:1 69:2 94:1 236:1 417:1 460:1 
1 10:1 17:1 63:1 69:1 417:1 518:1 539:1 
1 10:1 15:1 17:2 49:1 50:1 62:1 69:2 94:1 163:1 206:1 236:1 417:2 539:2 649:1 
1 4:1 5:1 6:1 10:1 15:1 17:2 30:1 55:1 59:1 69:3 90:1 417:1 653:1 
1 10:1 17:1 62:1 79:1 80:3 81:1 84:2 94:1 139:1 140:1 168:1 236:1 417:1 660:1 
1 5:1 10:1 15:1 17:3 65:1 66:1 69:1 79:1 80:2 84:1 139:1 140:1 232:1 247:1 251:1 417:1 
1 10:1 17:1 63:1 84:1 92:1 94:1 417:1 539:1 
1 5:1 10:1 17:2 27:1 63:1 69:1 94:1 236:1 417:2 539:1 
1 5:1 10:1 15:1 17:1 27:1 80:1 104:1 150:1 178:1 232:1 417:1 
1 4:1 5:1 7:1 10:1 15:1 17:1 26:1 27:1 84:1 94:1 137:1 138:1 174:1 200:1 231:1 232:1 344:1 417:2 
1 4:1 5:1 6:1 10:1 17:2 26:2 30:1 69:1 100:1 344:1 417:1 
1 10:1 17:1 26:1 48:1 62:1 69:1 206:1 225:1 226:1 305:1 417:1 460:1 662:1 
1 4:1 5:1 6:1 10:1 17:1 89:1 170:1 179:1 379:1 417:1 539:1 
1 4:1 5:1 6:1 10:1 17:1 38:1 62:1 89:1 170:1 179:1 379:1 417:1 539:1 
1 10:1 17:1 62:1 69:1 94:1 179:1 236:1 417:1 539:1 665:1 
1 4:2 5:1 6:1 10:1 15:1 16:1 17:2 30:1 70:1 71:1 123:1 417:1 
1 5:1 6:1 10:1 17:1 26:1 80:1 81:1 84:1 87:1 262:1 417:1 461:1 
1 5:1 6:1 10:1 16:1 17:2 26:1 27:1 30:1 63:1 69:1 94:1 236:1 417:1 539:1 
1 6:1 10:1 17:1 38:1 80:1 84:1 99:1 136:1 417:1 434:1 
1 6:1 9:1 10:1 17:1 19:1 99:1 417:1 458:2 657:1 
1 6:1 9:1 10:1 15:1 17:1 26:2 27:1 55:1 61:1 80:1 99:1 178:1 232:1 417:1 
0.7481004595549879 6:1 9:1 10:1 17:1 28:1 62:1 99:1 417:1 
1 5:1 6:1 10:1 15:1 17:1 48:1 61:1 62:1 69:1 78:1 80:1 94:1 178:1 206:1 224:1 236:1 247:1 305:1 667:1 668:1 
1 4:1 5:1 6:1 10:1 17:1 69:1 78:2 123:1 224:1 417:1 
1 4:1 5:1 6:1 7:1 10:1 15:1 16:1 17:2 30:1 40:2 67:1 82:1 417:1 
1 6:2 9:1 10:1 17:1 26:1 73:1 79:1 80:1 99:1 129:1 130:1 136:1 141:1 417:1 455:1 
1 3:1 10:1 15:1 78:1 86:1 236:1 624:1 
1 10:1 15:1 17:1 26:1 48:1 55:1 69:1 70:1 71:1 86:1 206:1 236:1 305:1 624:1 674:1 
1 5:1 10:1 15:1 79:1 80:2 81:1 84:2 94:1 137:1 138:1 139:1 140:1 232:1 417:1 
1 4:2 5:1 10:1 15:1 17:1 84:1 139:1 140:1 232:1 664:1 
1 5:1 10:1 15:1 84:1 90:1 232:1 371:1 417:1 
1 10:1 15:1 17:1 61:1 84:1 94:1 232:1 247:1 417:1 
1 4:1 5:1 10:1 15:1 17:1 27:1 84:1 94:1 95:1 137:1 138:1 232:1 417:1 558:1 675:1 
1 10:1 15:1 17:1 26:1 28:1 49:1 61:1 80:1 84:1 138:1 247:1 262:1 372:1 417:1 676:1 677:1 
1 5:1 10:1 17:1 26:1 49:1 80:1 84:1 137:1 138:1 223:1 372:1 417:1 597:1 676:1 
1 4:1 5:1 10:1 15:1 17:2 26:2 27:1 84:1 85:1 123:1 137:1 138:1 139:1 140:1 232:1 417:1 
1 10:1 15:1 17:1 26:1 27:1 58:1 69:1 80:1 84:1 136:1 165:1 206:1 552:1 680:1 
1 4:1 10:1 27:1 30:1 31:1 61:1 69:1 84:1 123:1 364:1 417:1 459:1 
1 4:1 5:1 10:1 58:1 102:1 290:1 438:1 
1 4:1 5:2 6:2 10:1 11:1 17:1 22:1 58:1 78:1 102:1 
1 6:1 10:1 17:1 92:1 102:1 
1 4:1 6:1 10:1 41:1 102:1 
1 4:1 6:1 10:1 41:1 102:1 438:1 
1 4:1 6:1 10:1 26:1 102:1 421:1 422:1 438:1 
1 6:1 10:1 19:1 102:1 
1 4:1 6:1 10:1 41:1 102:1 
1 4:1 6:1 10:1 62:1 102:1 141:1 164:1 
1 4:1 10:1 41:1 102:1 438:1 
1 5:1 10:1 30:2 31:1 169:1 290:1 
1 5:1 6:1 10:1 16:1 17:1 18:2 26:1 28:1 29:1 38:1 59:1 177:1 
1 10:1 18:1 22:1 28:2 81:1 87:1 94:1 104:1 206:1 262:1 563:1 
1 6:1 10:1 18:1 32:1 38:1 61:1 87:1 
1 6:1 10:1 18:1 62:1 144:1 180:1 236:1 474:1 
1 6:1 10:1 15:1 18:2 87:1 179:1 230:2 474:1 
1 10:1 17:1 18:1 26:1 38:1 69:1 87:1 168:1 445:1 446:1 
1 10:1 18:2 26:1 38:1 87:1 136:1 168:1 
1 4:1 5:1 6:1 8:1 9:1 10:1 18:1 32:1 40:1 59:1 87:1 163:1 
1 5:1 10:1 15:2 17:2 18:4 32:2 40:1 87:2 220:4 
1 10:1 15:1 18:1 81:1 87:1 88:1 220:2 236:1 
1 5:1 6:1 10:1 17:2 18:1 28:1 32:1 87:1 144:1 179:1 230:1 
1 4:1 5:1 10:1 17:1 28:1 30:1 31:1 41:1 146:1 
1 6:1 10:1 17:1 18:2 38:1 62:1 87:1 278:1 368:1 369:1 
1 6:1 10:1 15:1 16:1 17:1 18:1 87:1 179:1 230:2 
1 6:1 10:1 15:1 17:1 18:1 32:1 87:1 179:1 230:2 
1 6:1 10:1 15:1 17:1 18:1 87:1 179:1 230:2 474:1 
1 6:1 10:1 15:1 17:1 18:1 81:1 87:1 220:2 474:1 
1 4:1 5:1 6:1 8:1 9:1 10:1 17:1 18:1 32:1 81:1 87:1 100:1 102:1 251:1 
1 4:2 5:1 10:1 17:2 28:1 30:1 31:1 60:1 227:1 686:1 687:1 
0.5618577199395284 6:1 10:1 15:1 18:2 32:1 87:1 159:1 220:2 
1 5:1 6:1 10:1 18:1 41:1 61:1 144:1 322:1 474:1 
0.1649684963057595 6:1 10:1 18:1 61:1 87:1 474:1 
1 6:1 10:1 18:1 38:1 61:1 87:1 474:1 
1 6:1 10:1 18:1 61:1 87:1 317:1 474:1 
1 6:1 10:1 18:1 40:1 61:1 236:1 474:1 
1 6:1 10:1 18:1 38:1 61:1 236:1 322:1 474:1 
1 5:1 10:1 17:1 30:1 31:1 646:1 
1 6:2 10:1 15:1 16:1 17:2 18:1 26:1 69:2 87:1 137:2 138:1 
1 6:1 10:1 18:1 38:1 61:1 72:1 87:1 
1 6:1 10:1 30:1 31:1 38:1 61:1 72:1 322:1 
1 6:1 10:1 11:1 18:1 22:1 62:1 73:1 74:1 87:1 
1 6:1 10:1 18:1 38:1 78:1 87:1 
1 10:1 18:1 61:1 72:1 236:1 317:1 404:1 
1 10:1 18:1 26:1 38:1 84:1 87:1 94:1 179:1 230:1 
1 5:1 10:1 38:1 136:1 168:1 247:1 290:2 
1 5:1 10:1 38:1 168:1 247:1 290:2 432:1 
1 5:2 10:1 17:1 26:1 69:1 76:1 136:1 168:1 290:1 
1 10:1 26:1 28:2 
1 9:1 10:1 55:1 65:1 66:1 113:1 696:1 697:1 
1 10:1 28:1 41:1 695:1 
1 4:1 5:1 6:1 10:1 27:1 87:1 92:1 132:1 177:1 344:1 695:1 
1 10:1 92:1 695:1 
1 4:1 6:1 10:1 99:1 232:1 309:1 564:1 565:1 695:1 
1 4:1 6:1 10:1 99:1 180:1 232:1 309:1 695:1 700:1 
1 4:1 6:1 10:1 26:1 309:1 564:1 565:1 695:1 
1 10:1 28:1 41:1 695:1 
1 6:1 10:1 28:1 41:1 695:1 
1 6:1 10:1 26:1 28:1 695:1 
1 6:1 10:1 28:1 41:1 695:1 
1 6:1 10:1 26:1 27:1 28:1 73:1 74:1 695:1 
1 6:1 10:1 26:1 27:1 55:1 73:1 74:1 695:1 
1 6:1 10:1 26:1 27:1 55:1 695:1 
1 10:1 26:1 27:1 28:1 40:1 695:1 
1 10:1 26:1 27:1 28:2 695:2 
1 5:1 6:1 7:1 10:1 247:1 290:1 302:1 466:1 
1 5:1 6:1 7:1 8:1 9:1 10:1 247:1 290:1 
1 4:1 5:1 6:1 10:1 11:1 38:1 141:1 168:1 302:1 466:1 
1 4:1 5:1 6:1 8:1 9:1 10:1 11:1 38:1 141:1 168:1 
1 4:1 7:1 8:1 9:1 10:1 19:1 163:1 701:1 
1 4:2 5:1 6:1 7:1 8:1 9:1 10:1 15:1 17:1 30:1 32:1 
1 6:1 10:1 19:1 22:1 221:1 236:1 310:1 391:1 466:1 705:1 
1 4:1 5:1 8:1 10:1 39:1 61:1 221:1 
1 4:1 5:1 6:1 10:1 17:1 214:1 215:1 302:1 466:1 
1 4:1 5:1 6:1 8:1 9:1 10:1 17:1 214:1 215:1 
1 4:1 5:1 6:2 10:1 137:1 218:1 257:1 302:1 466:1 
1 4:1 6:1 7:1 10:1 28:1 38:1 466:1 
1 4:1 6:1 7:1 8:1 9:1 10:1 26:1 27:1 28:1 38:1 
1 4:1 6:1 7:1 8:1 10:1 26:1 27:1 28:1 38:1 
1 6:1 10:1 28:1 38:1 99:1 302:1 466:1 
1 4:3 5:3 6:1 8:1 9:1 10:1 15:1 16:1 17:1 18:1 28:1 92:1 115:1 116:1 136:1 
1 4:2 5:1 10:1 28:1 169:1 180:1 181:1 302:1 390:1 466:1 
1 4:2 5:1 8:1 9:1 10:1 18:1 28:1 169:1 180:1 181:1 
1 7:1 10:1 65:1 150:1 399:1 466:1 685:1 703:1 
1 7:1 8:1 10:1 65:1 150:1 399:1 685:1 703:1 
1 3:1 7:1 8:1 10:1 51:2 81:1 86:1 87:1 88:1 
1 4:1 5:1 8:1 9:1 10:1 12:1 247:2 290:1 
1 8:1 9:1 10:1 19:1 43:1 100:1 309:1 
1 4:1 5:1 8:1 9:1 10:1 17:1 214:1 215:1 
1 5:1 10:1 13:1 14:1 19:1 24:1 28:1 38:1 75:1 
1 3:1 4:1 5:1 8:1 10:1 17:1 28:1 38:1 100:1 309:1 
1 3:1 8:1 10:1 15:2 51:1 220:2 247:1 
1 7:1 8:1 10:1 15:1 17:1 29:1 55:1 69:1 84:1 85:1 87:1 232:1 233:1 268:1 713:1 
1 4:1 5:1 8:1 9:1 10:1 15:1 17:1 29:1 49:1 59:1 79:1 80:2 232:1 
1 4:1 5:1 8:1 9:1 10:1 15:1 17:1 38:1 51:1 121:1 122:1 
1 4:1 5:1 8:1 9:1 10:1 15:1 38:1 51:1 121:1 122:1 
1 4:1 10:1 29:1 92:1 
1 4:1 5:1 8:1 9:1 10:1 98:1 
1 5:1 8:1 10:1 15:1 29:1 49:1 79:1 80:2 84:1 98:1 
1 4:1 5:1 6:1 8:1 10:1 17:1 30:1 49:1 79:1 80:1 81:1 136:1 461:1 
1 7:2 8:1 9:1 10:1 15:1 19:1 29:1 40:1 55:1 73:1 74:1 
1 4:1 5:1 10:1 15:1 49:1 69:1 247:1 290:1 370:1 
1 4:1 6:1 10:1 15:1 92:1 
1 5:1 10:1 15:1 114:2 370:1 
1 5:1 10:1 15:1 40:1 41:1 114:2 370:1 
1 5:1 10:1 15:1 26:1 114:2 370:1 
1 4:1 5:1 10:1 15:1 250:1 370:1 
1 4:1 5:1 10:1 15:1 17:1 40:1 59:1 114:2 370:1 
1 4:1 5:1 10:1 15:1 114:2 370:1 
1 4:1 5:1 10:1 15:1 17:1 40:1 114:2 370:1 
1 4:2 5:1 10:1 15:1 17:1 114:2 370:1 
1 4:1 5:2 10:1 15:1 40:1 114:2 128:1 370:1 
1 4:1 5:1 10:1 15:1 134:2 370:1 
1 4:2 5:2 10:1 15:1 114:2 135:1 370:1 
1 4:2 5:1 10:1 15:1 28:1 370:1 
1 4:1 5:1 10:1 15:1 54:2 370:1 
1 10:1 15:1 62:1 69:1 370:1 
1 4:1 5:1 10:1 15:1 17:1 59:1 62:1 114:2 370:1 
1 4:1 5:1 10:1 15:1 41:1 370:1 
1 4:2 5:1 10:1 15:1 89:1 370:1 
1 4:1 5:1 10:1 15:1 114:2 370:1 
1 4:2 5:1 10:1 15:1 114:2 370:1 
1 4:1 5:1 10:1 15:1 27:1 114:2 370:1 
1 5:1 6:1 10:1 27:1 40:1 145:1 247:1 290:1 552:1 
1 6:1 10:1 64:1 179:1 196:1 203:1 230:1 294:1 309:1 378:1 387:1 416:1 715:1 
1 10:1 28:1 145:1 232:1 285:1 
1 10:1 55:1 145:1 232:1 552:1 
1 4:1 5:1 6:1 10:1 134:2 145:1 552:1 
1 10:1 28:1 40:1 145:1 552:1 
1 10:1 28:1 81:1 145:1 552:1 
1 10:1 28:1 41:1 145:1 552:1 
0.7783245715049287 10:1 28:1 81:1 145:1 285:1 
1 10:1 28:1 41:1 145:1 285:1 
1 10:1 92:1 304:3 
1 10:1 92:1 304:4 
1 10:1 26:1 87:1 145:1 177:1 189:1 285:1 
1 10:1 26:1 87:1 145:1 177:1 552:1 717:1 
1 10:1 27:1 28:1 40:1 87:1 145:1 177:1 482:1 
1 5:1 10:1 40:1 134:2 145:1 552:1 
1 10:1 15:1 26:1 28:1 30:1 80:1 139:1 145:1 178:1 233:1 552:1 
1 10:1 28:1 62:1 145:1 552:1 
1 10:1 87:1 145:1 236:1 309:1 552:1 713:1 720:1 
1 10:1 41:1 145:1 552:1 
1 10:1 28:1 62:1 145:1 285:1 
1 10:1 87:1 145:1 236:1 285:1 309:1 713:1 715:1 
1 10:1 41:1 145:1 285:1 
1 5:1 10:1 19:5 184:2 518:1 
1 4:1 10:1 26:1 50:1 84:1 136:1 141:1 206:1 223:1 248:1 509:1 545:1 
1 6:1 10:1 26:1 73:1 74:1 220:1 251:1 309:1 378:1 387:1 720:1 
1 10:1 23:1 26:1 27:1 145:1 552:1 
1 6:1 10:1 28:1 145:1 232:1 285:1 
1 6:1 10:1 28:1 40:1 145:1 232:1 285:1 
1 6:1 10:1 28:1 41:1 145:1 232:1 285:1 
1 6:1 10:1 28:1 64:1 145:1 196:1 285:1 
1 6:1 10:1 150:1 179:1 187:1 248:1 545:1 665:1 721:1 722:1 
1 4:1 6:1 10:1 99:1 179:1 248:1 545:1 665:1 721:1 722:1 
1 6:1 10:1 28:1 145:1 552:1 
1 6:1 10:1 28:1 40:1 145:1 552:1 
1 6:1 10:1 28:1 41:1 145:1 552:1 
1 6:1 10:1 28:1 40:1 145:1 285:1 
1 6:1 10:1 26:1 28:1 145:1 285:1 
1 6:1 10:1 28:1 81:1 145:1 285:1 
1 6:1 10:1 28:1 41:1 145:1 285:1 
1 6:2 10:1 28:2 145:2 232:1 285:2 
1 6:1 10:1 55:1 145:1 552:1 
1 6:1 10:1 26:1 55:1 145:1 552:1 
1 6:1 10:1 55:1 81:1 145:1 552:1 
1 6:2 10:1 55:2 78:1 145:2 552:2 
1 6:1 10:1 28:1 61:1 145:1 285:1 
1 6:1 10:1 55:1 61:1 145:1 552:1 
1 4:1 6:1 10:1 15:1 99:2 145:1 552:1 
1 4:1 6:1 10:1 15:1 99:2 145:1 285:1 
1 6:1 10:1 55:1 73:1 74:1 145:1 552:1 
1 6:1 10:1 55:1 78:1 145:1 552:1 
1 6:1 10:1 40:1 55:1 78:1 145:1 552:1 
1 6:1 10:1 41:1 55:1 78:1 145:1 552:1 
1 6:1 10:1 15:1 26:1 27:1 145:1 552:1 
1 10:1 81:1 187:1 206:1 223:1 248:1 294:1 349:1 432:1 509:1 545:1 723:1 
1 10:1 426:4 724:1 
1 6:1 10:1 74:1 145:1 262:1 552:1 
1 10:1 26:1 27:1 28:1 145:1 552:1 
1 10:1 26:1 27:1 55:1 145:1 552:1 
1 5:1 10:1 40:1 247:1 257:1 290:1 725:1 
1 5:1 10:1 15:1 41:1 290:1 653:1 726:1 
1 3:2 10:1 17:1 26:1 49:1 59:1 69:1 73:1 80:1 141:1 236:1 352:1 406:1 455:1 729:1 
1 10:1 17:1 28:1 41:1 86:1 134:2 727:1 
1 10:1 55:1 121:1 352:1 546:1 735:1 
1 4:1 10:1 17:1 86:1 92:1 624:1 657:1 
1 6:1 10:1 17:1 22:1 26:2 86:1 238:1 609:1 624:1 737:1 
1 4:1 6:1 10:1 17:1 26:2 28:1 112:1 223:1 357:1 361:1 
1 10:1 15:1 17:1 26:1 40:1 49:1 86:1 352:1 452:1 624:1 653:1 
1 10:1 17:1 62:1 69:1 81:1 742:1 743:1 744:1 
1 10:1 17:1 26:1 55:1 69:1 86:1 266:1 299:1 624:1 
1 10:1 17:1 19:1 86:1 123:1 518:1 624:1 
1 10:1 17:1 19:1 55:1 73:1 74:1 86:1 271:1 272:1 624:1 
1 4:1 10:1 92:1 579:1 
1 5:1 10:1 17:1 28:1 56:1 57:1 92:1 421:1 
1 5:1 10:1 17:1 28:1 312:1 427:1 741:1 
1 5:1 10:1 15:1 17:1 40:1 98:2 417:1 
1 5:1 10:1 17:1 40:1 98:2 257:1 754:1 
1 5:1 10:1 26:1 71:1 80:1 178:1 245:1 
0.1476863919587573 10:1 49:1 71:1 247:1 267:1 
1 10:1 71:3 80:3 81:3 178:3 
1 10:1 71:1 84:1 247:1 267:1 
1 5:1 10:1 17:1 30:2 76:1 290:1 352:1 
1 5:1 10:1 11:1 30:1 31:1 146:1 
1 5:1 6:1 10:1 17:2 40:1 218:1 222:1 257:1 283:2 294:1 378:1 416:1 
1 6:1 10:1 15:2 17:1 30:2 59:1 61:1 62:1 69:2 90:2 144:1 247:1 278:1 356:2 
1 5:1 10:1 17:1 30:2 38:1 59:1 62:1 365:1 
1 6:1 10:1 30:1 41:1 180:1 236:1 278:1 
1 4:1 5:2 6:1 10:1 17:1 28:2 38:1 185:1 218:1 283:1 
1 10:1 38:1 62:1 218:1 283:1 309:1 
1 5:1 10:1 17:1 30:2 38:1 59:1 62:1 135:1 
1 5:1 10:1 17:1 26:1 28:1 30:2 38:1 59:1 62:1 
1 5:1 6:1 10:1 17:1 26:1 28:1 30:2 38:1 62:1 278:1 
1 5:1 10:1 17:1 28:1 30:2 38:1 385:1 
1 5:1 10:1 31:1 54:2 356:1 
1 5:1 10:1 54:2 222:1 283:1 
1 5:1 10:1 54:2 146:1 222:1 283:1 
1 5:1 10:1 30:1 31:1 54:2 146:1 
1 5:1 6:1 10:1 30:1 40:1 74:1 81:1 90:1 309:1 
1 4:1 5:1 10:1 17:1 62:1 136:1 168:1 205:1 283:1 352:1 
1 5:1 10:1 17:1 62:1 99:1 136:1 168:1 254:1 283:1 
1 4:1 5:1 10:1 17:1 26:1 30:1 62:1 135:1 136:1 168:1 352:1 
1 4:1 5:1 10:1 17:1 26:1 30:1 62:1 135:1 136:1 168:1 
1 4:1 5:2 6:1 10:1 17:1 28:2 38:1 59:1 90:1 356:1 429:1 
1 10:1 38:1 59:1 62:1 356:2 
1 10:1 38:1 59:1 62:1 309:1 356:1 
1 10:1 30:1 31:1 59:1 62:1 317:1 
1 10:1 30:2 38:1 59:1 62:1 
1 6:1 10:1 22:1 49:1 59:1 69:1 90:2 
1 5:2 10:1 17:3 28:2 222:1 283:1 
1 5:2 10:1 17:3 28:2 30:1 31:1 
1 5:1 10:1 17:1 28:1 205:1 222:1 283:1 424:1 
1 5:1 10:1 17:1 28:1 30:1 31:1 74:1 84:1 110:1 
1 6:1 10:1 15:2 17:2 19:1 23:1 30:1 31:1 62:1 169:1 278:1 
1 6:1 10:1 15:1 17:2 19:1 23:1 62:1 169:1 223:1 257:1 283:1 403:1 
1 5:1 10:1 41:1 90:2 
1 5:1 10:1 41:1 185:2 
1 5:1 10:1 17:1 28:1 98:1 146:1 222:1 283:1 
1 5:1 10:1 17:1 28:1 30:1 31:1 98:1 146:1 
1 5:1 6:1 10:1 15:1 17:2 30:2 31:1 40:1 59:1 251:1 378:1 
1 10:1 30:1 81:1 92:1 
1 5:1 10:1 98:1 222:1 283:1 
1 5:1 10:1 30:1 31:1 98:1 
1 5:1 10:1 17:1 28:1 98:1 146:1 222:1 283:1 
1 5:1 10:1 17:1 28:1 30:1 31:1 98:1 146:1 
1 5:1 6:1 10:1 17:1 22:1 30:1 38:1 55:1 139:1 140:1 
1 6:1 10:1 17:1 81:1 179:1 185:2 230:1 498:1 759:1 
1 6:1 10:1 17:1 26:1 81:1 90:2 220:1 407:1 760:1 
1 4:1 5:1 6:1 10:1 17:1 22:1 30:1 31:1 90:1 247:1 407:1 760:1 
1 4:1 5:1 6:1 10:1 17:1 22:1 185:1 247:1 283:1 403:1 498:1 759:1 
1 5:1 6:2 10:1 15:1 17:1 26:1 27:1 38:1 40:1 139:1 140:1 214:1 215:1 
1 10:1 30:2 38:1 62:1 73:1 74:1 
1 6:1 10:1 26:1 87:1 247:1 
1 6:1 10:1 15:1 150:1 240:1 422:2 
1 6:1 10:1 15:1 17:1 30:1 179:1 230:2 422:1 
0.8259711343758531 6:1 10:1 15:1 17:1 41:1 422:2 
1 6:2 10:1 17:1 49:1 69:1 81:1 422:1 445:1 446:1 
1 6:1 10:1 26:1 27:1 69:1 422:1 761:1 
1 6:1 10:1 17:1 92:1 131:1 180:1 236:1 661:2 763:1 764:1 
1 6:1 10:1 17:1 26:1 39:1 49:1 69:2 113:1 223:1 251:1 421:1 545:1 569:1 765:1 773:1 
1 5:1 6:1 10:1 17:2 40:1 80:1 137:1 178:1 379:1 661:2 
1 5:1 6:1 10:1 17:2 260:1 277:1 379:1 403:1 661:2 
1 5:1 10:1 17:1 69:1 133:1 220:1 251:1 268:1 353:1 378:1 406:1 407:1 661:1 
1 10:1 40:1 65:1 66:1 99:1 109:1 232:1 257:1 358:1 661:1 
1 10:1 15:1 26:1 40:1 65:1 66:1 232:1 268:1 448:1 546:1 661:1 
1 4:1 5:1 10:1 17:1 24:1 28:1 62:1 75:1 92:1 247:1 445:1 446:1 
1 6:1 10:1 17:2 62:1 82:1 422:1 445:1 446:1 467:1 632:2 766:1 775:1 
1 6:1 10:1 15:1 17:1 59:1 179:1 230:2 422:1 
1 6:1 10:1 17:1 26:1 27:1 59:1 69:1 422:1 
1 5:1 6:2 10:1 15:1 17:2 26:1 39:1 243:1 606:1 653:1 
1 5:1 6:2 10:1 17:2 39:1 243:1 257:1 606:1 653:1 
1 6:1 10:1 17:1 26:1 69:1 422:1 460:1 778:1 779:1 
1 10:1 17:1 41:2 82:1 422:1 780:2 
1 6:1 10:1 17:1 41:2 422:1 
1 6:1 10:1 17:1 41:2 422:1 
1 6:1 10:1 17:1 41:2 428:1 
1 6:1 10:1 17:1 26:1 28:1 40:1 421:1 422:2 
1 6:1 10:1 15:1 17:1 179:1 230:2 247:1 422:1 
1 6:1 10:1 17:1 41:2 422:1 
1 6:1 10:1 17:1 26:1 204:1 236:1 422:1 647:1 
1 6:1 10:1 17:1 41:1 201:1 236:1 422:1 637:1 
1 6:1 10:1 26:1 159:1 421:1 422:2 597:1 
1 6:1 10:1 17:1 179:1 230:2 247:1 257:1 428:1 
1 6:1 10:1 17:1 41:2 428:1 
1 6:1 10:1 17:1 41:1 201:1 236:1 428:1 637:1 
1 6:1 10:1 17:1 41:1 232:1 428:1 
1 6:2 10:1 17:1 28:1 115:1 232:1 257:1 653:1 777:1 
0.3291987999651614 6:1 10:1 17:1 26:1 129:3 130:3 422:1 
1 6:1 10:1 17:1 26:1 129:4 130:4 422:1 
1 6:1 10:1 17:1 129:6 130:6 428:1 
1 6:1 10:1 17:1 26:1 129:6 130:6 422:1 
1 6:1 10:1 17:1 92:1 129:1 130:1 422:1 782:1 
1 6:1 10:1 17:1 41:1 78:1 422:1 
1 6:2 10:1 15:1 17:1 55:1 78:1 445:1 446:1 653:1 
1 6:1 10:1 17:1 69:1 78:1 201:1 236:1 422:1 637:1 
1 6:1 10:1 17:1 26:2 27:1 422:1 
1 6:1 10:1 17:1 26:1 27:1 28:2 41:1 422:2 
1 6:1 10:1 17:1 94:1 206:1 236:1 422:1 459:1 
1 6:2 10:1 17:1 26:1 30:1 102:1 370:1 422:1 
1 6:1 10:1 17:1 136:1 141:2 422:1 429:1 
1 6:1 10:1 17:1 61:1 79:1 80:2 81:1 84:1 422:1 429:1 
1 10:1 15:2 61:2 62:1 69:1 
1 10:1 15:1 40:1 139:1 140:1 518:1 
1 10:1 15:2 61:2 679:2 791:2 
1 6:1 10:1 15:1 69:1 78:1 139:1 140:1 418:1 
1 5:1 10:1 15:1 102:1 128:1 139:1 140:1 
1 6:1 10:1 15:1 69:1 139:1 140:1 440:1 615:1 
1 6:1 10:1 15:1 55:1 112:1 139:1 140:1 232:1 573:1 574:1 
1 6:1 10:1 15:1 69:1 139:1 140:1 230:1 
1 6:1 10:1 15:1 139:1 140:1 230:1 247:1 
1 5:1 10:1 15:1 41:2 139:1 140:1 
1 6:1 10:1 15:1 78:1 139:1 140:1 314:1 451:1 
1 5:1 10:1 15:1 98:1 139:1 140:1 
1 5:1 6:1 10:1 15:1 17:1 137:1 139:1 140:1 179:1 665:1 
1 6:1 10:1 15:1 62:1 69:1 139:1 140:1 
1 6:1 10:1 15:1 40:1 62:1 69:1 139:1 140:1 
1 6:1 10:1 15:1 78:1 139:1 140:1 267:1 
1 6:2 10:1 15:1 30:1 69:1 139:1 140:1 230:1 
1 3:1 10:1 15:1 139:1 140:1 232:1 236:1 
1 6:1 10:1 15:1 69:1 139:1 140:1 459:1 
1 10:1 17:1 24:1 75:1 84:1 110:1 141:1 180:1 206:1 236:1 345:1 379:1 421:1 
1 6:1 10:1 15:1 28:2 180:1 236:1 278:1 421:1 
1 5:1 10:1 94:1 102:1 236:1 793:1 
1 5:1 10:1 80:2 268:1 270:1 
1 6:1 10:1 28:1 59:2 180:1 236:1 421:1 
1 6:1 10:1 59:1 62:1 112:1 180:1 236:1 421:1 
1 10:1 38:1 59:1 62:1 94:1 236:1 421:1 
1 10:1 59:1 62:1 94:1 221:1 317:1 675:1 794:1 
1 10:1 26:1 180:1 236:1 421:2 422:1 
1 6:1 10:1 38:1 180:1 236:1 421:1 
1 6:1 10:1 144:1 179:1 180:1 230:1 236:1 421:1 
1 10:1 40:1 61:1 94:1 236:1 344:1 421:1 
1 10:1 41:1 94:1 236:1 421:1 
1 10:1 15:1 28:2 180:1 236:1 421:1 
1 6:1 10:1 50:1 180:1 236:1 421:1 
1 6:1 10:1 38:1 72:1 94:1 236:1 421:1 
1 5:1 6:1 7:1 10:1 15:1 17:2 32:1 179:1 180:1 230:2 236:1 421:1 
1 6:1 7:1 10:1 15:1 17:1 32:1 179:1 180:1 230:2 236:1 421:1 
1 6:1 10:1 17:1 26:2 38:1 102:1 370:1 586:2 797:1 798:1 
1 10:1 26:1 72:1 180:1 236:1 404:1 421:1 
1 10:1 92:1 94:1 169:1 356:1 799:1 800:1 
1 10:1 15:1 49:1 69:1 94:1 102:1 135:1 169:1 236:1 
1 5:1 7:1 10:1 26:1 28:1 80:1 94:1 169:1 236:1 356:1 
1 10:1 30:1 62:1 94:1 236:1 
1 6:1 10:1 38:1 59:1 94:1 102:1 236:1 278:1 
1 10:1 59:1 94:1 236:1 352:1 356:1 
1 10:1 30:1 59:1 62:1 94:1 236:1 317:1 
1 10:1 17:1 38:1 59:1 62:1 94:1 236:1 356:1 
1 10:1 17:1 30:1 40:1 59:1 62:1 94:1 169:1 236:1 
1 10:1 15:1 17:1 30:2 61:1 69:1 94:1 102:1 169:1 197:1 317:1 352:1 
1 10:1 15:1 90:1 94:1 102:1 169:1 236:1 371:1 
1 5:1 10:1 26:1 28:1 30:1 55:1 94:1 102:1 169:1 236:1 317:1 
1 6:1 7:1 10:1 15:1 17:2 135:1 136:1 141:2 214:1 215:1 236:1 266:1 289:1 395:1 396:1 
1 10:1 17:1 136:1 141:2 206:1 422:1 
1 10:1 17:1 136:1 141:2 206:1 482:1 
1 5:1 6:1 10:1 17:2 136:1 137:1 141:2 289:1 395:1 396:1 
1 5:1 6:1 10:1 17:2 137:1 141:1 289:1 395:1 396:1 432:1 
1 10:1 81:1 136:1 141:2 289:1 395:1 396:1 
1 10:1 26:1 141:1 144:1 206:1 445:1 446:1 
1 10:1 15:1 19:1 28:1 
1 5:1 10:1 15:1 28:1 128:1 
1 5:1 10:1 15:1 28:1 611:1 
1 4:1 5:1 10:1 15:1 28:1 821:1 
1 10:1 15:1 28:1 232:1 236:1 
1 10:1 15:1 84:1 94:1 224:1 
1 6:1 7:1 10:1 15:1 22:1 26:1 69:1 200:1 659:1 
1 10:1 15:1 69:1 84:1 94:1 
1 10:1 15:2 69:2 84:2 94:2 
1 10:1 15:1 19:1 31:1 69:1 84:1 364:1 
1 7:1 10:1 15:1 84:1 94:1 
1 10:1 92:1 620:1 
1 6:1 10:1 72:1 94:1 224:2 236:1 278:1 620:1 
1 7:1 10:1 15:1 62:1 
1 6:1 7:1 10:1 15:1 16:1 17:1 26:1 85:1 137:1 138:1 174:1 200:1 236:1 
1 10:1 15:1 17:1 30:1 62:1 84:1 94:1 220:1 
1 5:1 6:1 10:1 15:1 26:1 41:1 69:1 84:1 94:1 137:1 
1 6:1 10:1 15:1 16:1 17:1 26:1 30:1 69:1 84:1 
1 6:1 10:1 15:1 26:1 30:1 69:1 84:1 94:1 137:1 138:1 
1 6:1 7:1 10:1 15:1 26:1 30:1 69:1 84:1 94:1 
1 5:1 6:1 7:1 10:1 15:1 40:1 84:1 94:1 114:2 
1 10:1 26:1 136:1 141:2 163:1 
1 10:1 15:1 69:1 84:1 
1 4:1 7:1 10:1 15:1 62:1 84:1 
1 4:1 5:1 10:1 15:1 67:1 68:1 370:1 
0.4891535977124482 4:1 10:1 26:1 28:1 39:1 655:1 
1 10:1 26:1 28:1 39:1 55:1 
1 4:1 10:1 26:1 28:1 39:1 123:1 
1 5:1 10:1 26:1 28:1 42:1 452:1 
1 5:1 10:1 28:1 40:1 128:1 189:1 
1 4:2 5:1 10:1 17:1 28:1 49:1 179:1 230:1 
1 10:1 19:1 28:1 123:1 218:1 
1 10:1 19:1 28:1 218:1 388:1 460:1 
1 10:1 27:1 28:7 
1 10:1 27:1 28:6 205:1 
1 10:1 19:1 28:2 123:1 
1 5:1 10:1 17:1 27:1 28:1 54:2 205:1 
1 10:1 19:1 28:1 40:1 123:1 504:1 
1 10:1 26:1 30:1 31:1 84:1 243:1 265:1 364:1 440:1 595:1 
1 4:1 10:1 28:1 84:1 123:1 180:1 
1 4:1 10:1 26:1 27:1 28:1 59:1 123:1 
1 10:1 19:1 27:1 28:1 123:1 218:1 723:1 
1 10:1 19:1 27:1 28:1 123:1 205:1 
1 5:1 10:1 17:1 19:2 28:1 99:1 259:1 
1 10:1 26:1 28:1 55:1 93:1 
1 10:1 74:1 230:1 
1 10:1 81:1 128:2 206:1 
1 10:1 81:1 141:1 206:1 
1 10:1 15:1 74:2 
1 10:1 15:1 40:1 74:2 810:1 
1 10:1 26:1 30:1 31:1 74:1 236:1 760:1 
1 10:1 74:1 245:1 352:1 
1 10:1 80:1 84:1 110:1 141:1 206:1 
1 6:1 10:1 15:1 17:1 40:1 55:1 69:2 445:1 446:1 
1 5:1 6:1 10:1 17:2 40:1 94:1 137:2 138:1 144:1 445:1 446:1 
1 4:1 6:2 10:1 17:1 38:1 69:1 82:1 224:2 
1 6:1 10:1 17:1 30:1 78:1 80:1 84:1 247:1 445:1 446:1 
1 10:1 49:1 179:1 230:1 
1 10:1 38:1 49:1 179:1 230:1 
1 10:1 26:1 28:1 38:1 
1 10:1 40:1 179:1 230:1 
1 10:1 81:1 179:1 230:1 
1 10:1 41:1 179:1 230:1 
1 10:1 179:1 230:1 247:1 
1 10:1 59:1 179:1 230:1 
1 10:1 41:1 179:1 230:1 
1 10:1 40:1 78:1 179:1 230:1 
1 4:1 10:1 41:1 136:1 495:1 658:1 
1 4:1 10:1 41:1 136:1 141:1 495:1 658:1 
1 10:1 40:1 136:1 141:1 495:1 658:1 
1 10:1 58:1 136:1 141:1 495:1 658:1 
1 4:2 5:1 10:1 17:1 58:1 136:1 495:2 
1 4:1 10:1 40:1 58:1 136:1 141:1 495:1 
1 10:1 40:1 136:1 141:2 495:1 658:1 
1 10:1 17:1 41:1 136:1 141:1 495:1 658:1 
1 4:1 5:1 10:1 17:2 28:1 144:1 495:1 658:1 
1 10:1 17:1 81:1 136:1 141:2 495:1 658:1 
1 4:1 6:1 10:1 26:1 92:1 144:1 159:1 495:1 500:1 658:1 
1 5:1 10:1 17:1 40:1 58:1 59:1 136:1 141:1 150:1 240:1 275:1 495:1 
1 4:1 10:1 17:1 92:1 136:1 137:1 141:1 146:1 495:1 658:1 
1 4:1 10:1 29:1 58:1 92:1 136:1 141:1 495:1 658:1 
1 4:1 5:1 6:1 10:1 17:1 58:1 81:1 495:1 
1 10:1 136:1 141:2 495:1 658:1 
1 4:1 5:1 10:1 17:1 28:1 51:1 82:1 136:1 495:1 
1 10:1 51:1 81:1 88:1 102:1 495:1 658:1 
1 10:1 26:1 38:1 102:1 421:1 422:1 495:1 
1 4:1 5:1 10:1 12:1 17:1 28:1 51:2 82:1 495:1 658:1 
1 4:1 5:1 6:1 10:1 17:2 22:1 38:1 58:1 62:1 102:1 344:1 
0.4526457266497277 10:1 15:1 74:2 98:3 247:1 
1 10:1 74:1 136:1 141:1 206:1 
1 10:1 26:1 74:1 82:1 136:1 141:1 491:1 
0.2300208530120987 10:1 28:1 41:1 229:1 
1 10:1 17:1 28:1 41:1 99:1 120:1 744:1 833:1 
1 10:1 16:1 17:1 26:1 28:1 85:1 120:1 223:1 224:1 236:1 835:1 836:2 
1 10:1 17:1 26:1 27:1 28:1 41:1 744:1 833:1 
1 6:1 10:1 17:1 69:1 74:1 96:1 110:1 145:1 460:1 778:1 779:1 
1 6:1 10:1 17:1 26:1 69:1 74:1 96:1 110:1 145:1 460:1 778:1 779:1 
1 6:1 10:1 17:1 74:1 96:1 145:1 408:1 460:1 
1 10:1 27:1 28:1 99:1 120:1 224:1 
1 10:1 26:1 28:1 120:1 224:1 
1 10:1 15:1 26:1 27:1 81:1 120:1 653:1 
1 10:1 59:1 69:1 81:1 96:1 97:1 266:1 299:1 
1 10:1 15:1 17:2 26:1 28:1 40:1 63:1 69:2 96:2 97:1 247:1 407:1 760:1 
1 6:1 10:1 17:1 28:1 55:1 99:1 120:1 224:1 236:1 266:1 346:1 
1 6:2 10:1 17:2 26:1 28:1 55:1 69:1 395:1 396:1 445:1 446:1 460:1 
1 6:1 10:1 28:1 40:1 445:1 446:1 
1 6:1 10:1 28:1 247:1 445:1 446:1 
1 6:1 10:1 26:1 41:1 445:1 446:1 
1 6:1 10:1 78:1 445:1 446:1 
1 6:1 10:1 28:1 89:1 145:1 205:1 257:1 386:1 418:1 482:1 
1 6:2 10:1 15:1 28:1 30:1 55:1 73:1 74:1 80:1 81:1 145:1 178:1 245:1 278:1 482:1 
1 10:1 15:1 87:1 92:1 145:1 177:1 204:1 268:1 482:1 840:1 
1 6:1 10:1 15:1 28:1 87:1 145:1 177:1 482:1 
1 10:1 15:1 28:1 55:1 87:1 145:1 177:1 482:1 
1 6:1 10:1 15:1 28:1 69:1 79:1 80:1 145:1 230:1 435:1 482:1 
1 5:1 10:1 80:1 136:1 145:1 178:1 482:1 719:1 
1 5:1 10:1 81:1 113:1 141:1 145:1 186:1 189:1 194:1 257:1 285:1 482:1 843:1 844:1 
1 10:1 19:1 123:1 145:1 257:1 849:1 
1 6:2 10:1 28:2 64:1 81:1 145:1 245:1 257:1 260:1 283:1 336:1 403:1 482:1 749:1 
1 6:1 10:1 15:1 145:1 552:1 
1 5:1 6:2 7:1 10:1 15:2 17:1 26:1 28:1 41:1 145:1 482:1 850:1 851:1 
1 6:1 10:1 26:1 28:1 40:1 145:1 482:1 822:1 
1 5:1 6:2 10:1 17:1 28:2 41:1 145:1 257:2 482:1 723:1 850:1 851:1 
1 6:1 10:1 28:1 230:1 852:1 
0.5510215322821742 6:1 10:1 55:1 230:1 853:1 
1 6:1 9:1 10:1 15:1 28:1 99:1 145:1 482:1 
1 6:1 10:1 15:1 28:1 87:1 145:1 177:1 482:1 
1 6:1 10:1 28:1 35:1 99:1 145:1 257:1 302:1 482:1 
1 6:1 10:1 19:1 230:1 852:1 
1 6:1 10:1 26:1 28:1 73:1 74:1 129:1 130:1 145:1 482:1 
1 6:1 10:1 15:1 28:1 40:2 73:1 74:1 79:1 80:1 145:1 435:1 482:1 
0.2534834375342968 6:1 10:1 15:1 28:1 55:1 73:1 74:1 79:1 80:1 145:1 435:1 482:1 
1 6:1 10:1 15:1 28:1 145:1 482:1 
1 5:1 6:2 10:1 15:1 22:1 28:1 105:1 145:1 206:2 482:1 649:1 
1 4:1 5:1 6:1 10:1 15:1 28:1 79:1 80:1 81:1 145:1 435:1 482:1 
1 6:1 10:1 15:1 28:1 79:1 80:1 81:1 145:1 435:1 482:1 
1 6:1 10:1 15:1 28:1 129:1 130:1 145:1 482:1 
1 6:1 10:1 28:1 129:1 130:1 145:1 257:1 482:1 
1 6:1 10:1 28:1 145:1 482:1 822:1 
1 6:1 10:1 28:2 145:1 257:1 482:1 
1 6:1 10:1 15:1 28:1 55:1 145:1 482:1 
1 6:1 10:1 55:1 145:1 482:1 822:1 
1 6:1 10:1 55:1 145:1 482:1 854:1 855:1 
0.407681017251578 6:1 10:1 28:1 145:1 257:1 482:1 
1 5:1 6:2 10:1 22:1 28:1 105:1 145:1 206:2 257:1 482:1 842:1 
1 6:1 10:1 28:1 81:1 89:1 145:1 257:1 386:1 482:1 
1 5:1 6:1 10:1 19:1 28:1 81:1 89:1 145:1 257:1 386:1 482:1 
1 6:1 10:1 28:1 64:1 129:1 130:1 145:1 482:1 723:1 749:1 
1 6:1 10:1 28:2 64:1 89:1 145:1 257:1 386:1 482:1 749:1 
1 6:1 10:1 28:1 40:1 64:1 89:1 145:1 257:1 386:1 482:1 749:1 
1 6:1 10:1 19:1 223:1 271:1 482:1 750:1 843:1 857:1 858:1 
1 6:1 10:1 26:1 27:1 55:1 145:1 482:1 822:1 
1 6:1 10:1 27:1 28:1 145:1 205:1 482:1 822:1 
1 6:1 10:1 55:1 63:1 460:1 568:1 640:1 859:1 
1 5:1 10:1 145:1 260:1 403:1 432:1 482:1 719:1 
1 10:1 69:1 110:1 145:1 556:1 559:1 860:1 
1 5:1 7:1 10:1 15:1 17:1 28:1 30:1 79:1 80:1 81:1 92:1 145:1 435:1 482:1 
1 10:1 26:1 55:1 145:1 482:1 822:1 
1 5:1 7:1 10:1 17:1 28:1 81:1 89:1 145:1 222:1 257:1 386:1 482:1 
1 10:1 15:1 28:1 51:1 62:1 82:1 88:1 102:1 145:1 482:1 
1 10:1 28:1 51:1 62:1 82:1 88:1 145:1 257:1 476:1 482:1 
1 3:1 5:1 10:1 15:1 84:1 87:1 92:1 113:1 141:1 145:1 197:1 482:1 552:1 844:1 856:1 
1 10:1 141:1 145:1 168:1 860:1 
1 10:1 141:1 145:1 168:1 205:1 862:1 
1 10:1 15:1 145:1 232:1 460:1 568:1 845:1 
0.348800507304639 10:1 15:1 28:1 145:1 460:1 482:1 568:1 
1 10:1 26:1 30:1 115:1 116:1 233:1 267:1 318:1 
1 4:1 6:1 10:1 17:1 26:1 30:1 69:1 80:1 115:1 116:1 178:1 180:1 236:1 278:1 387:1 867:1 
0.3259350405252281 6:1 10:1 26:1 27:1 55:1 304:2 868:1 
1 4:1 6:2 10:1 15:1 22:1 90:1 112:1 123:1 868:1 
1 6:1 10:1 26:1 28:1 204:1 868:1 869:1 
1 4:1 5:1 6:1 10:1 79:1 80:1 81:1 204:1 435:1 868:1 869:1 
1 5:1 6:1 10:1 28:1 41:1 92:1 278:1 746:1 868:1 
1 5:1 6:1 10:1 28:1 79:1 80:1 81:1 247:1 435:1 868:1 
1 4:1 6:1 10:1 62:1 309:1 344:1 868:1 
1 6:1 10:1 28:1 40:1 73:1 74:1 204:1 868:1 869:1 
1 10:1 39:1 92:1 
1 10:1 26:1 39:2 
1 6:1 10:1 17:1 19:1 26:1 69:1 136:2 141:1 653:2 
1 10:1 17:1 26:2 39:1 69:1 174:1 200:1 
1 10:1 19:1 136:1 141:1 
1 10:1 136:2 141:2 
1 10:1 136:3 141:3 
1 10:1 41:1 136:1 141:1 
1 10:1 41:1 136:1 141:1 
1 6:1 10:1 40:1 136:1 141:1 
1 6:1 10:1 22:1 136:2 141:2 
1 10:1 78:1 136:1 141:1 
1 5:2 10:1 92:1 128:3 611:3 
1 10:1 134:5 611:8 
1 10:1 59:1 69:1 94:1 233:1 267:1 318:1 573:1 574:1 
1 6:2 10:1 22:1 26:1 30:1 39:1 80:1 141:1 144:1 150:1 165:1 178:1 
1 10:1 17:1 26:1 30:1 69:1 267:1 352:1 573:1 574:1 
1 3:1 5:1 10:1 30:2 31:1 80:1 81:1 146:1 178:1 275:1 
1 5:1 10:1 17:1 30:1 98:1 233:1 267:1 318:1 
1 4:1 5:1 6:1 7:1 8:1 9:1 10:1 17:1 30:1 80:1 178:1 
1 10:1 48:1 80:1 92:1 178:1 206:1 245:1 305:1 344:1 472:1 493:1 
1 10:1 15:1 26:1 239:1 253:1 783:1 874:1 875:1 
1 6:1 7:1 10:1 102:1 180:1 455:1 587:1 874:1 877:1 
1 6:1 10:1 65:1 143:1 438:1 691:1 876:1 
1 5:1 6:1 10:1 22:1 26:1 27:1 28:1 40:1 92:1 230:1 874:1 878:1 879:1 
1 10:1 92:1 385:2 880:2 
1 6:1 10:1 15:1 17:1 28:2 30:1 84:1 206:1 
1 6:1 10:1 15:1 17:1 28:2 30:1 81:1 84:1 206:1 
1 6:1 10:1 28:1 69:1 80:1 206:1 
1 6:1 10:1 15:1 28:2 84:1 206:1 
1 5:1 10:1 11:1 17:1 64:1 74:1 144:1 
1 10:1 15:1 17:1 40:1 64:1 69:2 74:1 
1 4:1 6:1 10:1 17:1 26:1 102:1 224:2 238:1 278:1 498:1 888:1 889:1 891:1 
0.08896599326845143 10:1 94:1 102:1 224:2 455:1 889:1 892:1 
1 10:1 58:1 102:1 224:2 455:1 888:1 889:1 893:1 
1 6:1 10:1 17:1 26:1 58:1 102:1 224:2 278:1 455:1 888:1 889:1 893:1 
1 4:1 6:1 10:1 17:1 26:1 38:1 59:1 69:1 72:1 80:1 85:1 178:1 204:1 224:2 278:1 888:1 889:1 
1 10:1 17:1 26:2 58:1 102:1 317:1 888:1 889:1 894:1 
1 6:1 10:1 17:1 26:1 38:1 58:1 102:1 278:1 888:1 889:1 894:1 
1 6:1 10:1 15:1 17:2 26:1 50:1 58:1 102:1 220:2 224:2 236:1 455:1 888:1 889:1 893:1 
1 6:2 10:1 15:1 17:2 26:1 38:1 72:1 180:1 224:1 236:1 278:1 448:1 455:1 498:1 546:1 888:1 889:1 
1 6:1 10:1 17:1 22:1 26:1 224:2 243:1 889:1 
1 6:1 7:1 10:1 17:1 22:1 26:1 27:1 40:1 206:1 888:1 889:1 
1 6:1 7:1 10:1 17:1 180:1 224:1 236:1 247:1 
1 6:1 7:1 10:1 17:1 26:1 27:1 206:1 888:1 889:1 
1 7:1 10:1 12:1 17:1 26:1 28:1 69:1 112:1 141:1 888:1 889:1 
1 10:1 17:1 26:1 32:1 40:1 69:1 91:2 94:1 232:1 236:1 262:1 661:2 
1 10:1 17:1 26:1 32:1 40:1 69:1 91:2 232:1 251:1 661:2 
1 10:1 17:1 26:1 40:1 69:1 91:2 232:1 251:1 661:2 
1 10:1 17:1 26:1 40:1 69:1 91:2 232:1 251:1 661:2 
1 10:1 17:1 26:1 32:1 40:1 69:1 91:2 94:1 232:1 262:1 661:2 
1 10:1 17:1 26:1 32:1 40:1 69:1 91:2 232:1 251:1 661:2 
1 10:1 17:1 26:1 39:1 65:1 66:1 91:2 112:1 139:1 140:1 208:1 661:2 
0.5370133177721471 10:1 17:1 26:1 65:1 66:1 69:1 91:2 94:1 139:1 140:1 144:1 232:1 262:1 661:2 
1 10:1 17:1 26:1 65:1 66:1 69:1 91:2 94:1 139:1 140:1 144:1 232:1 262:1 661:2 
1 10:1 17:1 26:1 65:1 66:1 91:2 112:1 139:1 140:1 208:1 661:2 
1 5:1 8:1 9:1 10:1 17:1 28:1 38:2 59:1 
1 10:1 15:1 17:1 40:1 69:2 74:1 82:1 360:1 
1 10:1 17:1 74:1 82:1 136:1 141:2 360:1 
1 5:1 6:1 10:1 17:1 82:1 100:1 144:1 275:1 491:1 
1 10:1 23:1 40:1 100:1 136:1 141:2 238:1 890:1 900:1 
1 10:1 23:1 100:1 136:1 141:2 247:1 262:1 
1 10:1 17:1 26:1 59:1 62:1 69:1 97:1 
1 10:1 17:1 26:1 59:1 62:1 69:1 97:1 158:1 
1 6:1 10:1 17:1 26:1 40:1 214:1 215:1 238:1 239:1 467:1 
1 10:1 17:1 26:1 69:1 110:1 238:1 262:1 467:1 476:1 
1 6:1 10:1 17:1 26:1 30:2 69:1 73:1 74:1 112:1 161:1 208:1 278:1 830:1 
1 6:1 10:1 16:1 17:1 26:1 69:1 73:1 74:1 112:1 161:1 208:1 356:2 830:1 
1 6:1 10:1 16:1 17:1 26:1 69:1 73:1 74:1 112:1 161:1 208:1 356:2 903:1 
1 6:1 10:1 17:1 22:1 26:1 69:1 112:1 139:1 140:1 161:1 208:1 830:1 
1 6:1 10:1 17:1 22:1 26:1 69:1 112:1 139:1 140:1 161:1 208:1 903:1 
1 6:1 10:1 17:1 22:1 26:1 69:1 112:1 139:1 140:1 161:1 208:1 487:1 677:1 830:1 
1 6:1 10:1 17:1 22:1 26:1 69:1 112:1 139:1 140:1 161:1 208:1 487:1 677:1 903:1 
1 6:1 10:1 17:1 22:1 26:1 69:1 73:1 74:1 112:1 139:1 140:1 161:1 208:1 830:1 
1 6:1 10:1 17:1 22:1 26:1 69:1 73:1 74:1 112:1 139:1 140:1 161:1 208:1 903:1 
1 10:1 40:1 49:1 74:1 82:1 491:1 
1 5:1 10:1 17:1 26:1 69:1 112:1 208:1 591:1 909:1 
1 5:1 10:1 17:1 69:1 112:1 208:1 591:1 909:1 
1 10:1 15:1 17:1 40:1 55:1 59:1 69:2 141:1 661:1 911:1 
1 10:1 15:1 64:1 110:1 139:1 140:1 141:1 197:1 206:1 232:1 423:1 795:1 
1 6:1 10:1 17:1 64:1 110:1 137:1 141:1 197:1 206:1 423:1 795:1 
1 5:1 10:1 17:1 28:1 29:2 81:1 82:2 87:1 177:1 267:1 495:1 
1 6:1 10:1 17:1 26:1 50:1 80:1 85:1 120:1 178:1 224:2 317:1 
1 5:1 6:1 10:1 17:1 28:2 55:1 144:1 224:2 
1 5:1 6:1 10:1 17:2 79:1 85:1 99:1 120:1 137:1 
1 5:1 6:1 10:1 32:1 38:1 40:1 67:1 82:1 88:1 100:1 236:1 
1 6:1 10:1 32:1 67:1 82:1 88:1 100:1 236:1 
1 6:1 10:1 32:1 38:1 67:1 82:1 88:1 100:1 236:1 
1 6:1 10:1 17:1 32:1 38:1 67:1 82:1 88:1 100:1 236:1 
1 5:1 10:1 29:1 40:1 177:1 247:1 267:1 495:1 
1 5:1 6:1 10:1 12:1 23:1 40:1 77:1 86:1 87:1 100:1 110:1 262:1 
1 5:1 6:1 10:1 17:1 59:1 100:1 110:1 445:1 446:1 923:1 
1 5:1 6:1 10:1 17:1 26:1 100:1 136:1 141:2 445:1 446:1 467:1 901:1 923:1 
1 5:1 6:1 10:1 38:1 40:1 61:1 72:1 924:1 
1 6:1 10:1 16:1 38:1 61:1 87:1 177:1 924:1 
1 10:1 38:1 59:1 61:1 100:1 404:1 405:1 924:1 
1 10:1 38:1 61:1 80:1 102:1 121:1 178:1 181:1 236:1 258:1 924:1 
1 6:1 10:1 72:1 80:1 102:1 121:1 178:1 236:1 238:1 258:1 829:1 925:1 
1 6:1 10:1 72:1 80:1 88:1 100:1 121:1 178:1 186:1 224:1 236:1 238:1 258:1 
1 6:1 10:1 72:1 80:1 88:1 100:1 121:1 178:1 186:1 224:1 236:1 258:1 490:1 
1 10:1 38:1 61:1 72:1 404:1 924:1 
1 6:1 10:1 26:1 80:1 87:1 141:1 177:1 178:1 495:1 
1 10:1 26:1 28:1 87:1 141:1 177:1 267:1 495:1 
1 6:1 10:1 26:1 80:1 87:1 141:1 177:1 178:1 495:1 
1 6:1 10:1 22:1 38:1 495:1 573:1 574:1 
1 6:1 10:1 22:1 26:1 495:1 573:1 574:1 
1 6:1 7:1 10:1 495:1 573:1 574:1 
1 6:1 10:1 55:1 145:1 890:1 
1 10:1 20:1 84:1 85:1 145:1 233:1 
1 10:1 20:1 84:1 85:1 145:1 233:1 511:1 
1 10:1 84:1 85:1 145:1 233:1 511:1 890:1 
1 4:1 10:1 62:1 84:1 85:1 145:1 890:1 
1 4:1 6:1 10:1 62:1 84:1 85:1 145:1 890:1 
1 6:1 10:1 131:1 180:1 236:1 387:1 867:1 
1 6:1 10:1 17:1 38:1 59:1 62:1 278:1 387:1 867:1 
1 5:1 10:1 17:1 28:1 38:1 94:1 102:1 799:1 944:1 
1 5:1 6:1 10:1 17:2 22:1 26:1 27:1 28:1 40:1 59:2 80:1 95:1 144:1 179:1 230:1 799:2 
1 5:1 6:1 10:1 17:1 22:1 28:1 96:1 97:1 144:1 799:2 
1 6:1 7:1 10:1 15:1 60:1 
1 10:1 57:1 80:1 84:1 352:1 463:1 949:1 
1 5:1 10:1 26:1 27:1 49:1 57:1 69:1 949:1 
1 10:1 26:1 27:1 49:1 57:1 69:1 949:1 
1 5:1 10:1 15:2 22:1 28:1 495:2 658:1 
1 6:1 10:1 15:2 22:1 28:1 495:2 658:1 
1 10:1 15:2 40:1 220:2 495:1 658:1 
1 6:1 7:1 10:1 15:1 495:1 658:1 
1 10:1 15:1 28:1 30:1 59:1 230:1 
1 4:1 5:1 10:1 15:1 28:1 115:1 116:1 165:1 719:1 
1 5:1 6:1 10:1 40:1 94:1 96:1 97:1 131:1 236:1 763:1 764:1 
1 5:1 6:1 10:1 11:1 94:1 97:1 104:1 131:1 317:1 395:1 396:1 
1 6:2 10:1 17:1 39:1 49:1 73:1 74:1 144:1 220:1 224:1 278:1 372:1 476:1 737:1 763:1 764:1 
1 4:1 6:1 10:1 40:1 97:1 136:1 141:1 232:1 268:1 395:1 396:1 
1 4:1 5:1 6:2 10:1 15:1 17:1 40:1 94:1 97:1 104:1 220:2 278:1 395:1 396:1 454:1 950:1 
1 6:2 10:1 15:1 17:1 30:1 69:1 94:1 96:1 97:1 104:1 131:1 179:1 230:2 
1 5:1 6:2 10:1 17:1 30:1 94:1 104:1 131:1 144:1 179:1 230:1 268:1 270:1 
1 6:1 7:1 10:1 22:1 94:1 204:1 246:1 
1 5:1 6:1 10:1 17:1 40:1 55:1 74:1 314:1 451:1 722:1 
1 6:1 10:1 17:1 26:2 27:1 39:1 69:1 78:1 113:1 448:1 482:1 
1 6:1 10:1 17:1 62:1 69:1 74:1 722:1 
1 4:1 5:1 10:1 15:1 17:1 22:1 290:1 
1 5:1 6:1 10:1 11:1 15:1 17:1 22:1 26:1 27:1 69:1 79:1 80:1 230:1 435:1 
1 10:1 15:1 17:1 22:1 26:1 49:1 61:1 69:1 
1 6:1 10:1 15:1 17:1 22:1 40:1 69:1 230:1 
1 5:1 6:2 10:1 15:1 17:2 22:2 80:1 141:1 178:1 370:1 438:1 
1 5:1 6:1 10:1 17:1 22:1 136:1 141:2 290:1 
1 6:1 10:1 15:1 22:1 26:1 61:1 
1 5:1 6:1 10:1 15:1 22:1 38:1 59:1 69:1 80:1 
1 4:1 5:1 6:1 10:1 15:1 17:1 18:1 22:1 28:1 81:1 87:1 136:1 141:2 197:1 
1 5:1 6:1 10:1 17:1 22:1 144:1 304:2 
1 6:1 10:1 22:1 41:1 99:1 434:1 
0.1408865921150664 6:1 10:1 22:1 87:1 136:1 141:1 177:1 
1 6:1 10:1 15:1 17:1 22:1 40:1 59:1 69:2 
1 4:1 6:1 10:1 17:1 22:1 40:3 59:1 136:1 141:1 
1 6:1 10:1 15:2 17:1 22:1 41:1 179:1 230:1 
1 6:2 10:1 15:1 17:1 19:1 22:1 60:1 69:2 144:1 247:1 463:1 
1 6:1 7:1 10:1 17:1 22:1 121:1 713:2 953:1 
1 6:1 10:1 17:1 22:1 136:1 141:2 247:1 
1 6:1 10:1 17:1 22:1 29:1 40:1 82:1 87:1 136:1 141:2 442:1 
1 5:1 6:1 10:1 17:1 22:1 24:1 41:1 61:1 75:1 144:1 
1 5:1 6:1 10:1 15:1 17:1 22:2 24:1 41:1 75:1 
1 5:1 6:1 10:1 17:1 22:1 40:1 136:1 141:1 214:1 215:1 328:1 485:1 503:1 
1 6:1 10:1 22:1 26:1 61:1 82:1 121:1 144:1 258:1 491:1 
1 6:1 10:1 15:1 19:1 22:1 69:2 
1 5:1 6:1 8:1 9:1 10:1 15:1 17:1 22:1 61:2 81:1 247:1 
1 6:1 10:1 15:1 17:1 22:1 30:1 62:1 69:1 86:1 
1 5:1 6:2 10:1 17:2 22:2 144:1 
1 4:1 5:1 6:2 7:2 10:1 15:1 17:2 22:2 
1 6:1 10:1 15:1 22:1 40:1 69:2 84:1 85:1 316:1 
1 5:1 6:1 7:1 10:1 22:1 139:1 140:1 144:1 245:1 
1 5:1 6:1 10:1 22:1 40:1 54:2 136:1 141:2 
1 6:1 10:1 22:1 179:1 230:1 459:1 
1 4:1 6:1 10:1 22:1 40:1 136:1 141:1 460:1 568:1 
1 5:1 6:1 10:1 11:1 15:1 26:1 71:1 80:1 81:1 93:1 97:1 178:1 395:1 396:1 
1 5:1 6:1 10:1 11:1 16:1 17:1 22:1 39:1 472:1 737:1 
1 5:1 6:2 7:1 10:1 15:1 17:1 26:1 62:1 93:1 135:1 268:1 270:1 
1 6:1 10:1 17:1 26:1 28:1 59:1 62:1 69:1 81:1 97:1 395:1 396:1 
1 6:1 10:1 26:1 93:1 97:1 180:1 236:1 395:1 396:1 603:1 955:1 
1 6:1 10:1 15:1 179:1 230:2 268:1 270:1 278:1 595:1 
1 6:2 10:1 17:1 22:1 40:1 49:1 50:1 69:2 93:1 97:1 230:1 395:1 396:1 
1 6:1 10:1 15:1 17:1 26:1 28:1 38:1 59:1 80:1 84:1 93:1 97:1 363:1 395:1 396:1 
1 5:1 6:2 10:1 17:2 26:1 59:1 62:1 93:1 97:1 354:1 395:1 396:1 956:1 
1 6:1 10:1 38:1 59:1 72:1 94:1 367:1 690:1 957:1 
1 6:1 7:2 10:1 15:1 17:1 26:1 40:1 59:1 93:1 97:1 395:1 396:1 
1 5:1 6:1 10:1 15:1 17:2 28:3 93:1 97:1 395:1 396:1 
1 5:1 6:1 10:1 15:1 17:1 28:3 93:1 97:1 395:1 396:1 
1 4:1 5:1 6:1 10:1 17:3 93:1 97:1 144:1 344:1 395:1 396:1 786:1 
1 5:1 6:1 10:1 17:1 41:1 62:1 69:1 247:1 268:1 270:1 
1 5:1 6:1 10:1 16:1 17:1 30:2 236:1 317:1 422:1 454:1 692:1 
1 6:3 7:1 10:1 15:1 17:1 62:1 93:1 192:1 268:1 270:1 516:1 
1 6:1 10:1 15:1 72:1 144:1 179:1 230:2 
1 6:2 7:1 10:1 17:1 26:1 30:1 69:1 93:1 268:1 270:1 
1 6:5 7:2 10:1 17:1 30:2 93:1 192:1 268:1 270:1 516:1 
1 6:2 10:1 17:1 22:1 26:1 93:1 206:1 482:1 
1 5:1 6:1 7:1 10:1 17:1 22:2 61:1 79:1 80:1 81:1 93:1 97:1 395:1 396:1 
1 6:1 7:2 10:1 15:1 26:1 97:1 395:1 396:1 595:1 
1 6:1 10:1 26:1 93:1 97:1 206:1 
1 6:1 10:1 15:1 28:2 38:1 39:1 93:1 737:1 
1 5:1 6:1 10:1 11:1 17:1 26:1 69:1 145:1 281:1 282:1 422:1 
1 5:1 10:1 17:1 26:1 28:1 959:1 960:3 961:1 962:1 963:1 
0.7238279969041266 6:1 10:1 17:1 59:1 62:1 959:1 960:3 961:1 962:1 963:1 
1 6:1 10:1 17:1 26:1 69:1 145:1 281:1 282:1 422:1 
1 6:1 10:1 17:1 26:1 71:1 115:1 144:1 236:1 237:1 439:1 801:1 818:1 
1 6:1 7:1 10:1 16:1 17:1 22:1 26:1 64:1 94:1 95:2 236:1 237:1 797:1 798:1 972:1 973:1 
1 6:1 10:1 17:1 22:1 26:1 74:1 423:1 474:1 476:1 541:1 778:1 779:1 
1 6:1 10:1 17:1 32:1 47:1 115:1 236:1 239:1 439:1 974:1 
1 7:2 10:1 15:2 38:1 39:1 404:1 405:1 737:1 975:1 
1 6:1 10:1 16:1 26:1 88:1 115:1 144:1 180:1 206:1 236:1 239:1 413:1 439:1 536:1 965:1 
1 10:1 11:1 26:1 230:1 836:1 853:1 
1 5:1 10:1 40:2 230:2 853:2 
1 10:1 26:1 204:1 230:1 235:1 853:1 
1 10:1 17:1 62:1 69:1 136:1 206:1 230:1 422:1 853:1 
1 10:1 17:1 59:1 80:1 84:1 230:1 247:1 853:1 
1 10:1 17:1 26:1 69:1 136:1 206:1 230:1 422:1 853:1 
1 10:1 17:1 69:1 136:1 206:1 230:1 422:1 853:1 
1 10:1 60:1 62:1 91:1 102:1 128:1 174:1 404:1 429:1 969:1 970:1 
1 5:1 6:1 10:1 28:1 38:2 59:1 72:1 237:1 421:1 
1 6:1 10:1 38:1 59:1 62:1 72:1 969:1 970:1 
1 6:1 10:1 38:1 59:1 62:1 72:1 100:1 434:1 969:1 970:1 976:1 
1 6:1 10:1 59:1 72:1 80:1 81:1 121:1 178:1 258:1 969:1 970:1 
1 6:1 10:1 59:1 72:1 80:1 121:1 178:1 179:1 230:1 258:1 969:1 970:1 
1 10:1 38:1 59:1 62:1 73:1 74:1 100:1 625:1 969:1 970:1 977:1 
1 10:1 38:1 59:1 62:1 404:1 405:1 969:1 970:1 
0.9020427626405154 6:1 10:1 15:1 17:1 32:1 115:2 247:1 336:2 969:1 970:1 
1 6:2 10:1 17:1 38:1 62:1 72:1 144:1 445:1 446:1 969:1 970:1 
1 6:1 7:1 10:1 17:1 32:1 62:1 69:1 969:1 970:1 
1 6:1 10:1 38:1 72:1 88:1 100:1 236:1 969:1 970:1 
1 5:1 6:2 10:1 17:1 32:1 38:1 146:1 174:1 200:1 220:1 969:1 970:1 
1 5:1 6:2 10:1 17:1 32:1 144:1 146:1 174:1 200:1 220:1 969:1 970:1 
1 6:2 10:1 17:1 26:1 27:1 28:1 38:1 72:1 422:1 969:1 970:1 
1 10:1 15:1 26:1 30:1 69:1 422:1 581:1 587:1 796:1 979:1 
1 5:1 10:1 15:1 30:1 69:2 86:1 100:1 135:1 196:1 275:1 370:1 422:1 468:1 581:1 625:1 796:1 951:1 
1 7:1 10:1 86:1 100:1 135:1 370:1 422:1 468:1 625:1 
1 7:1 10:1 86:1 135:1 141:1 314:1 422:1 468:1 625:1 980:1 
1 10:1 26:1 30:1 69:1 136:1 370:1 422:1 459:1 
1 10:1 15:1 26:1 30:1 69:1 82:1 220:1 422:1 581:1 
1 5:1 6:1 10:1 15:1 17:1 38:1 40:1 49:1 59:1 69:1 93:1 179:1 230:2 268:1 270:1 
1 6:2 10:1 26:1 268:1 270:1 422:1 
1 6:2 10:1 40:1 422:1 811:1 812:1 
1 6:2 10:1 26:1 129:1 130:1 204:1 422:1 981:1 
1 6:2 10:1 84:1 94:1 204:1 206:1 236:1 268:1 270:1 422:1 459:1 647:1 
1 5:2 6:2 10:1 15:1 17:2 22:1 31:1 62:1 69:1 93:1 137:1 144:1 179:1 230:1 236:1 268:1 270:1 364:1 
1 6:1 10:1 17:1 62:1 69:1 73:1 74:1 268:1 270:1 552:1 688:1 982:1 
1 5:1 10:1 128:1 144:1 268:1 270:1 
1 6:1 10:1 15:1 17:1 26:1 48:1 93:1 179:1 206:1 230:2 268:1 270:1 305:1 
1 3:1 6:1 10:1 41:1 268:1 300:1 309:1 379:1 
1 6:1 10:1 17:1 26:1 62:1 69:1 268:1 300:1 
1 5:1 6:1 10:1 17:1 26:1 31:1 38:1 62:1 104:1 136:2 141:3 268:1 300:1 
1 5:1 10:1 41:1 422:1 981:1 
1 5:1 6:2 10:1 15:1 17:2 28:1 39:1 93:1 144:1 220:1 268:1 270:1 
1 5:1 6:2 10:1 15:1 38:1 93:1 268:1 270:1 984:1 
1 6:1 10:1 17:1 26:1 62:1 69:1 268:1 300:1 
1 6:2 10:1 17:1 30:1 62:2 69:1 144:1 268:1 270:1 
1 6:2 7:1 10:1 15:1 17:1 26:1 28:2 93:1 268:1 270:1 421:1 
1 6:1 10:1 17:1 22:1 26:1 50:1 71:1 237:1 268:1 270:1 
1 6:1 7:1 10:1 12:1 17:1 28:1 59:1 69:2 112:1 268:1 270:1 
1 6:1 10:1 17:1 26:1 170:1 179:2 230:1 268:1 300:1 379:1 
1 6:1 10:1 17:1 69:1 70:1 71:1 247:1 268:1 300:1 
1 5:1 6:1 10:1 17:1 38:1 93:1 144:1 171:1 268:1 270:1 985:1 
1 6:1 7:1 10:1 22:1 40:1 62:1 69:2 94:1 230:1 289:1 395:1 396:1 
1 6:1 10:1 180:1 236:1 799:1 
1 6:1 10:1 102:1 180:1 236:1 799:2 
1 6:1 10:1 62:1 146:1 363:1 377:1 422:1 799:2 
1 6:2 10:1 62:1 146:1 363:1 377:1 422:1 799:2 
1 6:1 10:1 15:1 17:1 69:1 81:1 230:1 422:1 
1 6:1 10:1 15:1 17:1 69:1 230:1 445:1 446:1 
1 6:1 10:1 15:1 17:1 40:1 69:1 230:1 445:1 446:1 
1 4:1 6:1 10:1 15:1 17:1 69:1 169:1 230:1 445:1 446:1 
1 6:1 10:1 15:1 99:1 986:1 
1 4:1 7:1 10:1 15:1 17:1 62:1 69:1 
1 6:1 7:1 10:1 15:1 17:2 38:1 49:1 69:1 72:1 84:1 110:1 536:1 685:1 
1 4:1 5:1 7:1 10:1 15:1 17:2 28:1 
1 4:1 5:1 6:1 7:1 10:1 15:1 17:1 38:1 344:1 
1 4:1 6:2 7:2 10:1 15:1 17:1 22:1 377:1 990:1 
1 6:1 7:1 10:1 15:1 17:1 26:1 206:1 
1 6:1 7:1 10:1 15:1 17:1 62:1 
1 6:1 10:1 16:1 18:1 26:1 48:1 87:1 100:1 163:1 206:1 305:1 
1 4:1 6:1 10:1 26:1 41:1 48:1 100:1 104:1 163:1 206:1 305:1 
1 6:1 7:1 10:1 26:1 163:1 180:1 220:1 357:1 361:1 546:1 576:1 991:1 992:1 
1 5:1 10:1 15:1 26:2 81:1 268:1 270:1 278:1 370:1 
1 10:1 26:1 41:1 268:1 270:1 278:1 
1 10:1 26:1 69:1 84:1 268:1 270:1 278:1 
1 6:1 10:1 15:1 26:1 61:1 69:1 72:1 79:1 80:1 117:1 122:1 139:1 140:1 168:1 174:1 306:1 422:1 482:1 718:1 860:1 993:1 
1 10:1 26:1 113:1 482:1 994:1 995:1 
1 5:1 6:1 10:1 39:1 69:1 145:1 422:1 482:1 687:1 718:1 860:1 993:1 996:1 
1 6:1 10:1 15:1 243:1 422:1 482:1 606:1 997:1 
1 10:1 15:1 41:1 163:1 198:1 206:1 474:1 
1 10:1 15:1 17:1 41:1 163:1 198:1 206:1 445:1 446:1 
1 6:1 10:1 17:1 26:1 58:1 121:1 201:1 258:1 269:1 445:1 446:1 
1 6:1 10:1 17:1 26:1 58:2 74:1 100:1 110:1 190:1 256:1 445:1 446:1 
1 5:1 10:1 17:1 22:1 95:1 176:1 204:1 334:1 1002:2 
1 5:1 6:1 10:1 17:2 30:1 54:2 59:1 94:1 422:1 
0.7396237195920903 6:1 10:1 55:1 69:1 418:1 797:1 1003:1 
1 6:1 10:1 26:1 55:1 69:1 797:1 1003:1 
1 4:1 6:1 10:1 60:1 78:1 99:1 114:1 322:1 966:1 
1 6:1 10:1 17:1 60:1 73:1 74:2 429:1 985:1 
1 5:1 6:1 10:1 17:1 38:1 60:1 74:1 102:1 109:1 309:1 
1 6:1 10:1 17:1 22:1 40:1 69:1 74:1 84:1 157:1 333:1 
1 6:1 10:1 19:1 278:1 1004:1 
1 6:1 7:1 10:1 17:1 26:1 38:1 86:1 87:1 278:1 1004:1 
1 5:1 6:1 10:1 26:1 38:1 278:1 421:1 422:1 518:1 1004:1 
1 5:1 6:1 10:1 17:1 28:1 144:1 146:1 245:1 278:1 1004:1 
1 5:1 6:1 10:1 17:1 22:1 32:1 144:1 179:1 230:1 245:1 969:1 970:1 
1 5:1 6:1 10:1 17:2 22:1 115:1 144:1 245:1 439:1 978:1 
1 5:1 6:2 10:1 17:1 19:1 59:1 62:1 80:1 99:1 120:1 278:1 331:1 1004:1 
1 6:2 10:1 15:1 26:1 49:1 120:1 139:1 140:1 278:1 331:1 1004:1 
1 6:1 10:1 22:1 28:1 62:1 74:1 268:1 270:1 423:1 476:1 
1 6:1 10:1 40:1 80:1 121:1 150:1 165:1 178:1 220:1 233:1 258:1 268:1 270:1 
1 5:1 6:2 10:1 15:1 22:2 28:1 136:1 139:1 140:1 952:2 
1 5:1 6:2 10:1 12:1 22:1 55:1 79:1 80:1 435:1 952:1 
1 6:2 10:1 22:1 28:1 73:1 74:1 268:1 270:1 
1 6:1 10:1 22:1 134:2 268:1 270:1 429:1 
1 6:3 10:1 22:1 27:1 268:1 270:1 474:1 
1 10:1 15:1 22:1 69:1 74:1 115:1 122:1 272:1 860:1 952:1 
1 4:1 5:1 6:1 10:1 15:1 17:1 22:1 28:1 30:1 32:1 59:1 79:1 80:1 81:1 85:1 345:1 
1 6:2 7:1 10:1 16:1 26:1 47:1 97:1 148:1 395:1 396:1 
1 6:2 7:1 10:1 26:1 32:1 47:1 97:1 148:1 395:1 396:1 
1 4:1 6:2 10:1 26:1 32:1 345:1 952:1 1005:1 1006:1 1007:1 
1 5:1 6:3 7:1 10:1 12:1 16:1 47:1 79:1 80:1 81:1 148:1 289:1 395:1 396:1 435:1 
1 4:2 5:1 6:2 7:1 10:1 15:1 22:1 47:1 69:1 148:1 952:1 
1 6:1 10:1 26:1 59:1 69:1 95:1 144:1 145:1 1009:1 
1 6:1 10:1 24:1 26:1 75:1 322:1 
1 5:1 6:1 10:1 40:2 136:1 168:1 
1 10:1 41:1 42:1 136:1 168:1 
1 5:1 10:1 26:1 128:1 136:1 168:1 
1 5:1 10:1 54:2 136:1 168:1 
1 5:1 6:1 10:1 26:2 136:1 168:1 179:1 230:1 
1 4:1 5:1 10:1 24:1 75:1 95:1 136:1 168:1 
1 6:1 10:1 26:1 28:2 61:1 136:1 168:1 
1 5:1 10:1 17:1 28:1 136:1 168:1 
1 4:1 6:1 10:1 41:1 72:1 136:1 168:1 
1 5:1 6:1 10:1 26:1 136:1 168:1 495:1 704:1 1010:1 
1 4:2 5:1 6:1 10:1 28:1 136:1 168:1 
1 4:1 6:1 10:1 19:1 136:1 168:1 
1 10:1 12:1 41:1 77:1 136:1 168:1 
1 5:1 10:1 17:1 79:1 80:1 134:2 139:1 140:1 
1 10:1 15:1 78:1 204:2 375:1 640:1 782:1 1011:1 1012:1 
1 6:1 10:1 15:1 476:1 664:1 830:1 1015:1 
1 6:1 10:1 339:1 476:1 558:1 830:1 
1 6:1 10:1 19:1 239:1 629:1 
0.5974944544480999 6:1 10:1 81:1 239:1 629:1 
1 6:1 10:1 15:1 73:1 74:1 476:1 664:1 830:1 1015:1 
1 6:1 10:1 74:1 455:1 1014:1 1020:1 
0.1736530422012031 4:1 6:2 10:1 22:1 69:1 1024:1 
1 6:1 7:1 10:1 19:1 1024:1 
1 5:1 6:1 10:1 11:1 17:2 137:2 138:1 174:1 200:1 383:1 384:1 
1 5:1 7:3 10:1 15:2 17:1 49:1 62:1 73:1 74:1 135:1 174:1 200:1 399:1 626:1 649:1 1032:1 
1 6:1 7:1 10:1 15:3 17:1 30:2 61:2 62:1 79:1 80:1 81:1 139:1 140:1 144:1 
1 6:1 10:1 17:1 28:2 38:1 62:1 73:1 74:1 144:1 174:1 200:1 
1 10:1 26:1 38:1 136:1 168:1 174:1 200:1 
1 5:1 10:1 15:1 40:1 59:1 136:1 137:2 138:2 144:1 174:1 200:1 463:1 
1 6:1 10:1 17:1 59:1 78:1 99:1 174:1 200:1 247:1 
1 5:2 6:1 10:1 15:2 17:2 40:1 69:2 81:1 137:1 138:1 141:1 174:1 200:1 204:1 1024:1 
1 10:1 15:1 17:1 40:1 61:1 69:2 137:1 138:1 174:1 200:1 459:1 
1 6:1 7:1 10:1 17:1 62:1 73:1 74:1 144:1 174:1 179:1 200:1 230:1 
1 6:1 10:1 17:1 26:1 49:1 80:1 84:1 137:1 138:1 174:1 200:1 417:1 
1 6:1 10:1 26:1 137:1 138:1 146:1 174:1 200:1 
1 6:2 10:1 17:2 26:1 69:1 137:1 138:1 174:1 179:1 200:1 204:1 230:1 278:1 418:1 497:1 
1 6:2 10:1 43:1 44:1 62:1 82:1 141:1 200:1 214:1 215:1 278:1 377:1 580:1 659:1 969:1 
1 6:2 7:1 10:1 15:1 17:2 69:1 102:1 137:1 174:1 200:1 379:1 438:1 
1 6:2 7:1 10:1 12:1 17:1 48:1 69:1 77:1 139:1 140:1 174:1 200:1 206:1 305:1 
1 7:1 10:1 174:1 200:1 236:1 266:1 
1 4:1 5:1 10:1 79:1 80:1 137:1 146:1 174:1 200:1 415:1 438:1 626:1 
1 6:1 7:1 10:1 15:1 17:1 40:2 84:1 131:1 135:1 137:1 138:1 174:1 200:1 
1 6:1 10:1 78:1 83:1 88:1 136:1 
1 4:1 10:1 88:1 92:1 95:1 102:1 1037:1 1038:1 
1 4:1 10:1 62:1 83:1 84:1 88:1 
1 5:1 6:2 10:1 26:1 74:1 102:1 110:1 214:1 215:1 245:1 262:1 477:1 
1 6:1 10:1 26:1 102:1 477:1 
1 6:1 10:1 26:1 74:1 102:1 212:1 477:1 901:1 
1 6:1 10:1 26:1 74:1 102:1 262:1 477:1 
1 6:1 10:1 26:1 69:1 
1 4:1 6:1 10:1 19:1 26:1 30:1 69:1 
1 6:2 10:1 26:1 30:1 69:1 
1 6:2 10:1 26:1 30:1 40:1 69:1 
1 6:1 10:1 26:1 69:1 84:1 
1 6:1 10:1 131:1 224:2 236:1 
1 6:1 10:1 100:1 131:1 236:1 459:1 522:1 1048:1 
0.7654708533644545 6:1 10:1 38:1 131:1 180:1 714:1 1044:1 1051:1 
1 6:1 10:1 15:1 28:2 131:1 664:1 714:1 1044:1 
1 4:1 5:1 6:1 10:1 93:1 128:1 131:1 479:1 1054:1 
1 4:1 5:1 6:1 10:1 17:1 22:1 92:1 661:1 
1 4:1 5:1 10:1 15:1 28:1 49:1 64:1 69:1 74:1 78:1 79:1 80:1 85:1 91:2 92:1 139:1 140:1 460:1 952:1 
1 5:1 6:1 10:1 17:1 22:1 28:1 40:1 91:1 92:1 
1 4:1 5:1 10:1 22:1 74:1 81:1 91:2 92:1 352:1 460:1 463:1 568:1 952:1 
1 4:1 5:1 10:1 22:1 40:1 80:1 91:1 92:1 121:1 178:1 233:1 258:1 661:1 890:1 900:1 
1 6:2 10:1 22:1 26:1 28:1 91:2 420:1 
1 6:2 10:1 22:1 26:1 28:1 661:2 
1 6:2 10:1 22:1 26:1 28:1 91:2 
1 4:1 6:2 10:1 22:1 26:1 27:1 69:1 315:1 765:1 
1 4:1 6:3 10:1 22:1 91:1 661:1 
1 4:1 6:2 10:1 22:1 26:1 315:1 765:1 
1 4:1 6:2 10:1 22:1 26:1 421:1 765:1 
1 4:1 6:2 10:1 22:1 26:1 315:1 421:1 
1 4:1 6:2 10:1 22:1 26:1 27:1 91:1 661:1 
1 10:1 55:2 161:1 170:1 239:1 328:2 377:1 640:1 1055:1 
1 4:1 6:1 10:1 87:1 141:1 177:1 206:1 239:1 512:1 640:1 
1 4:1 10:1 22:1 26:1 232:1 525:1 640:1 1057:1 
1 6:1 10:1 19:1 344:1 640:1 
1 4:1 5:1 6:1 10:1 79:1 80:1 84:1 85:1 92:1 344:1 640:1 
1 6:1 10:1 55:2 92:1 117:1 161:1 170:1 239:1 377:1 640:1 1055:1 
1 6:1 10:1 26:1 61:1 239:1 640:1 
1 4:1 6:1 10:1 62:1 239:1 640:1 
1 4:1 5:1 6:2 10:1 15:1 62:1 69:1 92:1 100:1 344:1 640:1 
1 4:1 6:1 10:1 99:1 640:1 1059:1 1060:1 
1 5:1 6:1 10:1 55:1 73:1 74:1 92:1 206:1 239:2 568:1 640:1 1061:1 
1 6:1 10:1 22:1 26:1 30:1 455:1 530:1 
1 5:1 10:1 23:1 40:1 79:1 80:1 84:1 85:1 92:1 179:1 230:1 552:1 719:1 
1 10:1 55:2 161:1 170:1 206:1 239:1 347:1 377:1 640:1 1055:1 
1 5:1 10:1 41:1 62:1 105:1 128:1 383:1 384:1 
1 10:1 26:1 59:1 69:1 383:1 384:1 
1 10:1 69:1 84:1 383:1 384:1 467:1 
1 4:1 5:1 6:1 10:1 163:1 344:1 556:1 563:1 864:1 
1 10:1 28:1 41:1 563:1 864:1 
1 6:1 10:1 26:1 27:1 28:1 563:1 864:1 
0.2642320682917224 3:1 10:1 40:1 95:1 141:1 563:1 864:1 
1 4:1 10:1 26:1 136:1 141:1 423:1 563:1 864:1 
1 6:1 7:1 10:1 15:1 41:1 1062:1 
1 6:1 10:1 15:1 17:1 38:1 61:1 74:1 1062:1 
1 10:1 15:1 17:1 18:1 26:3 27:2 41:1 49:1 61:1 69:2 87:1 
1 6:1 10:1 15:1 17:1 69:2 74:1 81:1 1062:1 
1 10:1 15:1 40:1 69:2 
1 10:1 15:1 40:1 69:2 245:1 
1 10:1 15:1 41:1 69:2 
1 10:1 15:1 26:1 27:1 69:3 144:1 245:1 
1 5:1 10:1 15:2 92:1 495:2 942:1 1059:2 1063:4 1064:4 1065:2 
1 10:1 15:2 495:2 942:1 1059:2 1063:4 1064:4 1065:2 
1 9:1 10:1 28:1 40:1 99:1 339:1 558:1 
1 6:1 10:1 55:1 73:1 74:1 339:1 558:1 
1 6:1 10:1 28:1 58:1 110:1 145:1 339:1 
1 10:1 110:1 145:1 339:1 497:1 558:1 
1 10:1 110:1 145:1 339:1 558:1 
1 10:1 145:1 339:1 482:1 558:1 
1 10:1 15:1 28:1 40:1 145:1 552:1 
1 10:1 15:1 62:1 69:1 248:1 545:1 
1 10:1 15:1 88:1 102:1 145:1 552:1 
1 6:1 10:1 15:1 49:1 69:1 145:1 552:1 
1 6:1 10:1 15:1 28:1 145:1 552:1 
1 6:1 10:1 15:1 55:1 145:1 552:1 
1 6:1 10:1 15:1 55:1 76:1 145:1 552:1 
1 6:1 10:1 15:1 87:1 145:1 177:1 552:1 
1 6:1 10:1 15:1 17:1 62:1 69:1 224:1 840:1 
1 6:1 10:1 15:1 17:1 145:1 150:1 224:1 552:1 
1 3:1 6:1 10:1 15:1 17:1 145:1 165:1 224:1 232:1 236:1 552:1 
1 6:1 10:1 15:1 26:1 145:1 452:1 552:1 
1 6:1 10:1 15:1 73:1 74:1 145:1 552:1 
1 3:1 6:1 10:1 15:1 232:1 236:1 248:1 545:1 
1 3:1 6:1 10:1 15:1 145:1 232:1 236:1 552:1 
1 3:1 6:1 10:1 15:1 232:1 236:1 309:1 720:1 
1 3:1 6:1 10:1 15:1 78:1 145:1 236:1 322:1 552:1 
1 3:1 6:1 10:1 15:1 78:1 145:1 236:1 552:1 
1 3:1 6:1 10:1 15:1 141:1 145:1 552:1 
1 10:1 15:1 62:1 69:1 110:1 145:1 309:1 1017:1 
1 10:1 26:1 28:1 40:1 80:1 141:1 178:1 248:1 545:1 
1 10:1 26:1 80:1 141:1 145:1 178:1 552:1 
1 10:1 15:1 69:1 145:1 460:1 552:1 568:1 860:1 
1 4:2 5:1 8:1 9:1 10:1 15:1 17:1 378:1 
1 4:1 5:2 6:2 10:1 15:2 17:2 62:1 94:1 278:1 363:1 377:1 378:1 455:2 888:1 889:1 
1 4:1 5:1 10:1 15:1 17:1 54:2 378:1 
1 4:1 5:1 6:1 10:1 15:1 17:1 26:1 27:1 378:1 646:1 
1 4:3 5:2 10:1 15:1 17:1 62:1 73:1 74:1 100:2 378:1 
1 4:2 5:1 10:1 15:1 17:1 41:1 89:1 378:1 
1 6:1 10:1 15:1 17:1 62:1 69:1 378:1 
1 5:1 6:1 10:1 15:1 99:1 135:1 214:1 215:1 
0.6097462008058362 6:1 10:1 19:1 214:1 215:1 
1 5:1 6:1 10:1 38:1 136:1 168:1 214:1 215:1 
1 5:1 6:1 10:1 15:1 17:1 26:1 61:1 136:1 163:1 168:1 206:1 214:2 215:2 
1 5:1 6:2 10:1 15:1 16:1 17:1 26:1 30:1 61:1 163:1 180:1 206:1 214:1 215:1 236:1 317:1 
1 6:1 7:1 10:1 90:1 236:1 266:1 
1 6:1 10:1 15:1 16:1 30:2 84:1 94:1 144:1 179:1 230:1 
1 5:1 6:1 10:1 17:1 59:1 79:1 80:1 81:1 85:1 438:1 984:1 
1 10:1 12:1 15:1 17:1 26:1 69:1 84:1 168:1 984:1 
1 5:1 10:1 17:1 28:1 40:1 58:1 59:1 102:1 247:1 
1 6:1 10:1 17:1 58:1 84:1 102:2 110:1 379:1 
1 5:1 10:1 17:1 58:1 102:1 109:1 179:1 230:1 247:1 
1 5:1 6:1 10:1 15:1 135:1 896:1 
1 10:1 28:1 40:1 230:1 896:1 
1 10:1 28:1 41:1 230:1 896:1 
1 10:1 26:1 28:1 230:1 896:1 1068:2 1069:2 
1 10:1 28:1 41:1 230:1 896:1 1070:1 
1 6:1 9:1 10:1 49:1 55:1 69:1 99:1 230:1 896:1 
1 6:2 10:1 896:2 
1 10:1 15:2 62:1 69:1 135:2 
1 10:1 15:1 38:1 179:1 230:1 
1 10:1 15:1 62:1 69:1 179:1 230:1 
1 4:1 6:1 10:1 50:1 102:1 224:1 238:1 
1 5:1 6:1 10:1 15:1 17:2 69:1 102:1 144:1 150:1 220:1 224:1 230:1 238:1 
1 5:1 6:1 10:1 15:1 17:2 40:1 69:1 102:1 150:1 224:1 230:1 238:1 
1 6:1 10:1 15:1 17:1 69:1 81:1 150:1 206:1 224:1 230:1 
1 6:1 10:1 15:1 17:1 69:1 165:1 224:1 230:1 
1 6:1 10:1 17:1 22:1 87:1 150:1 165:1 232:1 713:1 
1 5:1 6:1 10:1 17:1 22:1 79:1 80:1 165:2 435:1 
1 6:1 10:1 17:1 22:1 26:1 85:1 150:1 204:1 224:1 
1 10:1 12:1 15:1 38:1 61:1 77:1 84:1 94:1 
1 10:1 15:1 28:1 38:1 61:1 80:1 84:1 
1 6:1 10:1 17:1 28:1 39:1 71:1 80:1 81:1 84:1 267:1 
1 10:1 26:1 28:2 41:1 117:1 421:1 422:1 
1 6:1 10:1 17:1 26:1 28:2 39:1 182:1 421:1 422:1 
1 4:1 6:1 10:1 17:1 26:1 28:1 39:1 69:1 74:1 123:1 314:1 421:1 422:1 
1 6:2 10:1 17:1 26:1 28:1 39:1 79:1 80:2 81:1 84:1 421:1 422:1 435:1 
1 4:1 6:1 10:1 15:1 17:1 26:1 170:1 179:1 232:1 421:1 422:1 552:1 987:1 
1 6:1 7:1 10:1 17:1 26:1 28:1 39:1 59:1 71:1 80:2 178:1 
1 4:1 6:1 10:1 17:1 28:1 39:1 84:1 136:1 141:1 206:1 225:1 226:1 471:1 
1 10:1 15:1 26:1 27:1 38:1 61:1 69:1 
1 10:1 17:1 26:2 27:1 28:1 247:1 900:1 
1 10:1 17:1 26:2 27:1 49:1 69:2 900:1 
1 10:1 17:2 26:3 27:2 40:1 69:1 900:1 
1 10:1 26:2 27:1 41:1 900:1 
1 6:1 10:1 15:1 26:2 27:1 41:1 69:2 900:1 
1 10:1 26:1 27:1 38:1 69:1 
1 10:1 26:2 27:1 49:1 69:2 900:1 
1 10:1 17:1 26:1 30:1 41:1 69:1 86:1 900:1 
1 10:1 15:1 26:1 27:1 69:1 438:1 
1 10:1 26:1 38:1 69:1 84:1 900:1 
1 10:1 12:1 15:1 26:1 27:1 69:1 77:1 84:1 
1 10:1 15:1 26:2 27:1 69:1 247:1 900:1 
1 10:1 26:2 27:1 49:1 69:1 900:1 
1 10:1 26:2 27:1 900:1 
1 10:1 26:2 27:1 40:1 900:1 
1 6:1 10:1 15:1 26:2 27:1 232:1 243:1 606:1 900:1 
1 10:1 26:2 27:1 247:1 900:1 
1 10:1 26:3 27:2 900:2 
1 10:1 26:9 27:4 900:5 
1 10:1 15:1 17:1 26:1 30:1 31:1 62:1 69:1 220:1 649:1 945:1 
1 10:1 17:1 26:1 62:1 69:1 649:1 
1 10:1 17:1 19:1 26:1 62:1 69:1 79:1 80:1 85:1 475:1 649:1 
1 10:1 15:1 179:1 206:1 230:2 649:1 
1 6:1 10:1 22:1 28:1 206:1 247:1 649:1 
1 6:2 10:1 17:4 19:1 38:1 62:2 82:1 100:1 136:1 344:1 422:1 438:1 461:1 649:1 1073:1 
1 4:1 6:1 10:1 17:1 26:1 62:1 461:1 649:1 
1 6:1 10:1 62:1 206:1 649:1 
1 4:1 6:1 10:1 62:1 80:1 84:1 85:1 206:1 649:1 
1 6:1 10:1 17:1 62:1 69:1 247:1 649:1 
1 6:1 7:1 10:1 17:1 62:1 69:1 649:1 
1 6:1 10:1 17:1 40:1 62:1 445:1 446:1 649:1 
1 6:1 10:1 62:1 206:1 445:1 446:1 649:1 
1 6:1 10:1 15:1 179:1 206:1 230:2 649:1 
1 6:1 10:1 17:1 78:1 179:1 230:1 498:1 649:1 
1 6:1 10:1 17:1 26:1 62:1 69:1 649:1 
1 6:2 10:1 15:1 17:1 30:1 50:1 94:1 95:1 121:1 220:2 236:1 649:1 
1 6:1 10:1 22:1 81:1 206:1 649:1 
1 6:1 7:1 10:1 206:1 649:1 
1 6:1 7:1 10:1 206:1 483:1 649:1 
1 4:1 5:1 6:1 10:1 15:1 41:1 100:1 
1 6:1 10:1 15:2 100:1 102:1 174:1 220:1 
1 6:1 10:1 15:1 62:1 100:1 
1 6:2 10:1 15:1 17:1 26:1 30:1 69:2 
1 5:1 6:1 10:1 15:1 17:1 26:1 30:2 65:1 66:1 69:1 438:1 
1 6:1 7:1 10:1 15:1 30:1 69:2 81:1 
1 5:1 10:1 41:1 102:1 354:1 363:1 788:1 
1 10:1 41:1 102:1 247:1 354:1 363:1 788:1 
1 10:1 41:1 69:1 80:1 84:1 102:1 168:1 174:1 354:1 
1 10:1 69:1 84:1 85:1 102:1 354:1 
1 10:1 40:1 69:1 84:1 85:1 102:1 354:1 
1 10:1 26:1 40:1 84:1 85:1 
1 10:1 26:2 27:1 69:1 84:1 85:1 144:1 204:1 
1 10:1 15:1 113:1 150:1 558:1 1074:1 1075:1 
1 6:1 10:1 15:1 113:1 150:1 1074:1 1075:1 
1 3:1 6:1 10:1 15:1 78:1 236:1 1074:1 1075:1 
1 10:1 15:1 65:1 66:1 236:1 433:1 1074:1 1075:1 
1 5:1 6:1 10:1 17:1 115:1 720:1 984:1 
1 10:1 15:1 26:1 31:1 90:1 163:1 206:1 213:1 
1 6:1 7:1 10:1 17:1 26:1 31:1 41:1 90:1 
1 6:1 10:1 17:1 26:1 90:1 220:1 459:1 
1 6:1 7:1 10:1 15:1 45:1 145:1 
1 6:1 10:1 17:1 40:1 45:1 80:1 84:1 145:1 
1 4:1 5:1 6:1 7:1 10:1 15:1 30:1 31:1 32:1 460:1 506:1 507:1 1076:1 
1 10:1 26:1 31:1 40:1 61:1 94:1 206:1 231:1 236:1 251:1 445:1 446:1 1076:1 1077:1 
1 5:1 10:1 28:1 30:1 31:1 506:1 507:1 1076:1 
1 5:2 10:1 15:1 30:1 31:1 40:1 59:1 80:1 112:1 176:1 429:1 506:1 507:1 896:1 1076:1 1078:1 1079:1 
1 10:1 26:1 31:1 59:1 74:1 87:1 206:1 237:1 398:1 423:1 506:1 507:1 581:1 1076:1 1080:1 
1 6:1 10:1 15:1 163:1 182:1 206:1 445:1 446:1 1076:1 
1 6:1 10:1 15:1 30:1 163:1 206:1 445:1 446:1 1081:1 
1 6:2 10:1 39:1 163:1 182:1 206:1 506:1 507:1 1076:1 
1 6:2 10:1 30:1 39:1 163:1 206:1 506:1 507:1 1076:1 
1 6:1 7:1 10:1 15:1 17:1 38:1 39:1 49:1 69:1 94:1 104:1 278:1 737:1 
1 6:1 7:1 10:1 28:1 86:1 87:1 96:1 97:1 112:1 429:1 552:1 688:1 799:1 
1 6:1 7:1 10:1 22:1 94:1 236:1 503:1 
1 6:1 7:1 10:1 22:1 94:1 97:1 206:1 236:1 
1 6:1 7:1 10:1 41:1 94:1 97:1 206:1 236:1 685:1 
1 6:1 7:1 10:1 94:1 97:1 206:1 236:1 
0.5418394529124343 6:1 10:1 22:1 94:1 104:1 206:1 482:1 
1 6:1 7:1 10:1 94:1 206:1 482:1 
1 6:1 10:1 16:1 24:2 38:1 94:1 95:1 239:1 
1 6:1 10:1 24:2 38:1 72:1 94:1 95:1 239:1 
1 6:2 10:1 22:1 48:1 49:1 61:1 81:1 94:2 97:1 104:1 236:1 278:1 395:1 396:1 
1 5:1 6:1 10:1 22:1 26:1 28:1 94:1 97:1 104:1 204:1 236:2 278:1 395:1 396:1 647:1 797:1 952:1 1003:1 
1 10:1 26:1 157:1 206:1 212:1 332:1 333:1 363:1 445:1 446:1 
1 5:1 6:1 10:1 12:1 79:1 80:1 82:1 94:1 206:1 236:1 435:1 445:1 446:1 
1 6:1 10:1 17:1 26:1 45:1 55:1 145:1 314:1 451:1 
1 6:1 10:1 17:1 41:1 45:1 145:1 
1 6:1 10:1 15:1 17:1 26:1 69:2 206:1 347:1 
1 10:1 26:1 89:1 105:1 136:1 141:2 969:1 970:1 
1 10:1 26:1 69:1 91:4 251:1 
1 10:1 17:1 26:1 69:1 91:4 247:1 251:1 
1 10:1 136:1 141:2 247:1 287:2 
1 6:1 9:1 10:1 17:1 26:1 28:1 41:1 113:1 417:1 661:2 
1 6:1 9:1 10:1 17:1 26:1 28:1 41:1 113:1 268:1 417:1 661:1 
1 10:1 15:1 17:3 79:1 80:1 81:1 91:2 92:1 102:1 238:1 278:1 661:2 1089:1 1090:1 
1 10:1 16:1 17:3 26:1 69:1 79:1 80:1 91:2 92:1 102:1 168:1 238:1 472:1 498:1 661:2 
0.8098656667835961 10:1 17:1 26:2 58:1 69:1 80:1 85:1 100:1 178:1 204:1 
1 6:1 10:1 17:1 26:1 28:1 55:1 58:1 100:1 520:1 
1 6:1 10:1 17:1 22:1 26:2 58:1 69:1 80:1 85:1 100:1 139:1 140:1 178:1 
1 6:1 10:1 17:1 22:1 26:1 58:1 100:1 139:1 140:1 168:1 482:1 
1 5:1 10:1 28:1 29:1 82:1 134:2 
1 5:1 10:1 28:2 29:1 82:1 159:1 
1 10:1 28:1 29:1 41:1 82:1 
1 5:1 10:1 17:1 19:1 28:1 29:1 82:1 
1 10:1 28:1 40:1 92:1 128:1 
1 10:1 26:1 28:1 40:1 
1 10:1 26:1 28:1 40:1 92:1 
1 10:1 28:1 92:1 236:1 
1 5:1 10:1 54:2 92:1 128:1 
1 10:1 28:1 41:1 92:1 
1 5:1 10:1 69:1 236:1 
1 5:1 10:1 69:1 92:1 236:1 
1 6:1 10:1 26:1 61:1 
1 6:1 10:1 26:1 61:1 92:1 
1 5:1 10:1 17:1 28:1 38:1 109:1 1096:1 
1 10:1 40:1 69:1 271:1 272:1 408:1 710:1 
1 10:1 28:1 41:1 408:1 710:1 
1 10:1 28:1 41:1 408:1 710:1 
1 6:1 10:1 59:1 72:1 81:1 100:1 110:1 262:1 
1 6:1 10:1 19:1 23:1 26:1 247:1 290:1 719:1 
1 4:1 5:1 10:1 16:1 17:1 23:1 134:4 552:1 719:1 
1 6:1 10:1 17:1 23:1 32:1 69:1 81:1 134:2 552:1 719:1 
1 5:1 10:1 23:1 54:2 552:1 719:1 
1 5:1 10:1 17:1 23:1 28:1 81:1 552:1 719:1 
1 5:1 10:1 23:1 41:1 94:1 552:1 719:1 
1 6:2 10:1 15:1 16:1 17:1 23:1 81:1 139:1 140:1 314:1 451:1 552:1 719:1 
1 6:1 10:1 23:1 26:1 69:1 318:2 552:1 719:1 
1 10:1 23:1 26:2 27:1 552:1 719:1 
1 4:1 5:1 10:1 11:1 15:2 16:1 17:2 30:2 78:1 371:1 
1 4:2 5:1 6:1 7:1 10:1 15:1 18:1 92:1 100:1 479:1 1054:1 1098:1 
1 4:1 5:1 10:1 15:1 17:1 18:1 22:1 32:1 238:1 652:1 
1 4:1 5:1 10:1 15:1 17:1 22:1 30:1 31:1 32:1 79:1 80:1 435:1 
1 10:1 15:1 18:1 19:1 22:1 87:1 
1 4:1 5:1 10:1 15:1 16:1 17:1 128:1 356:1 
1 4:1 5:1 10:1 15:1 17:1 30:1 32:1 128:1 
1 4:1 5:2 6:1 10:1 15:1 16:1 17:1 28:1 30:1 31:1 38:1 82:1 100:1 491:1 
1 10:1 15:1 16:1 17:1 18:1 22:1 64:1 69:1 87:1 206:1 230:1 
1 4:2 5:1 10:1 17:1 45:1 46:1 136:1 449:1 558:1 621:1 
1 10:1 15:1 17:1 18:1 19:1 32:1 87:1 115:1 116:1 136:1 
1 6:1 10:1 15:1 18:1 59:1 72:1 169:1 170:1 179:1 230:2 306:1 
1 4:1 10:1 15:1 18:1 59:1 69:1 73:1 74:1 78:1 
1 4:1 6:1 10:1 15:1 17:2 18:1 22:1 32:1 48:1 62:1 69:1 87:1 206:1 305:1 363:1 377:1 
1 4:1 6:1 10:1 15:1 16:1 17:2 18:1 22:1 26:1 31:1 48:1 62:1 69:1 87:1 206:1 305:1 
1 4:1 5:1 10:1 15:1 17:2 23:1 26:1 32:1 92:1 100:1 
1 4:1 5:1 6:1 10:1 15:1 16:1 17:1 18:1 22:1 79:1 80:1 81:1 87:1 435:1 
1 6:1 10:1 15:1 17:1 18:1 19:1 22:1 32:1 87:1 88:1 236:1 
1 4:1 5:1 6:1 10:1 15:1 17:1 18:1 22:1 30:1 74:1 379:1 
1 6:1 7:1 10:1 15:1 18:1 87:1 233:1 
1 4:1 5:1 6:2 8:1 9:1 10:1 15:1 17:1 30:1 58:1 
1 4:1 6:1 10:1 15:1 16:1 17:1 18:1 26:1 78:1 100:2 104:1 163:1 180:1 181:1 
1 10:1 28:1 41:1 51:1 82:1 
1 6:1 10:1 20:1 24:1 26:1 51:1 75:1 
1 10:1 28:1 41:1 51:1 82:1 
1 10:1 26:1 28:1 51:1 82:1 421:1 422:1 
1 5:1 10:1 79:1 80:1 85:1 134:2 
1 5:1 10:1 17:1 28:1 55:1 58:1 82:1 99:1 102:1 136:1 144:1 227:1 460:1 568:1 
1 10:1 28:1 102:1 230:1 568:1 
1 5:1 10:1 41:2 79:1 80:1 85:1 
1 5:1 10:1 17:1 26:2 28:1 69:1 73:1 74:1 79:1 80:1 85:1 144:1 
1 5:1 10:1 17:1 40:1 79:1 80:1 85:1 385:1 
1 5:1 10:1 17:1 79:1 80:1 85:1 98:1 
1 6:1 10:1 15:1 17:1 26:1 28:2 40:1 58:1 137:1 
1 10:1 15:1 24:1 28:2 58:1 99:1 460:1 568:1 1086:1 
1 10:1 40:1 55:1 84:1 121:1 122:1 132:1 366:1 
1 10:1 15:1 28:2 58:1 99:1 460:1 568:1 
1 6:1 10:1 17:2 22:1 74:1 77:1 81:1 113:1 136:1 141:2 150:1 245:1 
1 6:1 10:1 17:1 22:1 49:1 69:1 81:1 223:1 314:1 451:1 569:1 
1 5:1 6:1 8:1 9:1 10:1 17:1 22:1 26:1 49:1 61:1 69:1 76:1 
1 4:1 5:1 6:2 10:1 15:1 17:1 22:1 28:1 
1 6:1 10:1 17:1 22:1 41:1 74:1 
1 10:1 22:1 28:1 94:1 206:1 236:1 420:1 695:1 
1 8:1 10:1 17:1 22:1 28:1 29:1 70:1 71:1 82:1 87:1 136:1 232:1 442:1 
1 3:1 6:1 10:1 15:1 18:1 26:1 38:1 72:1 163:1 363:1 
1 7:1 10:1 15:1 31:1 84:1 138:1 236:1 
1 5:1 6:1 10:1 16:1 17:1 28:1 30:1 38:1 345:1 433:1 451:1 573:1 574:1 675:1 
1 3:1 6:1 10:1 15:1 26:1 28:3 30:1 38:1 72:1 144:1 163:1 
1 4:1 5:2 6:1 10:1 18:1 31:1 59:1 62:1 72:1 94:1 102:1 134:1 138:1 144:1 429:1 620:1 675:1 
1 10:1 15:1 17:1 26:1 61:2 81:1 163:1 
1 3:1 10:1 15:1 17:1 26:1 30:2 40:1 84:1 163:1 220:2 236:1 433:1 573:2 574:2 
1 3:1 10:1 15:1 17:1 26:1 30:1 163:1 220:2 247:1 573:1 574:1 
1 3:1 10:1 15:1 26:1 28:2 30:1 163:1 
1 4:1 10:1 18:1 26:1 38:1 49:1 69:1 89:1 163:1 
1 6:1 10:1 15:1 30:1 84:1 94:1 445:1 446:1 
1 6:1 10:1 15:1 19:1 22:1 30:1 84:1 398:1 
1 3:1 6:1 10:1 18:1 26:1 38:1 72:1 163:1 
1 3:1 6:1 10:1 26:1 30:1 72:1 345:1 451:1 
1 3:1 6:1 10:1 22:1 26:1 30:1 345:1 451:1 
1 3:1 5:1 10:1 18:1 26:1 38:1 163:1 880:1 
1 3:1 6:1 10:1 24:1 26:1 30:1 38:1 72:1 163:1 1086:1 
1 3:1 6:1 10:1 23:1 24:1 26:1 28:1 30:1 38:1 72:1 1086:1 
1 3:1 10:1 24:1 26:1 30:1 38:1 72:1 102:1 163:1 404:1 1086:1 
1 3:1 10:1 24:1 26:1 30:1 72:1 141:1 404:1 773:1 1086:1 
1 10:1 26:1 30:1 31:1 136:1 141:2 163:1 
1 3:1 10:1 26:1 30:1 84:1 94:1 115:1 116:1 136:1 163:1 
1 10:1 15:1 17:1 23:1 24:1 26:1 28:2 75:1 87:1 94:1 100:1 171:1 177:1 180:1 531:1 720:1 762:1 885:1 923:1 1106:1 1107:1 
1 6:1 10:1 15:1 28:1 40:1 55:1 328:2 
1 6:1 10:1 15:1 28:1 49:1 69:1 
1 6:1 10:1 15:1 28:1 40:1 55:1 
1 6:1 10:1 15:1 28:1 62:1 69:1 
1 3:1 5:1 6:2 10:1 15:1 17:1 28:2 136:1 141:1 232:1 236:1 
1 6:1 10:1 15:1 28:1 55:1 73:1 74:1 
1 4:1 6:1 10:1 73:1 74:1 230:1 510:1 
1 3:1 6:1 10:1 15:1 16:1 17:1 40:1 69:1 230:1 232:1 236:1 1111:1 1112:1 
1 5:1 6:2 10:1 15:1 17:2 79:1 80:1 278:1 448:1 546:1 967:1 968:1 
1 6:1 10:1 15:1 17:1 62:1 69:1 448:1 546:1 
1 6:1 10:1 15:1 26:1 72:1 448:1 546:1 
1 3:1 6:1 10:1 15:1 17:1 78:1 236:1 448:1 546:1 
1 6:1 10:1 15:1 17:1 19:1 438:1 448:1 546:1 
1 6:1 10:1 15:1 23:2 38:1 72:1 100:1 238:1 363:1 
1 5:1 6:1 10:1 17:1 23:1 28:1 40:1 72:1 100:1 102:1 238:1 
1 3:1 10:1 23:1 38:1 58:1 102:1 309:1 
1 6:1 10:1 23:1 38:1 59:1 72:1 88:1 236:1 
1 5:1 6:1 10:1 23:1 28:1 61:1 144:1 236:1 322:1 474:1 
1 6:1 10:1 23:1 38:1 72:1 88:1 102:1 236:1 
1 6:1 10:1 23:1 38:1 72:1 88:1 100:1 236:1 300:1 1107:1 
1 5:1 6:1 10:1 23:1 28:1 72:1 88:1 144:1 236:1 
1 6:1 10:1 23:1 38:1 72:1 88:1 236:1 
1 10:1 23:1 41:1 88:1 100:1 180:1 236:1 491:1 
1 6:1 10:1 23:1 40:1 72:1 88:1 121:1 122:1 141:1 236:1 
1 10:1 23:1 38:1 72:1 88:1 236:1 404:1 
1 7:2 10:1 15:1 17:1 23:3 26:1 28:1 78:1 84:1 94:1 102:1 236:1 
1 6:1 10:1 23:1 40:1 64:1 102:1 150:1 
1 6:1 10:1 29:1 38:1 82:1 84:1 87:1 102:1 110:1 177:1 
1 10:1 29:1 82:1 121:1 122:1 141:1 177:1 230:1 
1 3:1 5:1 6:1 10:1 17:2 74:1 104:1 144:1 168:1 463:1 
1 10:1 29:1 82:1 136:1 141:2 164:1 
1 4:1 10:1 40:1 121:1 122:1 136:1 141:2 
1 4:1 6:1 7:1 10:1 18:1 60:1 61:1 169:1 552:1 1114:1 
1 10:1 40:1 60:1 61:1 236:1 
0.5893770202010071 10:1 30:1 60:1 61:1 169:1 236:1 
1 4:1 5:1 6:1 10:1 16:1 17:1 18:1 43:1 87:1 121:2 122:2 141:1 262:1 
1 6:1 10:1 18:1 58:1 61:1 72:1 169:1 
1 6:2 10:1 17:1 18:1 26:1 30:1 32:1 60:1 87:1 180:1 236:1 
1 10:1 29:1 82:1 88:1 94:1 144:1 179:1 230:1 236:1 495:1 658:1 
1 10:1 23:1 26:1 49:1 80:1 141:1 178:1 179:1 230:1 
1 5:1 6:1 10:1 41:1 80:1 178:1 463:1 474:1 
1 5:1 10:1 80:1 98:1 178:1 463:1 
1 4:1 5:2 6:1 7:1 8:1 9:1 10:1 16:1 17:1 18:1 86:1 87:2 102:1 144:1 174:1 
1 10:1 41:1 86:1 87:1 165:1 
1 10:1 24:1 41:1 86:1 87:1 165:1 169:1 1086:1 
1 6:1 10:1 30:1 82:1 86:1 87:2 136:1 141:1 164:1 169:1 177:1 710:1 
1 5:1 10:1 20:1 29:1 128:1 518:1 
1 4:1 5:1 6:1 8:1 9:1 10:1 16:1 17:1 20:1 29:1 30:1 
1 4:1 5:1 6:2 7:1 8:1 9:1 10:1 16:1 17:1 20:1 29:1 30:1 236:1 309:1 760:1 
1 10:1 17:1 26:1 69:1 80:1 93:1 121:1 136:1 168:1 178:1 236:1 258:1 1088:1 
1 10:1 17:1 28:1 40:1 74:1 247:1 352:1 408:1 463:1 710:1 
1 10:1 74:1 81:1 352:1 460:1 463:1 568:1 
1 10:1 49:1 81:1 136:1 495:1 658:1 
1 10:1 49:1 81:1 136:1 495:1 
1 4:1 5:1 6:1 10:1 17:1 26:1 28:1 69:1 73:1 74:1 501:1 502:1 
1 5:1 10:1 26:2 28:2 62:1 84:1 85:1 144:1 
1 6:1 10:1 32:1 38:1 88:1 236:1 495:1 658:1 
1 6:1 10:1 28:1 38:1 72:1 88:1 94:1 100:1 236:1 367:1 495:1 
1 6:1 10:1 38:1 72:1 100:1 180:1 204:1 236:1 1115:1 1116:1 
1 6:1 10:1 40:1 72:1 88:1 236:1 495:1 658:1 
1 6:1 10:1 72:1 88:1 94:1 100:1 236:1 495:1 658:1 
1 5:1 10:1 40:1 98:1 446:1 1117:1 
1 6:1 10:1 17:1 40:1 55:1 78:1 150:1 165:1 248:1 545:1 
1 6:1 10:1 17:1 55:1 78:1 81:1 150:1 165:1 248:1 545:1 
1 6:1 10:1 17:1 55:1 78:1 150:1 165:1 247:1 248:1 545:1 
1 6:1 10:1 17:1 55:1 78:1 145:1 150:1 165:1 552:1 
1 6:1 10:1 17:1 40:1 55:1 78:1 145:1 150:1 165:1 552:1 
1 6:1 10:1 17:1 55:1 78:1 81:1 145:1 150:1 165:1 552:1 
1 6:1 10:1 17:1 55:1 78:1 145:1 150:1 165:1 247:1 552:1 
1 10:1 17:1 55:1 78:1 145:1 150:1 165:1 552:1 
1 6:1 10:1 17:2 28:1 55:1 78:1 81:1 150:1 165:1 248:1 545:1 
1 6:1 10:1 17:1 40:1 78:1 150:1 165:1 248:1 545:1 
1 6:1 10:1 17:1 55:1 78:1 150:1 165:1 1074:1 1118:1 
1 6:1 10:1 55:1 78:1 1074:1 1118:1 
1 6:1 10:1 15:1 23:1 84:1 87:1 102:1 110:1 177:1 179:1 230:2 
1 6:1 10:1 25:1 38:1 179:1 230:1 474:1 502:1 
1 6:1 10:1 16:1 23:1 59:1 136:1 168:1 
0.582643277050567 6:1 10:1 86:1 87:1 100:1 474:1 1120:1 1121:1 
1 6:2 10:1 13:1 15:1 17:1 86:1 87:1 179:1 230:1 474:1 900:1 
1 5:1 6:1 7:1 10:1 15:1 26:1 59:2 135:1 230:1 236:1 266:1 474:1 
1 6:1 10:1 16:1 17:1 23:1 38:1 59:1 62:1 102:1 238:1 
1 10:1 23:2 26:1 59:1 72:1 163:1 169:1 404:1 
1 6:1 10:1 15:1 16:1 17:1 23:2 28:2 40:1 102:1 236:1 
1 6:1 10:1 15:1 17:1 41:1 220:2 474:1 
1 10:1 28:1 38:1 87:1 115:1 177:1 239:1 
1 10:1 15:1 28:2 87:1 115:1 177:1 239:1 245:1 247:1 
1 6:2 10:1 15:1 17:1 22:1 50:1 69:1 88:1 100:1 230:1 236:1 474:1 
1 3:1 10:1 19:1 83:1 88:1 309:1 
1 3:1 10:1 41:1 83:1 88:1 309:1 
1 10:1 15:1 17:1 40:1 62:1 104:1 136:1 168:1 220:1 
1 10:1 15:1 17:1 19:1 62:1 104:1 136:1 168:1 220:1 
1 6:1 10:1 23:1 40:1 136:1 141:1 206:1 474:1 
1 6:1 10:1 23:1 40:1 102:1 251:1 474:1 
1 6:1 10:1 16:1 23:1 71:1 80:1 136:1 178:1 206:1 247:1 322:1 
1 10:1 28:1 41:1 180:1 710:1 
1 4:1 5:1 6:1 10:1 17:1 144:1 245:1 868:2 
1 7:1 10:1 17:1 28:1 40:1 65:1 66:1 888:1 964:1 
1 10:1 17:1 19:1 28:1 78:1 
1 6:1 10:1 15:1 22:1 314:1 451:1 536:1 
1 4:1 6:1 7:1 8:1 9:1 10:1 15:1 17:1 26:1 28:1 40:1 99:1 421:1 422:1 986:1 
1 10:1 19:1 51:1 69:1 73:1 74:1 82:1 
1 10:1 40:1 136:1 141:2 1124:1 1125:1 
0.2376100993010501 6:1 10:1 40:1 83:1 88:1 233:1 
1 6:1 10:1 19:1 83:1 88:1 233:1 
1 6:1 10:1 81:1 83:1 88:1 233:1 
1 6:1 10:1 19:1 83:1 88:1 318:2 
1 6:1 10:1 41:1 83:1 88:1 318:2 
1 6:1 10:1 41:1 83:1 88:1 318:1 
1 4:1 6:1 7:1 10:1 73:1 74:1 100:1 714:1 879:1 
1 5:1 10:1 40:1 74:1 529:1 
1 5:1 10:1 17:1 28:1 98:1 
1 5:1 10:1 17:1 74:1 98:1 144:1 
1 5:1 10:1 74:1 98:1 144:1 395:1 396:1 
1 5:1 10:1 74:1 98:1 144:1 
1 3:1 6:1 10:1 102:1 105:1 180:1 236:1 278:1 911:1 966:1 
1 3:1 6:1 10:1 180:1 236:1 278:2 317:1 911:1 966:1 
1 3:1 6:1 10:1 28:1 144:1 236:2 278:1 911:1 966:2 1126:1 
1 10:1 136:1 141:1 232:1 236:1 795:1 911:1 1051:1 1127:1 
1 4:1 5:1 10:1 15:1 174:1 290:1 370:1 
1 5:1 10:1 11:1 38:1 969:1 1099:1 
1 7:1 10:1 15:1 19:1 30:1 40:1 169:1 
1 10:1 15:1 19:1 30:1 84:1 94:1 370:1 
1 4:1 7:1 10:1 15:1 30:1 38:1 49:1 69:1 
1 4:1 5:2 10:1 19:1 28:1 30:1 38:1 163:1 969:1 1099:1 
1 4:1 7:1 10:1 15:1 30:1 62:1 80:1 178:1 232:1 
1 10:1 15:1 19:1 30:1 59:1 62:1 370:1 
1 4:1 6:1 7:1 10:1 15:1 17:1 30:1 62:1 169:1 
1 4:1 5:1 10:1 40:3 89:1 
1 4:1 5:2 6:1 10:1 42:1 45:1 48:1 89:1 
1 4:2 5:1 10:1 15:1 17:1 89:1 137:1 
1 4:1 5:1 10:1 38:1 49:1 69:1 89:1 1131:1 1132:1 
1 4:1 5:1 10:1 62:1 84:1 85:1 89:1 
1 4:1 5:1 10:1 17:1 73:1 74:2 89:1 262:1 
1 4:1 5:1 10:1 15:1 17:1 78:1 89:1 371:1 
1 4:1 5:1 6:1 10:1 30:1 38:1 65:1 66:1 89:1 
1 4:1 5:1 10:1 17:1 89:1 114:2 
1 4:1 5:1 6:1 10:1 38:1 89:1 224:2 278:1 
1 4:1 5:1 10:1 38:1 62:1 84:1 85:1 89:1 
1 4:1 5:1 10:1 15:1 17:1 38:1 89:1 371:1 
1 4:2 5:1 6:1 10:1 17:1 38:1 78:1 89:1 131:1 163:1 
1 4:1 5:1 10:1 38:1 89:1 114:2 
1 10:1 15:1 19:1 61:1 
1 4:1 6:1 10:1 15:1 61:1 69:1 418:1 
1 6:1 10:1 15:1 54:2 61:1 78:1 
1 6:1 10:1 15:1 61:1 63:1 69:1 230:1 
1 6:1 10:1 15:1 61:1 69:1 230:1 
1 6:1 10:1 15:1 61:1 69:1 230:1 247:1 
1 6:1 10:1 15:1 40:1 61:1 79:1 80:1 93:1 230:1 435:1 
1 6:1 10:1 15:1 59:1 61:1 
1 6:2 7:1 10:1 15:1 17:1 61:1 78:1 137:1 163:1 
1 6:1 10:1 15:1 30:1 31:1 61:1 84:1 94:1 314:1 
1 6:1 10:1 15:1 61:1 93:1 
1 6:1 10:1 15:1 61:1 81:1 93:1 
1 6:1 10:1 15:1 49:1 61:1 69:1 
1 6:1 10:1 15:1 61:1 78:1 
1 6:1 10:1 15:1 40:1 61:1 78:1 
1 5:1 6:2 10:1 15:1 22:1 26:2 27:1 30:1 61:2 69:1 78:1 84:1 94:1 418:1 
1 6:1 10:1 15:1 61:1 84:1 94:1 137:1 138:1 
1 4:1 5:1 7:1 10:1 41:1 82:1 230:1 290:1 491:1 508:1 
0.08904772236857994 6:1 7:1 10:1 29:1 82:2 87:1 177:1 290:1 491:1 
1 5:1 7:1 10:1 81:1 82:1 86:1 87:1 247:1 290:1 438:1 491:1 
1 4:1 5:1 10:1 11:1 82:1 491:1 
1 4:1 5:1 10:1 11:1 12:1 82:1 438:1 491:1 
1 6:1 7:1 10:1 69:1 82:1 418:1 491:1 
1 5:2 7:1 10:1 15:1 26:1 27:1 28:1 81:1 82:1 128:1 491:1 
1 6:1 10:1 69:1 74:1 82:1 230:1 247:1 491:1 
1 7:1 10:1 82:1 86:1 87:1 419:1 491:1 
1 10:1 19:1 82:1 100:1 491:1 
1 5:1 10:1 30:1 79:1 80:1 290:1 438:1 
1 7:1 10:1 15:2 28:2 528:1 1133:1 
1 7:1 10:1 15:2 28:2 1133:1 1134:1 
1 7:1 10:1 15:1 26:1 169:1 602:2 1135:2 
0.5535426304459609 3:1 4:1 10:1 17:1 26:1 31:1 78:1 112:1 123:1 
1 5:1 6:2 10:1 17:1 59:1 79:1 80:1 131:1 176:1 180:1 236:1 435:1 1017:1 
1 6:1 10:1 26:1 40:1 69:1 70:1 80:1 129:1 130:1 176:1 178:1 354:1 1017:1 
1 6:1 10:1 26:1 28:1 176:1 782:1 
1 6:1 10:1 26:1 28:1 41:1 176:1 782:1 
1 5:1 6:2 10:1 26:3 27:2 55:2 176:1 1017:2 
1 4:1 5:1 8:1 9:1 10:1 17:1 28:1 144:1 
1 4:2 6:1 8:2 9:2 10:1 17:1 73:2 74:2 78:1 82:1 136:1 141:1 580:1 
1 5:1 8:1 9:1 10:1 26:1 136:1 141:1 421:1 422:1 
1 4:1 5:1 7:1 8:1 9:1 10:1 28:1 29:1 82:1 144:1 
1 4:2 5:1 6:1 8:1 9:1 10:1 28:1 30:1 40:1 80:1 
1 5:1 7:1 8:1 9:1 10:1 11:1 17:1 22:1 71:1 80:1 81:1 100:1 178:1 
1 4:1 5:1 10:1 92:1 399:1 905:1 950:1 1031:1 1040:1 1138:1 
1 8:1 10:1 15:1 62:1 69:1 81:1 429:1 
1 8:1 9:1 10:1 15:1 62:1 100:1 135:1 
1 3:1 8:1 10:1 20:1 26:1 28:1 29:1 38:1 41:1 51:1 
1 1:2 3:2 4:1 8:1 9:1 10:1 19:1 73:1 74:1 112:1 232:1 309:1 
1 8:1 10:1 38:1 41:1 59:1 61:1 62:1 100:1 322:1 
1 6:1 8:1 10:1 15:1 38:1 72:1 88:1 236:1 363:1 
1 5:1 6:1 8:1 10:1 28:1 38:1 40:1 72:1 88:1 236:1 
1 6:1 8:1 9:1 10:1 29:1 38:1 49:1 69:1 82:1 87:1 177:1 474:1 
0.3113611199358285 6:1 8:1 10:1 15:1 28:2 29:1 32:1 88:1 177:1 236:1 
1 6:1 7:2 8:1 10:1 15:1 17:1 40:1 59:1 474:1 
1 8:1 9:1 10:1 29:1 59:1 72:1 82:1 87:1 88:1 177:1 236:1 404:1 
1 6:1 8:1 9:1 10:1 15:1 82:1 83:1 220:2 474:1 
1 6:1 8:1 9:1 10:1 15:1 88:1 220:2 236:1 474:1 
1 6:1 8:1 10:1 32:1 88:1 220:1 236:1 352:1 
1 5:2 6:2 8:1 9:1 10:1 17:2 28:1 38:1 40:1 60:1 74:1 102:1 474:1 
1 6:1 7:2 8:1 10:1 15:1 17:1 32:1 88:1 236:1 
1 6:1 8:1 10:1 38:1 88:1 236:1 474:1 
1 6:1 8:1 9:1 10:1 29:1 32:1 38:1 82:1 88:1 236:1 
1 6:1 8:1 10:1 15:1 28:2 72:1 88:1 236:1 405:1 
1 6:1 8:1 9:1 10:1 38:1 72:1 88:1 100:1 236:1 
1 6:1 8:1 10:1 40:1 72:1 88:1 236:1 
1 6:1 7:1 8:1 10:1 17:1 32:1 78:1 88:1 236:1 
1 6:1 8:1 9:1 10:1 28:1 40:1 94:1 142:1 206:1 236:1 372:1 
1 6:1 8:1 9:1 10:1 28:1 94:1 206:1 236:1 321:1 1141:1 
1 4:1 5:2 6:1 8:1 10:1 26:1 27:1 38:1 69:1 72:1 88:1 139:1 140:1 236:1 
1 4:1 5:1 8:1 10:1 15:1 30:2 31:1 
1 8:1 10:1 40:1 51:1 61:1 80:1 84:1 110:1 262:1 
1 8:1 10:1 15:1 41:1 429:1 
1 6:1 8:1 10:1 15:1 22:1 41:1 
1 6:1 8:1 10:1 49:1 81:1 136:1 
1 6:1 7:1 8:1 10:1 15:1 69:1 93:1 168:1 220:1 418:1 438:1 1144:1 
1 8:1 10:1 15:1 28:1 69:2 136:1 141:1 
1 5:1 6:1 8:1 9:1 10:1 17:1 30:1 32:1 54:2 251:1 
1 4:1 5:2 6:1 10:1 17:1 28:1 40:1 64:1 100:1 174:1 
1 6:1 10:1 15:1 19:1 26:1 31:1 62:1 64:1 65:1 66:1 102:1 174:1 
1 5:1 10:1 54:2 64:1 174:1 
1 5:1 10:1 41:1 64:1 174:1 
1 4:1 5:1 10:1 41:1 64:1 174:1 
1 6:1 10:1 19:1 64:1 174:1 
1 4:1 5:1 6:1 10:1 64:1 128:1 174:1 
1 4:1 6:1 10:1 62:1 64:1 86:1 87:1 174:1 
1 6:1 10:1 17:1 26:1 28:1 62:1 69:1 395:1 396:1 
1 6:1 10:1 17:1 26:1 27:1 69:1 81:1 395:1 396:1 440:1 
1 6:1 10:1 17:1 26:1 28:1 69:1 395:1 396:1 778:1 779:1 
1 6:1 10:1 26:1 28:1 69:1 159:1 350:1 351:1 
1 4:1 6:2 9:1 10:1 69:1 72:1 73:1 74:1 113:1 395:1 396:1 
1 6:1 10:1 17:1 26:1 69:1 139:1 145:1 395:1 396:1 460:1 597:1 
1 4:1 5:1 10:1 40:1 413:1 552:1 
1 4:1 5:1 6:1 10:1 40:1 72:1 180:1 360:1 
1 4:1 5:1 10:1 134:2 180:1 360:1 
1 4:1 6:1 10:1 26:1 81:1 87:1 127:1 177:1 408:1 605:1 1148:1 1149:1 
1 4:1 6:1 10:1 26:1 81:1 87:1 177:1 236:1 408:1 605:1 911:1 1115:1 1148:1 1149:1 1150:1 
1 6:2 10:1 58:1 102:1 131:1 268:1 270:1 379:1 
1 6:1 10:1 15:1 58:1 102:1 135:2 268:1 270:1 379:1 
1 6:1 10:1 102:1 180:1 236:1 268:1 270:1 379:1 
1 5:1 6:1 10:1 50:1 58:1 102:1 180:1 236:1 268:1 270:1 379:1 952:1 
0.1967269582038345 3:1 6:1 10:1 58:1 102:1 268:1 270:1 309:1 379:1 
1 6:1 10:1 19:1 104:1 150:1 
1 4:1 10:1 99:1 232:1 248:1 309:1 545:1 874:1 
1 10:1 23:1 26:1 55:1 87:1 145:1 177:1 552:1 
0.7635090225147166 6:1 10:1 34:1 72:1 87:1 100:1 154:1 177:1 180:1 191:1 236:1 927:2 
1 6:1 10:1 28:1 81:1 248:1 545:1 
1 6:1 10:1 23:1 26:1 55:1 87:1 177:1 248:1 545:1 
1 6:1 10:1 55:1 62:1 248:1 545:1 
1 6:1 10:1 55:1 78:1 248:1 545:1 
1 6:1 10:1 40:1 55:1 78:1 248:1 545:1 
1 6:1 7:1 10:1 15:1 16:1 26:1 134:2 1153:2 
1 5:1 6:2 10:1 16:1 17:1 23:1 26:1 27:1 69:1 92:1 163:1 448:1 552:1 719:1 
1 6:1 10:1 63:1 146:1 163:1 206:1 495:1 829:1 
1 6:1 7:1 10:1 63:1 100:1 495:1 829:1 
1 6:1 7:1 10:1 24:1 63:1 495:1 829:1 1086:1 
1 10:1 24:1 63:1 141:1 146:1 206:1 495:1 829:1 1086:1 
1 10:1 63:1 88:1 100:1 236:1 495:1 829:1 
1 6:1 10:1 63:1 141:1 146:1 206:1 495:1 829:1 
1 6:1 10:1 63:1 141:1 206:1 495:1 829:1 924:1 
1 10:1 15:1 41:1 132:1 
1 6:1 10:1 15:1 41:1 132:1 
1 6:1 10:1 26:1 141:1 164:1 
1 10:1 15:1 19:1 67:1 82:1 100:1 
0.08894193065841338 4:1 10:1 15:1 49:1 67:1 69:1 82:1 100:1 
1 6:1 10:1 15:1 67:1 82:1 100:1 266:1 958:1 
1 6:1 10:1 15:1 19:1 67:1 82:1 271:1 272:1 
1 6:1 10:1 15:1 19:1 82:1 180:1 360:1 710:1 
1 10:1 40:1 145:1 482:1 1015:1 1158:1 
1 6:1 10:1 40:1 88:1 100:1 236:1 474:1 920:1 921:1 
1 6:1 10:1 38:1 72:1 88:1 100:1 166:1 236:1 1161:1 
1 6:1 10:1 38:1 72:1 88:1 166:1 236:1 1161:1 
1 6:1 10:1 23:1 38:1 72:1 86:1 87:1 100:1 238:1 
1 6:1 10:1 23:1 72:1 86:1 87:1 88:1 100:1 236:1 238:1 
1 4:1 10:1 23:1 38:1 86:1 87:2 100:1 171:1 220:1 531:1 
1 6:1 10:1 23:1 38:1 59:1 72:1 100:1 238:1 
1 6:1 10:1 22:1 23:1 82:1 100:1 247:1 1121:1 
1 10:1 15:1 22:2 23:1 88:1 100:1 236:1 238:1 
1 10:1 23:1 38:1 88:1 100:1 236:1 238:1 
1 4:1 6:1 10:1 41:1 458:1 1043:1 
1 6:1 10:1 23:1 38:1 72:1 102:1 921:1 1162:1 
1 6:1 10:1 38:1 72:1 93:1 94:1 102:1 921:1 1162:1 
1 10:1 63:1 145:1 206:1 309:1 
0.4681463446914265 10:1 112:2 446:1 720:1 
1 10:1 26:1 87:1 236:1 309:1 720:1 
1 10:1 28:1 62:1 309:1 720:1 
1 10:1 26:1 27:1 69:1 87:1 236:1 309:1 720:1 
1 5:1 10:1 94:1 102:1 236:1 719:1 
1 6:1 10:1 59:1 80:1 94:1 224:2 236:1 278:1 719:1 
1 10:1 41:1 94:1 236:1 278:1 719:1 936:1 
1 6:1 10:1 41:1 94:1 224:2 236:1 278:1 719:1 
1 10:1 41:1 94:1 236:1 719:1 
1 10:1 19:1 62:1 64:1 73:1 74:1 150:1 
0.3036909693773603 6:1 10:1 145:1 552:1 1097:1 
1 6:1 10:1 38:1 145:1 552:1 1145:1 
1 6:1 10:1 102:1 145:1 552:1 1097:1 
1 6:1 10:1 17:1 38:1 59:1 145:1 552:1 1145:1 
1 6:1 10:1 17:1 38:1 59:1 145:1 287:1 552:1 1145:1 
1 6:1 10:1 17:1 59:1 145:1 352:1 552:1 1145:1 
1 6:1 10:1 17:1 38:1 59:1 62:1 145:1 552:1 1097:1 
1 6:1 10:1 17:1 38:1 59:1 62:1 145:1 552:1 1145:1 
1 3:1 6:1 9:1 10:1 17:1 38:1 50:1 99:1 145:1 220:1 509:1 552:1 
1 3:1 6:1 10:1 17:1 50:1 145:1 169:1 220:1 552:1 
1 10:1 17:1 50:1 79:1 80:1 81:1 84:1 85:1 145:1 220:1 233:1 509:1 552:1 
1 10:1 79:1 80:1 81:1 145:1 220:1 233:1 511:1 552:1 
1 6:1 10:1 50:1 79:1 81:1 85:1 145:1 220:1 233:1 552:1 
1 5:1 10:1 28:1 38:1 42:1 49:1 
1 10:1 28:1 41:1 49:1 
1 6:2 9:1 10:1 26:1 28:1 99:1 314:1 451:1 452:1 
1 6:1 10:1 28:1 55:1 58:1 99:1 
1 5:1 6:1 10:1 17:1 28:2 55:1 80:1 
1 6:1 10:1 28:1 55:1 78:1 
1 5:1 6:1 10:1 17:1 28:2 55:1 78:1 144:1 
1 10:1 19:1 455:1 478:1 911:1 
1 10:1 19:1 478:1 552:1 1168:1 
1 4:1 5:1 9:1 10:1 26:1 69:1 84:1 92:1 96:1 113:1 123:1 181:1 236:1 309:1 690:1 692:1 1169:1 1170:1 
1 5:1 9:1 10:1 27:1 28:1 81:1 92:1 113:1 147:1 148:1 309:1 1169:1 
1 4:1 5:1 10:1 50:1 84:1 96:1 123:1 206:1 407:1 760:1 838:1 1169:1 1170:1 
1 4:1 10:1 27:1 45:1 55:1 92:1 112:1 113:1 117:1 145:1 395:1 396:1 626:1 844:1 1074:1 1075:1 
1 10:1 16:1 74:1 81:1 88:1 236:1 268:1 270:1 
1 6:1 10:1 16:1 74:1 81:1 88:1 236:1 268:1 270:1 
1 6:1 10:1 32:1 74:1 88:1 236:1 268:1 270:1 
1 6:1 10:1 32:1 73:1 74:2 88:1 236:1 268:1 270:1 
1 6:1 10:1 17:1 32:1 55:1 74:1 88:1 145:1 236:1 552:1 
1 4:1 7:1 10:1 141:1 253:1 300:1 468:1 1171:1 1172:1 1173:1 
1 5:1 6:1 10:1 22:1 79:1 80:1 85:1 245:1 1172:1 1173:1 1174:1 
1 6:1 10:1 62:1 69:1 1177:1 1178:1 
1 4:2 10:1 58:2 141:1 190:1 201:2 548:1 911:1 1179:1 
1 6:1 10:1 38:1 56:1 57:1 134:3 
1 5:1 6:1 10:1 38:1 54:3 56:1 57:1 
1 6:1 9:1 10:1 15:1 40:1 55:1 56:1 57:1 99:1 1181:1 
1 6:1 9:1 10:1 15:1 40:1 55:1 56:1 57:1 69:2 99:1 
1 6:1 10:1 15:1 40:1 55:1 56:1 57:1 69:2 
1 6:1 10:1 15:1 55:1 63:1 69:2 1182:1 
1 10:1 26:1 28:2 495:1 669:1 855:1 
1 10:1 27:1 28:1 84:1 94:1 495:1 669:1 855:1 
1 10:1 28:1 69:1 87:1 94:1 177:1 186:1 204:1 230:1 
1 10:1 28:1 40:1 69:1 87:1 94:1 177:1 186:1 204:1 
1 3:1 6:1 10:1 15:1 17:1 28:3 38:1 59:1 214:1 215:1 309:1 
1 4:3 5:1 10:1 15:2 90:3 247:1 290:1 339:1 344:1 
1 10:1 15:1 17:1 26:1 28:1 40:1 65:1 399:1 407:1 760:1 
0.7729783793331422 10:1 17:2 48:1 59:1 62:1 80:1 90:1 206:1 236:1 305:1 339:1 
1 10:1 17:1 26:1 30:1 31:1 41:1 55:1 90:1 339:1 
1 4:1 6:1 10:1 84:1 90:1 94:1 165:1 204:1 232:1 407:1 719:1 760:1 782:1 869:1 
1 4:1 6:1 10:1 13:1 14:1 15:1 61:1 62:1 72:1 
1 10:1 15:1 61:2 78:1 99:1 
1 10:1 15:2 55:1 62:1 65:1 66:1 95:1 139:2 140:2 163:1 1182:1 1188:1 
1 10:1 15:1 61:2 150:1 240:1 
1 10:1 15:1 26:1 38:1 61:2 
1 4:1 10:1 17:1 26:1 61:1 102:1 123:1 208:1 224:1 
1 10:1 15:1 17:1 40:1 49:1 59:1 61:2 69:1 150:1 240:1 
1 10:1 15:1 17:1 61:1 62:1 69:1 80:1 102:1 144:1 178:1 232:1 576:1 
1 10:1 15:1 17:1 26:1 40:1 59:1 61:1 79:1 80:2 112:1 573:1 574:1 
1 10:1 15:1 17:1 26:1 61:1 81:1 112:1 429:1 
1 10:1 15:1 17:1 61:2 78:1 99:1 
1 5:1 10:1 15:2 17:1 61:2 69:1 71:1 80:2 81:1 97:1 104:1 144:1 178:2 232:1 395:1 396:1 
1 10:1 17:1 19:1 26:1 123:1 139:1 497:1 546:1 1189:1 
1 10:1 26:1 69:1 139:1 243:1 497:1 546:1 595:1 1189:1 
1 10:1 62:1 69:1 94:1 236:1 1032:1 1191:1 1192:1 
1 4:1 5:1 6:2 10:1 15:1 17:1 62:1 214:1 215:1 498:1 1194:1 
0.3016330760768801 4:1 10:1 17:1 60:1 62:1 180:1 236:1 471:1 1193:1 
1 4:1 5:1 10:1 17:1 28:1 38:1 46:1 62:1 498:1 1193:1 
1 4:1 6:2 10:1 17:1 179:1 266:1 471:1 498:1 665:1 958:1 1193:1 
1 4:2 5:1 6:2 10:1 15:1 17:1 61:1 169:1 370:1 991:1 1194:1 
1 5:1 6:2 9:1 10:1 15:1 17:2 22:1 28:1 99:1 471:1 498:1 1193:1 
1 6:1 7:1 10:1 17:1 46:1 62:1 69:1 1193:1 
1 3:1 4:1 10:1 65:2 66:2 278:1 309:1 498:1 991:1 1194:1 
1 6:1 10:1 15:1 45:1 63:1 64:1 145:1 232:1 
1 6:1 10:1 45:2 145:2 
1 6:1 10:1 15:1 45:1 145:1 268:1 1197:1 
1 6:1 10:1 15:1 17:1 45:1 78:1 145:1 231:1 
1 6:1 10:1 15:1 45:1 145:1 935:2 
1 6:1 10:1 15:1 17:1 45:1 145:1 232:1 
1 3:1 6:1 10:1 15:1 17:1 45:1 145:1 232:1 236:1 
1 6:1 10:1 45:1 102:1 145:1 251:1 
1 6:1 10:1 15:1 45:1 145:1 936:2 
1 3:1 6:1 10:1 15:1 45:1 145:1 232:1 236:1 
1 6:1 10:1 15:1 163:1 206:1 445:1 446:1 984:1 
1 4:1 6:1 10:1 15:2 69:2 984:1 
1 5:1 10:1 15:1 17:1 30:2 31:1 74:1 80:1 139:1 140:1 178:1 232:1 570:1 571:1 1201:2 
1 10:1 15:1 94:1 174:1 200:1 220:2 236:1 620:1 901:1 1085:1 
1 6:1 10:1 15:1 17:1 26:1 50:1 55:1 115:1 174:1 200:1 783:1 
1 4:1 10:1 17:1 136:1 518:1 598:1 
1 5:1 10:1 15:1 17:1 80:2 139:1 140:1 141:1 178:2 232:1 370:1 518:1 
0.2625475875120557 6:1 10:1 15:1 17:1 26:1 30:1 90:1 232:1 371:1 
1 3:1 10:1 15:1 17:1 30:1 31:1 62:1 113:1 141:1 220:1 482:1 
1 3:1 10:1 15:1 26:1 30:1 141:1 237:1 370:1 
1 6:1 10:1 141:1 206:1 823:1 1199:1 
1 10:1 15:1 17:1 84:2 85:1 137:1 138:1 174:1 200:1 220:1 237:1 1195:1 1196:1 
1 5:1 10:1 17:1 26:1 27:1 61:1 78:1 84:1 85:1 95:1 168:1 179:1 230:1 482:1 518:1 653:1 1200:1 
1 4:1 6:1 10:1 26:1 113:1 163:1 482:1 897:1 1062:1 
1 5:1 10:1 40:1 62:2 69:2 168:1 314:1 387:1 867:1 1209:2 1210:2 
1 6:1 10:1 69:1 74:1 266:1 299:1 1062:1 
1 6:1 10:1 26:1 69:1 74:1 266:1 299:1 1062:1 
1 4:1 10:1 15:1 26:1 27:1 30:1 59:1 62:1 69:2 
1 6:1 10:1 17:1 62:1 69:1 102:1 576:1 1062:1 
1 5:1 10:1 17:1 62:2 69:2 168:1 314:1 387:1 867:1 1209:2 1210:2 
1 6:1 10:1 17:1 81:1 136:1 141:2 1062:1 
1 6:2 9:1 10:1 17:1 69:1 74:1 81:1 113:1 1062:1 
1 5:1 6:1 9:1 10:1 17:1 26:3 27:1 30:1 69:1 99:1 136:1 141:1 232:1 900:1 
1 6:2 9:1 10:1 17:1 62:1 74:1 99:1 1062:1 
1 6:2 10:1 17:1 26:1 30:1 74:1 438:1 1062:1 
1 6:1 10:1 17:1 26:1 27:1 30:1 31:1 38:1 45:1 61:1 136:1 139:1 140:1 205:1 
1 6:1 10:1 136:1 141:2 1062:1 
1 4:1 6:1 10:1 15:1 17:2 26:1 31:1 59:1 62:1 69:1 102:1 204:1 243:1 354:1 606:1 1062:1 
1 5:1 10:1 17:1 26:2 27:1 30:1 40:2 49:1 69:1 74:1 900:1 1076:1 
1 4:1 7:1 10:1 15:1 21:1 30:1 84:1 236:1 364:1 588:1 
1 10:1 15:1 31:1 61:1 62:1 84:1 236:1 364:1 
1 4:1 6:1 7:1 10:1 15:1 30:1 84:1 169:1 278:1 398:1 
1 7:1 10:1 15:2 28:2 30:1 31:1 69:1 84:1 268:1 364:1 
1 7:1 10:1 15:2 28:2 30:1 31:1 84:1 161:1 169:1 236:1 364:1 1033:1 
1 4:1 10:1 17:1 26:2 31:1 49:1 61:1 144:1 161:1 163:1 236:1 306:1 364:1 471:1 802:1 1033:1 
1 4:1 7:1 10:1 15:1 28:1 62:1 115:1 116:1 136:1 161:1 267:1 1033:1 
1 4:1 5:1 10:1 17:1 30:1 54:2 58:1 
1 10:1 31:1 62:1 84:1 100:1 102:1 236:1 356:2 364:1 
1 10:1 15:1 17:1 26:1 30:2 61:2 62:1 84:1 163:1 398:1 
1 6:1 7:1 10:1 15:1 17:1 19:1 30:1 84:1 94:1 278:1 
1 7:1 10:1 15:2 17:1 28:2 30:1 31:1 69:1 84:1 268:1 364:1 
1 6:1 10:1 17:1 26:1 31:1 69:1 161:1 352:1 463:1 860:1 1033:1 
1 10:1 17:1 30:1 31:1 61:1 62:1 84:1 236:1 247:1 364:1 
1 10:1 17:1 61:1 62:1 94:1 236:1 
1 7:1 10:1 15:2 17:1 84:1 94:1 179:1 230:2 356:1 459:1 
1 10:1 17:1 26:1 30:1 49:1 141:1 220:1 230:1 345:1 451:1 
1 10:1 17:1 31:1 69:1 84:1 181:1 232:1 356:1 713:1 1208:1 
1 7:1 10:1 15:2 17:1 30:1 31:1 81:1 84:1 169:1 220:2 398:1 
1 4:1 7:1 10:1 15:2 17:1 84:1 94:1 161:1 169:1 220:2 1033:1 
1 4:1 7:1 10:1 15:3 17:2 30:1 31:1 84:1 169:1 220:4 398:1 
1 10:1 17:1 26:1 31:1 69:1 71:1 80:1 84:1 174:1 178:1 197:1 200:1 232:1 364:1 
1 10:1 17:1 31:1 59:1 62:1 69:2 79:1 80:1 81:1 236:1 268:1 364:1 
1 10:1 15:1 17:1 26:1 30:1 61:1 69:1 79:1 80:1 81:1 84:1 85:1 163:1 247:1 268:1 
1 4:1 10:1 17:1 61:1 84:1 236:1 364:1 459:1 
1 10:1 26:2 30:1 31:1 69:1 84:1 163:1 236:1 268:1 364:1 684:1 
1 10:1 30:2 31:1 59:1 69:1 100:1 102:1 197:1 232:1 364:1 
1 10:1 69:1 84:1 94:1 174:1 200:1 438:1 
1 10:1 26:1 58:1 84:1 94:1 356:1 
1 10:1 31:1 69:1 84:1 115:1 116:1 136:1 141:1 161:1 197:1 364:1 860:1 1033:1 
1 10:1 15:1 17:1 163:1 179:1 230:2 770:1 1213:1 
1 10:1 15:1 17:1 69:2 81:1 84:1 770:1 1213:1 
1 10:1 17:1 22:1 26:1 45:1 65:1 66:1 94:1 236:1 356:1 621:1 687:1 
1 10:1 17:1 22:1 26:1 38:1 65:1 66:1 94:1 236:1 356:1 621:1 
1 10:1 17:1 22:1 26:1 30:1 65:1 66:1 94:1 236:1 621:1 
1 7:1 10:1 62:1 69:1 214:1 215:1 268:1 1216:1 
1 10:1 62:1 214:1 215:1 268:1 445:1 446:1 1197:1 
1 10:1 62:1 214:1 445:1 446:1 1215:1 
1 6:1 7:1 10:1 17:1 62:1 69:1 214:1 215:1 268:1 1216:1 
1 6:1 7:1 10:1 17:1 26:1 62:1 95:1 105:1 214:1 1214:1 
1 6:1 10:1 62:1 95:1 105:1 139:1 140:1 214:1 1214:1 
1 6:1 10:1 17:1 26:1 62:1 84:1 100:1 214:1 215:1 268:1 1216:1 
1 5:1 6:1 10:1 17:1 84:1 85:1 95:1 100:1 145:1 169:1 214:1 1215:1 
1 10:1 15:1 25:2 26:1 28:1 161:1 553:1 
1 4:1 10:1 17:1 25:1 26:1 38:1 78:1 84:1 123:1 668:1 
1 4:2 5:1 10:1 15:1 17:1 23:1 32:1 344:1 417:1 
1 4:1 10:1 15:1 17:1 23:1 26:1 32:1 80:1 84:1 206:1 485:1 
1 3:1 4:1 10:1 15:1 179:1 230:2 237:1 239:1 289:1 353:1 436:1 437:1 498:1 620:1 
1 6:1 10:1 26:1 59:1 62:1 94:1 278:1 289:1 407:1 657:1 760:1 
1 10:1 15:1 17:1 26:1 30:1 31:1 59:1 179:1 206:1 230:1 289:1 370:1 407:1 760:1 
