svm_type c_svc
kernel_type linear
nr_class 2
total_sv 2142
rho -2.10254
label 1 -1
nr_sv 1185 957
SV
1 5:1 10:1 19:3 20:1 29:1 
1 4:1 5:1 6:1 7:1 8:1 10:1 28:1 38:1 59:1 60:1 61:1 
1 4:1 6:1 7:1 8:1 9:1 10:1 59:1 69:1 70:1 71:1 
1 5:1 10:1 20:1 28:1 29:1 53:1 92:2 
1 5:1 7:1 10:1 20:1 29:1 49:1 51:1 86:1 87:1 88:1 92:1 
1 4:1 5:1 6:1 10:1 12:1 13:1 14:1 38:1 62:1 84:1 85:1 
0.6505643096363702 4:2 5:1 6:2 8:1 10:1 43:1 44:1 99:1 100:1 103:1 
0.5560407583660881 4:1 10:1 15:1 17:2 27:1 28:1 69:1 80:1 84:1 92:1 114:2 115:1 116:1 117:2 118:1 119:1 120:1 121:1 122:1 123:1 
1 4:1 5:1 10:1 92:1 113:1 114:3 129:1 130:1 
1 5:1 10:1 17:1 26:1 92:1 113:1 114:3 131:1 132:1 
1 10:1 19:1 26:1 28:1 112:1 114:1 
1 5:1 10:1 41:1 92:1 114:2 
0.1472879340177295 10:1 21:6 
0.5786660081942431 10:1 41:1 61:1 141:1 170:1 171:1 
0.4819664931331463 10:1 19:1 63:1 112:1 
0.08534534657317362 10:1 19:1 63:1 64:1 189:1 196:1 
1 10:1 15:2 17:1 26:1 38:1 65:1 66:1 139:1 140:1 201:1 211:1 220:1 230:1 231:1 232:1 
0.2409124913128217 10:1 17:1 63:1 94:1 95:1 112:1 233:1 234:1 235:1 
0.4805908739157647 5:1 6:1 10:1 17:2 63:1 112:1 141:1 180:1 214:1 215:1 236:1 265:1 266:1 
0.02942263896373419 10:1 17:1 63:1 205:2 206:1 219:1 235:1 266:1 
0.3752227106676762 10:1 17:1 80:1 121:1 178:1 186:1 239:1 258:1 278:1 279:1 280:1 
1 10:1 17:2 28:1 49:1 69:2 81:1 95:1 221:1 239:1 247:1 287:1 
0.9171322606753413 10:1 17:1 40:2 48:1 97:1 205:2 206:3 266:2 289:1 305:1 
0.160089020505107 10:1 17:1 26:2 49:1 69:2 247:1 300:1 315:1 
1 10:1 17:1 49:1 69:2 92:1 246:2 328:1 331:1 
0.1740372182843294 10:1 17:1 205:2 266:1 287:2 328:2 
0.09041154615189494 6:3 10:1 17:3 26:3 49:1 69:3 97:1 206:1 214:1 215:1 289:1 347:1 348:1 349:1 
0.2565986810125748 10:1 47:1 133:1 220:1 353:1 357:1 361:1 406:1 407:1 
1 10:1 35:1 40:1 92:1 156:2 191:1 192:1 
0.3859364495847314 10:1 17:1 28:1 35:1 92:1 156:2 191:1 192:1 
1 4:1 5:1 6:1 10:1 17:1 22:1 35:1 92:1 156:2 191:1 192:1 
1 5:2 6:2 10:1 17:1 22:2 24:1 28:1 40:1 47:1 48:1 75:1 136:1 230:1 
0.865669514094236 4:1 6:1 10:1 17:2 28:1 44:1 92:1 144:1 245:1 414:1 
1 4:1 6:1 10:1 17:2 22:1 28:1 74:1 92:1 144:1 245:1 
1 6:1 10:1 17:1 22:1 41:1 55:1 420:1 
1 6:1 10:1 17:1 61:1 236:1 429:1 433:1 434:1 
1 6:1 10:1 17:1 22:1 28:1 78:1 92:1 
0.3351133961476587 6:1 10:1 17:1 22:1 61:1 236:1 266:1 
1 6:1 10:1 17:1 22:1 26:1 61:1 236:1 266:1 
0.1318803217627736 4:2 6:2 10:1 17:1 22:2 26:1 27:1 29:1 62:1 82:1 87:1 136:1 442:1 
1 6:1 10:1 15:1 17:1 26:1 62:1 69:2 230:1 415:1 445:1 446:1 449:1 
0.8715798199435253 10:1 17:2 26:1 28:1 41:1 206:1 347:1 445:1 446:1 
1 6:1 10:1 17:1 28:1 41:1 247:1 445:1 446:1 
1 6:1 10:1 17:1 26:1 78:1 314:1 445:1 446:1 451:1 452:1 
0.1543732122504295 6:1 10:1 17:1 26:1 27:1 28:1 41:1 445:1 446:1 
0.1129694098222582 10:1 17:1 40:1 81:1 88:1 93:1 205:1 293:1 424:1 476:1 477:1 
0.01473294784120426 5:1 10:1 15:1 17:2 26:1 74:2 80:1 145:1 178:1 463:1 481:1 
0.1715923736215717 5:1 10:1 15:1 17:2 74:1 93:1 145:1 203:1 205:1 218:1 424:1 462:1 481:1 
0.04721766462902414 6:1 10:1 17:1 19:1 81:1 93:1 205:1 260:1 424:1 430:1 490:1 491:1 
0.1071638248186876 6:1 10:1 17:1 74:1 81:1 204:1 495:1 496:1 
1 10:1 17:1 26:1 28:1 63:1 74:1 80:1 81:1 93:1 178:1 180:1 247:1 500:1 
1 5:1 6:2 10:1 15:1 17:2 40:1 55:1 92:1 230:1 445:1 446:1 506:1 507:1 508:1 
0.7994986969798488 4:1 10:1 17:1 26:1 136:1 141:1 206:1 223:1 506:1 507:1 509:1 
0.2720970431498206 10:1 34:1 35:1 36:2 155:1 156:1 192:1 250:1 515:1 516:1 
1 5:1 10:1 40:2 518:1 
1 10:1 81:1 87:1 92:1 
0.8888065493988851 10:1 36:1 154:1 191:1 192:1 250:1 518:1 526:1 
1 5:1 10:1 17:1 28:1 92:1 
0.3267011766653202 10:1 17:1 28:1 532:1 
0.005870195269111702 5:1 6:1 10:1 17:1 28:1 105:1 294:1 336:1 514:1 533:1 
1 10:1 17:1 28:1 92:1 
0.1165071139143274 4:1 6:1 10:1 17:1 69:1 74:1 123:1 150:1 165:1 248:1 314:1 545:1 
1 10:1 19:1 28:1 518:1 
1 6:1 10:1 17:1 62:1 69:1 92:1 194:1 323:1 465:1 556:1 557:1 
0.08801877037712783 10:1 28:1 40:1 145:1 556:1 
0.09739539883211255 6:1 10:1 28:1 110:1 145:1 556:1 562:1 
1 10:1 15:1 17:1 26:2 30:1 38:1 69:1 206:1 353:1 584:1 
0.5183068707146706 5:1 6:1 10:1 17:1 26:1 30:1 40:1 267:1 573:1 574:1 587:1 
0.7830095485995853 10:1 15:1 17:1 26:1 30:1 55:1 69:1 70:1 71:1 570:1 571:1 
1 10:1 63:1 417:1 518:1 539:1 
0.5219658522522472 10:1 16:1 17:1 30:1 31:1 39:1 62:1 69:1 579:1 622:1 623:1 
0.4448603522785192 10:1 62:1 69:1 81:1 266:1 299:1 417:1 
0.04692132169647038 4:1 10:1 17:1 59:1 69:1 70:1 71:1 123:1 417:1 
0.6761198634508128 10:1 15:1 17:2 40:1 92:1 139:1 140:1 190:1 197:1 232:1 
1 10:1 17:1 63:1 69:1 417:1 518:1 539:1 
1 10:1 17:1 63:1 84:1 92:1 94:1 417:1 539:1 
0.6546242569185723 5:1 6:1 10:1 15:1 17:1 48:1 61:1 62:1 69:1 78:1 80:1 94:1 178:1 206:1 224:1 236:1 247:1 305:1 667:1 668:1 
0.0729405110611679 10:1 15:1 230:1 671:1 672:1 673:1 
0.2091814395668998 10:1 15:1 17:1 26:1 28:1 49:1 61:1 80:1 84:1 138:1 247:1 262:1 372:1 417:1 676:1 677:1 
1 5:1 10:1 17:1 26:1 49:1 80:1 84:1 137:1 138:1 223:1 372:1 417:1 597:1 676:1 
1 6:1 10:1 17:1 92:1 102:1 
1 4:1 6:1 10:1 62:1 102:1 141:1 164:1 
0.1025411199462646 10:1 18:1 22:1 28:2 81:1 87:1 94:1 104:1 206:1 262:1 563:1 
0.4444236767928342 6:1 10:1 17:1 81:1 220:1 474:1 682:1 683:1 
1 6:1 10:1 18:1 38:1 61:1 87:1 474:1 
1 6:1 10:1 18:1 61:1 87:1 317:1 474:1 
1 6:1 10:1 18:1 38:1 61:1 236:1 322:1 474:1 
1 10:1 18:1 26:1 38:1 84:1 87:1 94:1 179:1 230:1 
1 4:1 5:1 6:1 10:1 27:1 87:1 92:1 132:1 177:1 344:1 695:1 
1 10:1 92:1 695:1 
0.02130276203684394 6:1 10:1 19:1 22:1 221:1 236:1 310:1 391:1 466:1 705:1 
1 4:3 5:3 6:1 8:1 9:1 10:1 15:1 16:1 17:1 18:1 28:1 92:1 115:1 116:1 136:1 
0.3200084498744172 7:1 10:1 65:1 150:1 399:1 466:1 685:1 703:1 
0.6808999206862155 7:1 8:1 10:1 65:1 150:1 399:1 685:1 703:1 
1 4:1 10:1 29:1 92:1 
1 4:1 6:1 10:1 15:1 92:1 
1 10:1 92:1 304:3 
0.713009074459013 10:1 92:1 304:4 
1 10:1 87:1 145:1 236:1 309:1 552:1 713:1 720:1 
1 5:1 10:1 19:5 184:2 518:1 
1 4:1 10:1 26:1 50:1 84:1 136:1 141:1 206:1 223:1 248:1 509:1 545:1 
0.6260777267079209 6:1 10:1 26:1 73:1 74:1 220:1 251:1 309:1 378:1 387:1 720:1 
0.4550074130914405 6:1 10:1 28:1 41:1 145:1 232:1 285:1 
1 6:1 10:1 28:1 41:1 145:1 552:1 
1 6:2 10:1 55:2 78:1 145:2 552:2 
1 6:1 10:1 40:1 55:1 78:1 145:1 552:1 
1 6:1 10:1 41:1 55:1 78:1 145:1 552:1 
0.05513440581919855 10:1 81:1 187:1 206:1 223:1 248:1 294:1 349:1 432:1 509:1 545:1 723:1 
0.639847344831013 10:1 426:4 724:1 
1 3:2 10:1 17:1 26:1 49:1 59:1 69:1 73:1 80:1 141:1 236:1 352:1 406:1 455:1 729:1 
1 4:1 10:1 17:1 86:1 92:1 624:1 657:1 
0.06409813421485912 4:1 6:1 10:1 17:1 26:2 28:1 112:1 223:1 357:1 361:1 
0.3580880609769814 10:1 17:1 19:1 123:1 312:1 433:1 740:1 741:1 
1 10:1 17:1 19:1 86:1 123:1 518:1 624:1 
0.4029791395988507 10:1 17:1 19:1 123:1 141:1 406:1 729:1 
0.8759366267466583 10:1 17:1 179:1 230:1 352:1 406:1 644:1 
1 4:1 10:1 92:1 579:1 
1 5:1 10:1 17:1 28:1 56:1 57:1 92:1 421:1 
0.5741999898039472 5:1 10:1 17:1 26:1 28:1 30:2 38:1 59:1 62:1 
0.800307262351457 5:1 6:1 10:1 30:1 40:1 74:1 81:1 90:1 309:1 
1 4:1 5:1 10:1 17:1 26:1 30:1 62:1 135:1 136:1 168:1 352:1 
1 10:1 30:1 81:1 92:1 
1 10:1 87:1 268:1 483:1 
1 6:1 10:1 26:1 87:1 247:1 
0.1122460405486613 6:1 10:1 17:1 92:1 131:1 180:1 236:1 661:2 763:1 764:1 
0.3727816860265288 10:1 63:1 216:1 349:1 766:1 767:1 768:1 
0.7859769432967443 10:1 15:1 26:1 40:1 65:1 66:1 232:1 268:1 448:1 546:1 661:1 
1 4:1 5:1 10:1 17:1 24:1 28:1 62:1 75:1 92:1 247:1 445:1 446:1 
0.2798510114643444 6:1 10:1 17:2 62:1 82:1 422:1 445:1 446:1 467:1 632:2 766:1 775:1 
1 5:1 6:2 10:1 15:1 17:2 26:1 39:1 243:1 606:1 653:1 
0.02434492148919939 10:1 17:1 41:2 82:1 422:1 780:2 
0.2739606088210468 6:1 10:1 17:1 41:2 422:1 
0.598646924504162 6:1 10:1 17:1 41:2 422:1 
0.1064502286983768 6:1 10:1 17:1 26:1 204:1 236:1 422:1 647:1 
0.387386074897756 6:1 10:1 17:1 26:1 129:6 130:6 422:1 
1 6:1 10:1 17:1 92:1 129:1 130:1 422:1 782:1 
0.3496741044807908 6:1 10:1 17:1 399:1 422:1 785:1 
1 6:1 10:1 17:1 26:1 27:1 28:2 41:1 422:2 
0.8348129577803226 6:1 10:1 17:1 26:1 27:1 28:1 76:1 422:1 
1 10:1 17:1 70:1 71:1 82:1 422:1 
0.1492836066638752 10:1 17:1 70:1 71:1 82:1 428:1 
1 10:1 15:1 40:1 139:1 140:1 518:1 
1 5:1 10:1 15:1 41:2 139:1 140:1 
0.1473452000846013 10:1 59:1 62:1 94:1 221:1 317:1 675:1 794:1 
1 6:1 7:1 10:1 15:1 17:1 32:1 179:1 180:1 230:2 236:1 421:1 
1 10:1 92:1 94:1 169:1 356:1 799:1 800:1 
1 5:1 10:1 26:1 28:1 30:1 55:1 94:1 102:1 169:1 236:1 317:1 
0.4200654442725194 4:1 10:1 17:1 26:1 104:1 144:1 150:1 236:1 239:1 348:1 408:1 801:1 818:1 
1 10:1 92:1 620:1 
1 5:1 6:1 10:1 15:1 26:1 41:1 69:1 84:1 94:1 137:1 
1 10:1 27:1 28:7 
0.003087185282488332 10:1 19:1 28:1 40:1 123:1 504:1 
1 10:1 26:1 30:1 31:1 84:1 243:1 265:1 364:1 440:1 595:1 
0.5978814338923221 5:1 10:1 17:1 19:2 28:1 99:1 259:1 
0.201595531850482 10:1 41:1 179:1 230:1 
1 10:1 40:1 78:1 179:1 230:1 
1 4:1 10:1 17:1 28:1 40:1 58:1 115:1 128:1 144:2 476:2 495:1 658:1 830:2 831:1 
1 4:1 6:1 10:1 26:1 92:1 144:1 159:1 495:1 500:1 658:1 
1 5:1 10:1 17:1 40:1 58:1 59:1 136:1 141:1 150:1 240:1 275:1 495:1 
1 4:1 10:1 17:1 92:1 136:1 137:1 141:1 146:1 495:1 658:1 
1 4:1 10:1 29:1 58:1 92:1 136:1 141:1 495:1 658:1 
0.4357140211052876 10:1 17:1 28:1 41:1 99:1 120:1 744:1 833:1 
0.03217902180717911 10:1 16:1 17:1 26:1 28:1 85:1 120:1 223:1 224:1 236:1 835:1 836:2 
0.5206015498134426 10:1 40:1 145:1 677:1 837:1 838:1 
0.001139780457387037 6:1 10:1 17:1 69:1 74:1 96:1 110:1 145:1 460:1 778:1 779:1 
1 6:1 10:1 17:1 26:1 69:1 74:1 96:1 110:1 145:1 460:1 778:1 779:1 
0.4157282443158787 10:1 27:1 28:1 99:1 120:1 224:1 
0.5207476880872262 10:1 15:1 26:1 27:1 81:1 120:1 653:1 
1 6:1 10:1 17:1 28:1 55:1 99:1 120:1 224:1 236:1 266:1 346:1 
1 6:1 10:1 26:1 41:1 445:1 446:1 
1 10:1 15:1 87:1 92:1 145:1 177:1 204:1 268:1 482:1 840:1 
0.7480460382770346 5:1 6:2 7:1 10:1 15:2 17:1 26:1 28:1 41:1 145:1 482:1 850:1 851:1 
1 6:1 10:1 26:1 28:1 73:1 74:1 129:1 130:1 145:1 482:1 
1 5:1 6:2 10:1 15:1 22:1 28:1 105:1 145:1 206:2 482:1 649:1 
0.4558375574998746 5:1 6:1 10:1 19:1 28:1 81:1 89:1 145:1 257:1 386:1 482:1 
0.02943290116937169 6:1 10:1 19:1 223:1 271:1 482:1 750:1 843:1 857:1 858:1 
0.6711839012731193 10:1 69:1 110:1 145:1 556:1 559:1 860:1 
1 5:1 7:1 10:1 15:1 17:1 28:1 30:1 79:1 80:1 81:1 92:1 145:1 435:1 482:1 
1 10:1 15:1 28:1 51:1 62:1 82:1 88:1 102:1 145:1 482:1 
0.1071097992151812 10:1 28:1 51:1 62:1 82:1 88:1 145:1 257:1 476:1 482:1 
1 3:1 5:1 10:1 15:1 84:1 87:1 92:1 113:1 141:1 145:1 197:1 482:1 552:1 844:1 856:1 
1 5:1 6:1 10:1 28:1 41:1 92:1 278:1 746:1 868:1 
1 10:1 39:1 92:1 
1 6:1 10:1 17:1 19:1 26:1 69:1 136:2 141:1 653:2 
0.8490240280691261 5:2 10:1 92:1 128:3 611:3 
1 10:1 48:1 80:1 92:1 178:1 206:1 245:1 305:1 344:1 472:1 493:1 
0.03227348256831145 6:1 7:1 10:1 102:1 180:1 455:1 587:1 874:1 877:1 
0.09069518215754599 6:1 10:1 65:1 143:1 438:1 691:1 876:1 
1 5:1 6:1 10:1 22:1 26:1 27:1 28:1 40:1 92:1 230:1 874:1 878:1 879:1 
1 10:1 92:1 385:2 880:2 
1 4:1 10:1 489:1 542:1 691:1 881:1 
0.5001045957339324 10:1 15:1 17:1 40:1 69:2 74:1 82:1 360:1 
0.5759820449225608 10:1 15:1 17:1 40:1 61:2 182:1 912:1 
1 5:1 6:1 10:1 32:1 38:1 40:1 67:1 82:1 88:1 100:1 236:1 
1 5:1 6:1 10:1 17:1 26:1 100:1 136:1 141:2 445:1 446:1 467:1 901:1 923:1 
0.4616926382514798 5:1 6:1 10:1 38:1 40:1 61:1 72:1 924:1 
1 6:1 10:1 72:1 80:1 102:1 121:1 178:1 236:1 238:1 258:1 829:1 925:1 
0.3564132509417456 6:1 10:1 17:1 22:1 41:1 495:1 771:1 934:1 
1 4:1 6:1 10:1 62:1 84:1 85:1 145:1 890:1 
0.9709937851525647 4:1 10:1 20:1 145:1 686:1 687:1 
1 10:1 22:1 28:1 300:1 802:1 
0.9260151583681123 10:1 112:1 146:1 397:1 941:1 
0.9033903018408532 10:1 17:1 26:1 61:1 372:1 522:1 
0.3612162639019565 6:1 10:1 17:1 50:1 58:1 102:1 317:1 799:2 
1 5:1 6:1 10:1 17:2 22:1 26:1 27:1 28:1 40:1 59:2 80:1 95:1 144:1 179:1 230:1 799:2 
0.4816549534643011 10:1 38:1 94:1 102:1 169:1 799:1 944:1 
1 10:1 145:1 163:1 946:1 
1 10:1 269:1 890:1 948:1 
0.5255496181956366 5:1 10:1 26:1 27:1 49:1 57:1 69:1 949:1 
0.1305216011437527 6:1 10:1 15:2 17:1 62:1 80:1 169:1 178:1 198:2 719:6 
0.1962359786737556 5:1 6:1 10:1 17:1 40:1 55:1 74:1 314:1 451:1 722:1 
0.3922569006767637 6:1 10:1 17:1 26:2 27:1 39:1 69:1 78:1 113:1 448:1 482:1 
1 6:1 10:1 22:1 41:1 99:1 434:1 
0.7780549945189259 6:1 10:1 17:1 22:1 26:1 53:1 69:1 93:1 121:1 144:1 258:1 
0.8455227655565203 6:1 7:1 10:1 17:1 22:1 121:1 713:2 953:1 
1 6:1 10:1 15:1 19:1 22:1 69:2 
0.9062234586463456 5:1 6:1 8:1 9:1 10:1 15:1 17:1 22:1 61:2 81:1 247:1 
1 6:1 10:1 15:1 22:1 40:1 69:2 84:1 85:1 316:1 
0.9662242522190763 6:1 10:1 22:1 179:1 230:1 459:1 
0.08714089231988123 6:1 10:1 26:1 93:1 97:1 180:1 236:1 395:1 396:1 603:1 955:1 
0.1332113954528942 6:2 10:1 17:1 22:1 40:1 49:1 50:1 69:2 93:1 97:1 230:1 395:1 396:1 
0.5199638232613591 6:1 10:1 15:1 28:2 38:1 39:1 93:1 737:1 
0.4547695574296127 6:1 10:1 39:1 93:1 317:1 737:1 
1 6:1 10:1 17:1 26:1 71:1 115:1 144:1 236:1 237:1 439:1 801:1 818:1 
0.0770123996001225 6:1 7:1 10:1 16:1 17:1 22:1 26:1 64:1 94:1 95:2 236:1 237:1 797:1 798:1 972:1 973:1 
0.259086742121461 6:1 10:1 17:1 22:1 26:1 74:1 423:1 474:1 476:1 541:1 778:1 779:1 
0.6007178910395814 7:2 10:1 15:2 38:1 39:1 404:1 405:1 737:1 975:1 
1 5:1 6:1 10:1 28:1 38:2 59:1 72:1 237:1 421:1 
0.04696152843615013 10:1 38:1 59:1 62:1 73:1 74:1 100:1 625:1 969:1 970:1 977:1 
0.138848589870615 10:1 15:1 26:1 30:1 69:1 422:1 581:1 587:1 796:1 979:1 
0.07658416060321575 5:1 10:1 15:1 30:1 69:2 86:1 100:1 135:1 196:1 275:1 370:1 422:1 468:1 581:1 625:1 796:1 951:1 
1 7:1 10:1 86:1 100:1 135:1 370:1 422:1 468:1 625:1 
0.743217676680504 7:1 10:1 86:1 135:1 141:1 314:1 422:1 468:1 625:1 980:1 
1 5:1 6:1 10:1 15:1 17:1 38:1 40:1 49:1 59:1 69:1 93:1 179:1 230:2 268:1 270:1 
1 6:2 10:1 84:1 94:1 204:1 206:1 236:1 268:1 270:1 422:1 459:1 647:1 
1 5:1 6:1 10:1 17:1 26:1 31:1 38:1 62:1 104:1 136:2 141:3 268:1 300:1 
1 6:1 10:1 17:1 26:1 170:1 179:2 230:1 268:1 300:1 379:1 
1 6:1 10:1 17:1 69:1 70:1 71:1 247:1 268:1 300:1 
0.908936350503634 6:1 7:1 10:1 22:1 40:1 62:1 69:2 94:1 230:1 289:1 395:1 396:1 
1 6:1 10:1 15:1 99:1 986:1 
1 6:1 7:1 10:1 15:1 17:2 38:1 49:1 69:1 72:1 84:1 110:1 536:1 685:1 
0.512362856619105 4:1 6:1 10:1 26:1 41:1 48:1 100:1 104:1 163:1 206:1 305:1 
0.08511658178755332 6:1 7:1 10:1 26:1 163:1 180:1 220:1 357:1 361:1 546:1 576:1 991:1 992:1 
0.670568813066055 6:1 10:1 15:1 243:1 422:1 482:1 606:1 997:1 
1 10:1 15:1 41:1 163:1 198:1 206:1 474:1 
1 6:1 10:1 17:1 26:1 58:1 121:1 201:1 258:1 269:1 445:1 446:1 
0.1723401465177916 6:1 10:1 17:1 26:1 58:2 74:1 100:1 110:1 190:1 256:1 445:1 446:1 
1 4:1 6:1 10:1 60:1 78:1 99:1 114:1 322:1 966:1 
1 6:1 10:1 17:1 60:1 467:1 616:2 
1 6:1 10:1 17:1 60:1 73:1 74:2 429:1 985:1 
1 5:1 6:1 10:1 26:1 38:1 278:1 421:1 422:1 518:1 1004:1 
0.2617203733212288 5:1 6:2 10:1 17:1 19:1 59:1 62:1 80:1 99:1 120:1 278:1 331:1 1004:1 
0.5772367847766909 10:1 15:1 22:1 69:1 74:1 115:1 122:1 272:1 860:1 952:1 
0.2375670828933629 4:1 6:2 10:1 26:1 32:1 345:1 952:1 1005:1 1006:1 1007:1 
0.5071819962307198 6:1 10:1 26:1 59:1 69:1 95:1 144:1 145:1 1009:1 
1 5:1 6:1 10:1 26:2 136:1 168:1 179:1 230:1 
1 6:1 10:1 26:1 28:2 61:1 136:1 168:1 
1 4:1 6:1 10:1 41:1 72:1 136:1 168:1 
0.3004208557722547 5:1 6:1 10:1 26:1 136:1 168:1 495:1 704:1 1010:1 
1 10:1 12:1 41:1 77:1 136:1 168:1 
0.2433863536990035 6:1 10:1 15:1 476:1 664:1 830:1 1015:1 
0.3611962112695286 6:1 10:1 15:1 73:1 74:1 476:1 664:1 830:1 1015:1 
1 6:1 10:1 74:1 455:1 1014:1 1020:1 
0.800211688651618 4:1 10:1 15:1 271:1 272:1 662:1 779:1 987:1 1024:1 
0.06574670974214258 4:1 6:1 10:1 17:1 50:1 1025:1 1026:1 
0.9136793159733914 6:1 7:1 10:1 19:1 1024:1 
0.5253219212223667 10:1 41:1 493:1 
0.1538086001143468 5:1 7:3 10:1 15:2 17:1 49:1 62:1 73:1 74:1 135:1 174:1 200:1 399:1 626:1 649:1 1032:1 
0.6105888499694541 5:2 6:1 10:1 15:2 17:2 40:1 69:2 81:1 137:1 138:1 141:1 174:1 200:1 204:1 1024:1 
0.6886823067181255 6:2 10:1 43:1 44:1 62:1 82:1 141:1 200:1 214:1 215:1 278:1 377:1 580:1 659:1 969:1 
1 4:1 10:1 88:1 92:1 95:1 102:1 1037:1 1038:1 
0.2405811647810718 4:1 6:1 10:1 19:1 26:1 30:1 69:1 
1 4:1 5:1 6:1 10:1 17:1 22:1 92:1 661:1 
1 4:1 5:1 10:1 15:1 28:1 49:1 64:1 69:1 74:1 78:1 79:1 80:1 85:1 91:2 92:1 139:1 140:1 460:1 952:1 
1 5:1 6:1 10:1 17:1 22:1 28:1 40:1 91:1 92:1 
1 4:1 5:1 10:1 22:1 74:1 81:1 91:2 92:1 352:1 460:1 463:1 568:1 952:1 
1 4:1 5:1 10:1 22:1 40:1 80:1 91:1 92:1 121:1 178:1 233:1 258:1 661:1 890:1 900:1 
1 4:1 5:1 6:1 10:1 79:1 80:1 84:1 85:1 92:1 344:1 640:1 
1 6:1 10:1 55:2 92:1 117:1 161:1 170:1 239:1 377:1 640:1 1055:1 
1 4:1 5:1 6:2 10:1 15:1 62:1 69:1 92:1 100:1 344:1 640:1 
1 5:1 6:1 10:1 55:1 73:1 74:1 92:1 206:1 239:2 568:1 640:1 1061:1 
1 5:1 10:1 23:1 40:1 79:1 80:1 84:1 85:1 92:1 179:1 230:1 552:1 719:1 
1 5:1 10:1 41:1 62:1 105:1 128:1 383:1 384:1 
0.5407984858451189 10:1 28:1 41:1 563:1 864:1 
0.256991321874933 6:1 10:1 28:1 81:1 563:1 864:1 
1 10:1 15:1 17:1 18:1 26:3 27:2 41:1 49:1 61:1 69:2 87:1 
0.2864660786935779 5:1 10:1 15:2 92:1 495:2 942:1 1059:2 1063:4 1064:4 1065:2 
1 6:1 10:1 28:1 58:1 110:1 145:1 339:1 
0.3413422284317432 10:1 110:1 145:1 339:1 497:1 558:1 
0.4067453260600567 6:1 10:1 15:1 55:1 76:1 145:1 552:1 
1 4:1 5:1 6:1 10:1 15:1 17:1 26:1 27:1 378:1 646:1 
0.8060243858888849 5:1 6:1 10:1 15:1 17:1 26:1 61:1 136:1 163:1 168:1 206:1 214:2 215:2 
1 5:1 6:2 10:1 15:1 16:1 17:1 26:1 30:1 61:1 163:1 180:1 206:1 214:1 215:1 236:1 317:1 
1 6:1 7:1 10:1 90:1 236:1 266:1 
1 5:1 10:1 17:1 28:1 40:1 58:1 59:1 102:1 247:1 
0.3559462355984089 5:1 10:1 17:1 58:1 102:1 109:1 179:1 230:1 247:1 
1 10:1 28:1 41:1 230:1 896:1 
0.3931101150095488 10:1 26:1 28:1 230:1 896:1 1068:2 1069:2 
0.9332982852174003 10:1 28:1 41:1 230:1 896:1 1070:1 
1 6:1 9:1 10:1 49:1 55:1 69:1 99:1 230:1 896:1 
1 6:1 10:1 17:1 22:1 87:1 150:1 165:1 232:1 713:1 
0.9674989940619098 6:1 10:1 17:1 24:2 26:1 69:1 1071:1 
1 6:1 10:1 17:1 28:1 39:1 71:1 80:1 81:1 84:1 267:1 
0.7654294531822672 4:1 6:1 10:1 17:1 26:1 28:1 39:1 69:1 74:1 123:1 314:1 421:1 422:1 
1 6:1 10:1 15:1 26:2 27:1 41:1 69:2 900:1 
1 6:1 10:1 15:1 26:2 27:1 232:1 243:1 606:1 900:1 
1 6:2 10:1 17:4 19:1 38:1 62:2 82:1 100:1 136:1 344:1 422:1 438:1 461:1 649:1 1073:1 
1 6:1 10:1 17:1 62:1 79:1 80:1 649:1 1073:1 
1 6:1 7:1 10:1 206:1 483:1 649:1 
0.3679934809234225 10:1 12:1 17:1 70:1 71:1 649:1 
0.4237081319928842 5:1 6:1 10:1 15:1 17:1 26:1 30:2 65:1 66:1 69:1 438:1 
0.001188058736218756 10:1 41:1 102:1 247:1 354:1 363:1 788:1 
0.08100856637136694 10:1 15:1 65:1 66:1 236:1 433:1 1074:1 1075:1 
0.4004956332336831 5:1 6:1 10:1 17:1 115:1 720:1 984:1 
0.3320668921249327 4:1 5:1 6:1 7:1 10:1 15:1 30:1 31:1 32:1 460:1 506:1 507:1 1076:1 
0.06001045258090414 10:1 26:1 31:1 40:1 61:1 94:1 206:1 231:1 236:1 251:1 445:1 446:1 1076:1 1077:1 
0.3054433029452282 5:2 10:1 15:1 30:1 31:1 40:1 59:1 80:1 112:1 176:1 429:1 506:1 507:1 896:1 1076:1 1078:1 1079:1 
0.3897425712977527 5:1 6:1 10:1 22:1 26:1 28:1 94:1 97:1 104:1 204:1 236:2 278:1 395:1 396:1 647:1 797:1 952:1 1003:1 
0.4450543412853784 6:1 10:1 17:1 26:1 45:1 55:1 145:1 314:1 451:1 
0.125737541701205 10:1 136:1 141:2 247:1 287:2 
1 10:1 15:1 17:3 79:1 80:1 81:1 91:2 92:1 102:1 238:1 278:1 661:2 1089:1 1090:1 
1 10:1 16:1 17:3 26:1 69:1 79:1 80:1 91:2 92:1 102:1 168:1 238:1 472:1 498:1 661:2 
0.832278111558009 10:1 28:1 29:1 35:2 36:1 82:1 192:2 194:1 250:1 288:2 355:2 464:1 1094:1 
1 10:1 28:1 40:1 92:1 128:1 
1 10:1 26:1 28:1 40:1 92:1 
1 10:1 28:1 92:1 236:1 
1 5:1 10:1 54:2 92:1 128:1 
1 10:1 28:1 41:1 92:1 
1 5:1 10:1 69:1 92:1 236:1 
1 6:1 10:1 26:1 61:1 92:1 
0.6977602509214932 4:1 10:1 17:1 81:1 120:1 121:1 122:1 136:1 165:1 224:1 268:1 
1 4:1 10:1 72:1 165:1 404:1 438:1 497:1 
1 6:1 10:1 19:1 23:1 26:1 247:1 290:1 719:1 
0.8919457692868342 6:1 10:1 17:1 23:1 32:1 69:1 81:1 134:2 552:1 719:1 
1 4:2 5:1 6:1 7:1 10:1 15:1 18:1 92:1 100:1 479:1 1054:1 1098:1 
1 6:1 10:1 15:1 18:1 59:1 72:1 169:1 170:1 179:1 230:2 306:1 
1 4:1 5:1 10:1 15:1 17:2 23:1 26:1 32:1 92:1 100:1 
0.3685761023411626 10:1 28:1 51:1 76:1 82:1 
1 6:1 10:1 15:1 17:1 26:1 28:2 40:1 58:1 137:1 
0.8143231257345687 10:1 17:1 23:1 32:1 87:2 790:1 
1 6:1 10:1 17:1 38:1 59:1 429:1 474:1 
1 6:1 10:1 17:2 22:1 74:1 77:1 81:1 113:1 136:1 141:2 150:1 245:1 
1 6:1 10:1 17:1 22:1 49:1 69:1 81:1 223:1 314:1 451:1 569:1 
1 5:1 6:1 8:1 9:1 10:1 17:1 22:1 26:1 49:1 61:1 69:1 76:1 
0.6820561833925435 6:1 10:1 17:1 22:1 158:1 266:1 299:1 
1 8:1 10:1 17:1 22:1 28:1 29:1 70:1 71:1 82:1 87:1 136:1 232:1 442:1 
0.5968385094930833 5:1 6:1 10:1 16:1 17:1 28:1 30:1 38:1 345:1 433:1 451:1 573:1 574:1 675:1 
1 3:1 10:1 15:1 17:1 26:1 30:2 40:1 84:1 163:1 220:2 236:1 433:1 573:2 574:2 
0.03655758044726332 10:1 17:1 23:1 38:1 100:1 762:1 885:1 923:1 1106:1 
0.1223744382133116 5:1 6:1 10:1 23:1 28:1 61:1 144:1 236:1 322:1 474:1 
1 10:1 23:1 38:1 72:1 88:1 236:1 404:1 
1 7:2 10:1 15:1 17:1 23:3 26:1 28:1 78:1 84:1 94:1 102:1 236:1 
0.7094935860726987 4:1 10:1 13:1 14:1 17:1 18:1 28:1 60:1 72:1 169:1 404:1 
1 6:2 10:1 17:1 18:1 26:1 30:1 32:1 60:1 87:1 180:1 236:1 
0.6620285395393268 10:1 24:1 41:1 86:1 87:1 165:1 169:1 1086:1 
0.7703216320517469 6:1 10:1 30:1 82:1 86:1 87:2 136:1 141:1 164:1 169:1 177:1 710:1 
1 5:1 10:1 20:1 29:1 128:1 518:1 
1 10:1 17:1 26:1 69:1 80:1 93:1 121:1 136:1 168:1 178:1 236:1 258:1 1088:1 
0.07041454823437666 10:1 74:1 81:1 352:1 460:1 463:1 568:1 
0.2293859140868757 6:1 10:1 32:1 38:1 88:1 236:1 495:1 658:1 
1 6:1 10:1 38:1 72:1 100:1 180:1 204:1 236:1 1115:1 1116:1 
0.2789641695934129 5:1 10:1 40:1 98:1 446:1 1117:1 
1 6:1 10:1 17:1 55:1 78:1 81:1 150:1 165:1 248:1 545:1 
1 6:1 10:1 17:1 55:1 78:1 150:1 165:1 247:1 248:1 545:1 
1 6:1 10:1 17:1 55:1 78:1 81:1 145:1 150:1 165:1 552:1 
1 6:1 10:1 17:1 55:1 78:1 145:1 150:1 165:1 247:1 552:1 
0.7159413534279776 6:1 10:1 17:2 28:1 55:1 78:1 81:1 150:1 165:1 248:1 545:1 
0.505520385204474 6:1 10:1 17:1 55:1 78:1 150:1 165:1 1074:1 1118:1 
1 6:1 10:1 55:1 78:1 1074:1 1118:1 
0.06509242270440749 6:1 10:1 15:1 23:1 84:1 87:1 102:1 110:1 177:1 179:1 230:2 
1 6:1 10:1 25:1 38:1 179:1 230:1 474:1 502:1 
0.190480311995212 6:2 10:1 13:1 15:1 17:1 86:1 87:1 179:1 230:1 474:1 900:1 
1 5:1 6:1 7:1 10:1 15:1 26:1 59:2 135:1 230:1 236:1 266:1 474:1 
1 6:1 10:1 16:1 17:1 23:1 38:1 59:1 62:1 102:1 238:1 
1 10:1 23:2 26:1 59:1 72:1 163:1 169:1 404:1 
0.1468714484952785 6:1 10:1 17:1 23:1 80:1 179:1 230:1 474:1 
1 6:1 10:1 15:1 17:1 41:1 220:2 474:1 
1 6:2 10:1 15:1 17:1 22:1 50:1 69:1 88:1 100:1 230:1 236:1 474:1 
1 10:1 15:1 17:1 19:1 62:1 104:1 136:1 168:1 220:1 
1 6:1 10:1 23:1 40:1 136:1 141:1 206:1 474:1 
0.2376294893045881 6:1 10:1 16:1 23:1 71:1 80:1 136:1 178:1 206:1 247:1 322:1 
0.4792702339979213 10:1 17:1 20:1 86:1 87:1 141:1 267:1 809:1 
1 10:1 15:1 17:1 99:1 247:1 986:1 
0.8961814058938116 10:1 40:1 136:1 141:2 1124:1 1125:1 
0.3509740766146314 6:1 10:1 19:1 83:1 88:1 233:1 
0.9388607173486766 6:1 10:1 19:1 83:1 88:1 318:2 
0.4986849528666268 10:1 136:1 141:1 232:1 236:1 795:1 911:1 1051:1 1127:1 
1 10:1 136:1 483:1 911:1 
0.4572980804788825 10:1 36:1 153:1 155:2 191:1 465:1 927:1 
0.03789569227876847 4:1 5:2 10:1 19:1 28:1 30:1 38:1 163:1 969:1 1099:1 
1 10:1 15:1 19:1 30:1 59:1 62:1 370:1 
0.09409723898859186 4:1 5:2 6:1 10:1 42:1 45:1 48:1 89:1 
1 4:1 5:1 6:1 10:1 30:1 38:1 65:1 66:1 89:1 
0.4432245322899371 4:1 5:1 10:1 38:1 62:1 84:1 85:1 89:1 
1 6:1 10:1 15:1 61:1 69:1 230:1 247:1 
0.6619808976981921 6:2 7:1 10:1 15:1 17:1 61:1 78:1 137:1 163:1 
0.41204848509021 6:1 10:1 15:1 61:1 81:1 93:1 
1 5:1 6:2 10:1 15:1 22:1 26:2 27:1 30:1 61:2 69:1 78:1 84:1 94:1 418:1 
1 5:1 7:1 10:1 81:1 82:1 86:1 87:1 247:1 290:1 438:1 491:1 
1 5:2 7:1 10:1 15:1 26:1 27:1 28:1 81:1 82:1 128:1 491:1 
1 6:1 10:1 69:1 74:1 82:1 230:1 247:1 491:1 
0.01403525723002464 6:1 10:1 26:1 28:1 41:1 176:1 782:1 
0.6284939158670212 5:1 6:2 10:1 26:3 27:2 55:2 176:1 1017:2 
1 4:1 5:1 10:1 92:1 399:1 905:1 950:1 1031:1 1040:1 1138:1 
1 8:1 10:1 38:1 41:1 59:1 61:1 62:1 100:1 322:1 
1 5:2 6:2 8:1 9:1 10:1 17:2 28:1 38:1 40:1 60:1 74:1 102:1 474:1 
0.6511097176944598 6:1 8:1 9:1 10:1 28:1 40:1 94:1 142:1 206:1 236:1 372:1 
0.5202895767579624 4:1 6:1 8:1 9:1 10:1 15:1 22:1 399:1 438:1 1143:1 
1 6:1 10:1 15:1 19:1 26:1 31:1 62:1 64:1 65:1 66:1 102:1 174:1 
1 6:1 10:1 17:1 26:1 27:1 69:1 81:1 395:1 396:1 440:1 
0.2252691499504771 4:1 10:1 76:1 180:1 360:1 
0.4353796689027511 4:1 6:1 10:1 26:1 81:1 87:1 177:1 236:1 408:1 605:1 911:1 1115:1 1148:1 1149:1 1150:1 
0.5880751859356645 10:1 127:1 408:1 522:1 1151:1 1152:1 
1 5:1 6:2 10:1 16:1 17:1 23:1 26:1 27:1 69:1 92:1 163:1 448:1 552:1 719:1 
1 6:1 10:1 15:1 19:1 67:1 82:1 271:1 272:1 
1 4:1 10:1 15:1 82:1 86:1 87:1 158:1 360:1 
1 4:1 10:1 15:1 82:1 360:1 370:1 686:1 687:1 
1 4:1 10:1 23:1 38:1 86:1 87:2 100:1 171:1 220:1 531:1 
0.2359379428254191 4:1 6:1 10:1 41:1 458:1 1043:1 
0.4056214872996584 10:1 112:2 446:1 720:1 
1 6:1 10:1 41:1 94:1 224:2 236:1 278:1 719:1 
0.1374925430463239 10:1 19:1 62:1 64:1 73:1 74:1 150:1 
0.7754155451352958 6:1 10:1 1097:2 
1 6:1 10:1 17:1 38:1 59:1 62:1 145:1 552:1 1097:1 
1 3:1 6:1 9:1 10:1 17:1 38:1 50:1 99:1 145:1 220:1 509:1 552:1 
0.6980728812727233 10:1 17:1 50:1 79:1 80:1 81:1 84:1 85:1 145:1 220:1 233:1 509:1 552:1 
1 6:2 9:1 10:1 26:1 28:1 99:1 314:1 451:1 452:1 
1 10:1 19:1 455:1 478:1 911:1 
1 10:1 19:1 478:1 552:1 1168:1 
1 4:1 5:1 9:1 10:1 26:1 69:1 84:1 92:1 96:1 113:1 123:1 181:1 236:1 309:1 690:1 692:1 1169:1 1170:1 
1 5:1 9:1 10:1 27:1 28:1 81:1 92:1 113:1 147:1 148:1 309:1 1169:1 
1 4:1 10:1 27:1 45:1 55:1 92:1 112:1 113:1 117:1 145:1 395:1 396:1 626:1 844:1 1074:1 1075:1 
1 6:1 10:1 17:1 32:1 55:1 74:1 88:1 145:1 236:1 552:1 
0.09986368547253259 5:1 6:1 10:1 22:1 79:1 80:1 85:1 245:1 1172:1 1173:1 1174:1 
0.4487141815277176 10:1 58:1 141:1 201:1 590:1 891:1 1180:1 
0.3969454122428839 10:1 26:1 28:2 495:1 669:1 855:1 
1 10:1 17:1 28:1 30:1 31:1 483:1 616:1 
0.1410477826347102 10:1 15:1 17:1 26:1 28:1 40:1 65:1 399:1 407:1 760:1 
0.5515346459089062 10:1 17:1 26:1 28:1 30:1 31:1 41:1 48:1 407:1 760:1 1184:1 
0.7272123793565703 10:1 17:1 30:1 31:1 204:1 316:1 379:1 583:1 
0.8664196722625546 4:1 6:1 10:1 13:1 14:1 15:1 61:1 62:1 72:1 
1 10:1 15:1 61:2 78:1 99:1 
0.06132790187137782 10:1 15:1 17:1 40:1 49:1 59:1 61:2 69:1 150:1 240:1 
1 10:1 15:1 17:1 26:1 61:1 81:1 112:1 429:1 
0.5614744943896397 10:1 26:1 69:1 139:1 243:1 497:1 546:1 595:1 1189:1 
1 6:1 10:1 15:1 45:1 63:1 64:1 145:1 232:1 
0.04226187485718399 6:1 10:1 45:2 145:2 
0.2594649450197262 6:1 10:1 15:1 17:1 45:1 145:1 399:1 1198:1 
1 4:1 7:1 10:1 15:1 169:1 532:1 653:1 1200:1 
1 5:1 10:1 15:1 17:1 30:2 31:1 74:1 80:1 139:1 140:1 178:1 232:1 570:1 571:1 1201:2 
1 4:1 10:1 17:1 136:1 518:1 598:1 
1 5:1 10:1 15:1 17:1 80:2 139:1 140:1 141:1 178:2 232:1 370:1 518:1 
0.1626169829536112 10:1 15:1 17:1 79:1 80:2 81:1 84:1 220:1 898:1 1123:1 1205:1 
0.1970326244895743 10:1 61:1 79:1 80:1 84:1 119:1 610:1 653:1 1020:1 1200:1 1208:1 
1 5:1 10:1 17:1 26:1 27:1 61:1 78:1 84:1 85:1 95:1 168:1 179:1 230:1 482:1 518:1 653:1 1200:1 
1 10:1 94:1 234:1 314:1 757:1 
0.1402296386011423 5:1 10:1 40:1 62:2 69:2 168:1 314:1 387:1 867:1 1209:2 1210:2 
1 6:1 10:1 26:1 69:1 74:1 266:1 299:1 1062:1 
1 6:2 9:1 10:1 17:1 69:1 74:1 81:1 113:1 1062:1 
1 5:1 6:1 9:1 10:1 17:1 26:3 27:1 30:1 69:1 99:1 136:1 141:1 232:1 900:1 
0.03796814550993061 4:1 6:1 10:1 15:1 17:2 26:1 31:1 59:1 62:1 69:1 102:1 204:1 243:1 354:1 606:1 1062:1 
1 5:1 10:1 17:1 26:2 27:1 30:1 40:2 49:1 69:1 74:1 900:1 1076:1 
0.3551740568386914 7:1 10:1 15:2 28:2 30:1 31:1 84:1 161:1 169:1 236:1 364:1 1033:1 
0.2308665154305029 4:1 7:1 10:1 15:1 28:1 62:1 115:1 116:1 136:1 161:1 267:1 1033:1 
0.1384198074050467 6:1 10:1 17:1 26:1 31:1 69:1 161:1 352:1 463:1 860:1 1033:1 
0.1990504059123312 10:1 40:1 69:1 433:1 676:1 770:1 1213:1 
0.4764854817383395 10:1 17:1 22:1 26:1 30:1 65:1 66:1 238:1 621:1 
1 10:1 17:1 22:1 26:1 30:2 38:1 65:1 66:1 621:1 
0.004544829832859617 6:1 10:1 17:2 22:1 26:1 30:2 50:1 65:1 66:1 621:1 
0.1235406284188746 7:1 10:1 62:1 69:1 214:1 215:1 268:1 1216:1 
0.8208399314973375 10:1 62:1 214:1 215:1 268:1 445:1 446:1 1197:1 
1 6:1 7:1 10:1 17:1 26:1 62:1 95:1 105:1 214:1 1214:1 
0.4596881289752305 6:1 10:1 62:1 95:1 105:1 139:1 140:1 214:1 1214:1 
0.3145663814735506 4:1 10:1 25:1 26:1 123:1 1217:1 1218:1 
1 3:1 10:1 15:1 18:1 26:1 62:1 163:1 468:2 
0.7026972024768638 10:1 65:1 69:1 236:1 454:1 628:1 1208:1 1226:1 
0.6977915748973488 4:1 10:1 17:1 38:1 78:1 99:1 123:1 1227:1 
1 10:1 17:1 26:1 99:1 1227:1 1228:1 
0.1812417899897711 10:1 15:1 17:1 30:1 62:1 80:1 115:1 116:1 163:1 178:1 206:1 468:2 897:1 898:1 
0.1810483737018535 6:1 10:1 397:1 399:1 997:1 1198:1 1229:1 
0.1254080888370705 10:1 40:1 49:1 99:1 316:1 344:1 452:1 645:2 
1 3:1 10:1 15:1 17:1 40:1 62:1 220:1 272:1 440:1 
0.2203049206201714 3:1 10:1 15:1 17:1 220:2 247:1 272:1 440:1 
1 3:1 10:1 15:1 78:1 236:1 272:1 440:1 
0.1051496996541636 10:1 17:1 69:1 74:1 84:1 94:1 136:1 141:2 206:1 314:1 378:1 472:1 577:1 653:1 841:1 1131:1 
0.22604702081283 6:1 7:1 10:1 15:1 41:1 524:1 
1 10:1 31:1 92:1 94:1 108:1 356:1 719:1 
0.2041798553249874 10:1 23:1 26:1 28:1 31:1 460:1 487:1 595:1 719:1 
0.1687856141985792 10:1 26:1 28:1 204:1 366:1 460:1 487:1 595:1 719:1 
1 10:1 26:1 28:1 31:1 460:1 487:1 595:1 719:2 
1 6:1 8:1 10:1 15:1 29:1 31:1 92:1 94:1 278:1 356:1 429:1 719:1 
0.5699042231679323 6:1 10:1 26:1 28:1 30:1 31:1 94:1 278:1 460:1 487:1 595:1 719:2 
1 10:1 26:1 28:2 31:1 136:1 141:2 719:2 
1 6:1 10:1 18:1 28:1 31:1 90:2 92:1 94:1 236:1 278:1 356:1 577:1 719:1 
1 3:2 10:1 15:1 26:1 28:2 84:1 94:1 232:1 236:2 719:2 
0.5463933682311112 6:1 10:1 30:1 31:1 90:2 94:1 278:1 719:1 1244:1 1245:1 
1 5:1 10:1 31:1 92:1 238:1 356:1 719:1 795:1 
1 6:1 10:1 17:2 41:1 69:2 71:1 179:1 206:1 295:1 296:1 
0.3055037971601065 5:1 10:1 34:1 35:1 36:2 41:1 154:2 155:1 191:1 192:1 193:1 195:1 465:1 
1 10:1 92:1 105:1 
1 5:1 6:1 10:1 17:1 40:1 41:1 95:1 105:1 145:1 
1 6:1 10:1 17:1 26:1 62:1 69:1 73:1 74:1 85:1 104:1 105:1 204:1 224:1 
1 4:1 10:1 46:1 150:1 232:1 802:1 982:1 1018:1 1256:1 
1 10:1 17:1 58:1 84:1 136:1 165:1 577:1 1208:1 1257:1 
0.1690262070074539 5:1 6:1 10:1 17:1 40:1 74:1 82:1 182:1 596:1 795:1 1259:1 
1 5:1 10:1 17:1 79:1 80:2 84:1 92:1 170:1 179:1 224:1 435:1 1037:1 
1 10:1 15:2 26:2 27:1 49:1 61:2 69:1 247:1 900:1 
0.5775346175244924 6:1 10:1 28:2 204:1 235:1 950:1 968:1 
1 5:1 6:1 10:1 11:1 15:1 30:1 49:1 69:1 80:1 90:1 92:1 178:1 371:1 
0.4543372564151493 5:1 10:1 15:2 62:1 69:1 81:1 352:1 371:3 463:1 645:1 
1 4:1 10:1 92:1 232:1 378:1 387:1 653:1 
0.905480186129445 10:1 17:1 40:1 120:1 136:1 141:2 961:1 1263:1 
1 5:1 10:1 15:1 17:1 80:2 84:3 90:1 92:1 232:1 290:1 371:1 417:1 
0.9380063201218016 6:1 10:1 15:1 30:1 62:1 72:1 150:1 236:1 405:1 1115:1 
1 10:1 11:1 724:1 
0.3429955147359845 10:1 17:1 27:1 69:1 94:1 300:1 582:1 1270:1 
0.9601966805322026 10:1 61:1 70:1 71:1 121:1 122:1 144:1 196:1 422:1 482:1 657:1 1220:1 
0.2434152390848752 10:1 40:1 94:1 702:2 1051:1 
0.1520887741704986 10:1 15:1 17:1 49:1 61:2 80:1 81:1 104:2 178:1 231:1 232:1 1041:1 1042:1 
1 6:1 10:1 59:1 62:1 317:1 419:1 1281:1 
1 6:2 10:1 15:1 26:1 94:1 139:1 140:1 214:1 215:1 236:1 241:1 501:1 
0.2464485402085623 6:1 10:1 17:1 26:1 49:1 69:1 80:1 136:1 141:2 178:1 214:1 215:1 241:1 501:1 
0.591127048833151 6:1 10:1 17:1 179:1 214:1 215:1 230:1 232:1 241:1 498:1 501:1 662:1 1282:1 
1 6:1 7:1 10:1 17:1 26:1 31:1 40:1 141:1 214:1 215:1 241:1 383:1 384:1 501:1 
0.4983060540350638 4:2 5:1 6:1 10:1 17:1 30:1 180:1 236:1 278:1 758:2 1140:1 
0.8265768588501842 6:1 10:1 30:1 38:1 90:1 94:1 241:1 278:1 501:1 
1 10:1 30:1 41:1 94:1 241:1 501:1 
1 6:2 10:1 17:1 26:1 69:1 206:1 214:1 215:1 232:1 241:1 347:1 383:1 384:1 498:1 501:1 
0.4861044194850004 6:2 10:1 17:1 26:1 69:1 206:1 214:1 215:1 347:1 383:1 384:1 
1 6:1 10:1 62:1 141:1 168:1 214:1 215:1 576:1 
1 6:1 10:1 41:1 236:1 524:1 525:1 
0.2605550606958647 6:1 10:1 17:1 38:1 90:1 136:1 150:1 232:1 1243:1 1283:1 
0.2285816767283124 10:1 132:1 236:1 613:1 1284:1 
0.6251771687754879 6:1 10:1 43:1 82:1 136:1 491:1 1114:1 
1 10:1 62:1 69:1 94:1 206:1 236:1 239:1 943:1 1285:1 
0.341252461386876 10:1 27:1 40:1 69:1 943:1 1285:1 
0.07996245029617145 6:1 10:1 26:2 69:1 73:1 82:1 87:1 223:1 278:1 314:1 569:1 860:1 1031:1 1286:1 1287:1 
1 5:1 6:2 10:1 15:1 28:1 50:1 71:1 80:1 82:1 84:1 87:1 92:1 94:1 102:1 150:1 178:1 225:1 226:1 278:1 1288:1 
0.2728852671917744 4:1 6:1 10:1 15:1 17:1 22:1 26:1 61:1 141:1 145:1 232:1 344:1 438:1 
0.04734186701858048 4:1 6:1 10:1 63:1 495:1 1298:1 
0.2715808846262434 4:1 5:1 6:1 10:1 62:1 79:1 80:2 84:1 438:1 495:1 942:1 1298:1 1300:1 
0.2756365686971488 4:1 10:1 15:1 169:1 180:1 181:1 220:1 495:1 1298:1 
0.4877072486055317 6:1 10:1 204:1 460:1 506:1 507:1 1046:1 
0.2196396114830277 3:1 4:1 5:1 8:1 10:1 29:1 69:1 99:1 105:1 141:1 204:1 319:1 320:1 433:1 442:1 626:1 1133:1 1311:1 1312:1 
0.2590426613174703 10:1 28:1 40:1 110:1 497:1 626:1 664:1 1015:1 1307:1 
0.8815765409262298 5:1 10:1 38:1 49:1 51:1 61:1 169:1 1257:1 
0.06402196447466781 4:1 5:1 10:1 15:1 22:1 49:1 69:1 87:1 88:1 818:1 841:1 913:1 1314:1 
0.9807955796350868 10:1 12:1 26:2 28:1 77:1 141:1 509:1 576:1 1315:1 1316:1 
1 5:1 6:1 10:1 17:1 26:1 39:1 92:1 212:1 361:1 363:1 497:1 1261:1 
1 4:1 6:1 7:1 10:1 15:1 63:1 169:1 206:1 379:1 
1 6:1 10:1 17:1 92:1 95:1 117:1 145:1 163:1 512:1 1253:1 
0.4087447544153496 6:1 10:1 15:1 17:1 50:1 79:1 80:1 84:1 100:1 180:1 253:1 256:1 455:1 478:1 979:1 1168:1 1324:1 
0.5304904021699561 10:1 80:1 121:1 178:1 247:1 258:1 455:1 478:1 1168:1 
1 6:1 10:1 26:1 40:1 80:1 121:1 178:1 220:1 233:1 258:1 455:1 478:1 1168:1 
1 10:1 12:1 15:2 26:2 61:1 69:1 78:1 79:1 80:1 99:2 150:2 
0.539125840337485 4:1 10:1 15:1 123:1 135:1 220:1 333:1 353:1 537:1 584:1 746:1 
1 10:1 15:1 27:1 38:1 61:1 158:1 268:1 
1 6:1 10:1 69:1 158:1 268:1 
1 4:1 10:1 15:1 62:1 415:1 434:2 653:1 
0.319887605294066 4:1 6:1 10:1 271:1 272:1 434:1 653:1 
0.3570727448614155 4:1 10:1 17:1 344:1 1336:1 
1 5:1 6:1 10:1 15:2 62:1 69:1 74:1 344:1 352:1 722:1 868:1 
0.3928055915407979 10:1 15:1 26:2 86:1 102:1 157:1 232:1 262:1 309:1 345:1 720:1 982:1 
0.1099500250199974 6:1 10:1 50:1 115:1 220:1 233:1 739:1 783:1 
0.06018350813516524 6:1 10:1 15:1 17:1 28:1 41:1 50:1 115:1 783:1 
0.9367086532298801 4:1 10:1 17:1 38:1 78:1 84:1 99:1 123:1 653:1 987:1 1338:1 
0.7681332546580342 10:1 15:1 50:1 59:1 62:1 79:1 80:2 145:1 206:1 1339:1 
0.3173754704164422 4:1 6:1 10:1 17:1 30:1 59:1 62:1 69:1 78:1 445:1 446:1 
1 10:1 17:1 27:1 28:1 40:1 47:1 247:1 290:1 640:1 724:2 
0.01557466803727298 10:1 17:1 26:1 39:1 174:1 200:1 333:1 497:1 1130:1 1341:1 
0.7814340387442004 10:1 27:1 61:1 81:1 206:1 230:1 1145:1 
1 10:1 17:1 28:1 30:1 31:1 41:1 1342:1 
1 4:1 6:1 10:1 17:2 22:1 26:1 30:2 61:1 69:1 79:1 80:2 81:1 84:2 85:1 102:2 110:1 145:1 232:1 238:1 576:1 
0.09976126728484087 6:1 10:1 11:1 17:1 55:1 60:1 72:1 100:1 112:1 141:1 204:1 235:1 237:1 319:1 320:1 345:1 429:1 498:1 618:1 663:1 1343:1 
0.4543303010556329 10:1 28:1 67:1 68:1 69:1 168:1 422:1 554:1 
0.2859093186050548 10:1 160:1 241:1 415:1 501:1 
0.4707717780896304 10:1 26:1 422:1 558:1 933:1 1344:1 
0.9646945967623932 10:1 17:1 27:1 230:1 422:1 1346:1 1347:1 
0.3482776853566151 10:1 28:1 41:1 230:1 422:1 
1 5:1 10:1 17:1 26:2 28:2 61:1 278:1 823:1 
0.2977748668564568 10:1 99:2 333:2 899:2 1349:2 
0.2869016922597266 7:1 10:1 40:1 49:1 441:1 509:1 648:1 685:1 1161:1 
0.4314465225252433 10:1 26:1 28:1 69:1 80:1 178:1 237:1 478:1 621:1 657:1 901:1 1350:1 
1 6:1 10:1 30:1 69:1 87:1 95:1 163:1 206:1 232:1 233:1 
1 6:2 9:1 10:1 69:1 87:1 99:1 233:1 
1 6:1 10:1 26:1 27:1 69:1 87:1 233:1 
0.6689136211686822 6:1 10:1 27:1 40:1 69:1 87:1 233:1 
0.3204118261337425 10:1 237:1 238:1 795:1 1355:1 
1 10:1 17:1 28:1 40:1 141:1 233:1 532:1 
0.5228459649604489 10:1 115:1 584:1 676:1 1363:1 
0.5172079062270041 10:1 165:1 546:1 779:1 1364:1 
0.05974985442667019 10:1 27:1 67:1 69:1 614:1 1114:1 1361:1 
1 10:1 39:2 84:2 94:1 134:1 233:2 
1 5:1 10:1 92:1 157:1 1196:1 1198:1 1312:1 
0.8472879527567011 6:1 10:1 15:1 17:1 38:1 61:1 84:1 139:1 140:1 232:1 587:1 
1 10:1 17:1 26:2 49:1 55:1 69:1 102:1 112:1 139:1 140:1 224:1 352:1 573:1 574:1 
0.2232146155757991 10:1 17:1 26:2 139:1 452:1 546:1 906:1 1361:1 
0.4776411470228908 10:1 17:1 26:2 61:1 112:1 247:1 452:1 
1 5:1 10:1 15:1 17:1 30:1 31:1 47:1 62:1 179:1 230:1 278:1 370:1 433:1 455:1 675:1 959:1 1098:1 1195:1 1256:1 
1 10:1 26:1 69:1 87:1 96:1 180:1 206:1 251:1 460:1 662:1 
0.1743337060417667 10:1 17:1 26:2 141:1 407:1 452:1 497:1 720:1 901:1 1376:1 1377:1 
0.6794455735665283 10:1 17:1 55:1 56:1 57:1 74:1 82:1 407:1 720:1 
0.6050731034074482 10:1 314:1 606:1 757:1 971:1 
1 10:1 746:1 783:1 1379:1 1380:1 
0.3129616339919802 10:1 28:1 141:1 746:1 1380:1 
0.178114520671584 10:1 166:1 455:1 746:1 1380:1 
0.06104622499193002 10:1 115:1 141:1 1361:1 1381:1 
0.7893148424107443 10:1 26:1 235:1 330:1 1382:1 1383:1 
0.5524324089230804 10:1 17:1 26:1 49:1 69:1 352:1 579:1 717:1 
1 6:1 10:1 92:1 131:1 
1 6:1 10:1 17:1 38:1 59:1 62:1 71:1 478:1 479:1 
0.473007904579767 6:1 10:1 17:1 59:1 131:1 144:1 220:1 339:1 387:1 809:1 1066:1 
1 6:1 10:1 15:1 17:1 59:1 62:1 69:2 71:1 664:1 735:1 
1 10:1 19:1 123:1 640:1 1390:1 
0.01774053836112235 10:1 41:1 59:1 80:1 163:1 640:1 1390:1 
1 7:1 10:1 15:1 76:1 640:1 1390:1 
1 7:1 10:1 15:1 26:1 59:1 80:1 352:1 640:1 1390:1 
1 10:1 15:1 59:1 76:1 80:1 370:1 640:1 1390:1 
1 10:1 80:1 84:1 247:1 352:1 463:1 640:1 1390:1 
0.6459841778786816 6:1 10:1 17:1 26:1 39:1 113:1 125:1 306:1 363:1 482:1 542:1 1201:2 1391:1 1392:2 1393:1 
0.4009035747472053 6:1 10:1 26:1 113:1 125:1 333:1 537:1 577:1 621:1 
1 10:1 17:1 41:1 58:1 86:1 87:1 102:1 146:1 495:1 573:1 574:1 
0.4510189744278514 10:1 38:1 60:1 344:1 429:1 558:1 
0.7128786134067867 4:1 5:1 10:1 15:1 17:1 26:1 61:1 136:1 137:1 139:1 141:2 236:1 344:1 573:1 574:1 591:1 754:1 
0.2691570442465709 5:1 10:1 17:1 26:2 58:2 80:1 84:1 136:1 165:2 754:2 
0.5797165770050828 10:1 62:1 69:1 94:1 206:1 1404:1 
1 6:2 7:1 10:1 17:1 50:1 73:1 74:1 136:1 141:1 169:1 238:1 435:1 487:1 489:1 621:1 
1 6:1 10:1 15:1 17:1 50:1 606:2 950:1 1132:1 
0.07895825286250101 6:1 7:1 10:1 15:1 17:2 59:1 80:1 81:1 99:1 120:1 233:1 421:1 1405:1 
1 10:1 17:1 19:1 99:1 120:1 123:1 1405:1 
0.9017702047966217 10:1 17:1 19:1 69:1 86:1 399:1 595:1 624:1 
1 6:1 10:1 69:1 86:1 399:1 509:1 595:1 624:1 
0.1328578845267855 10:1 17:1 64:1 69:1 232:1 662:1 1208:1 1417:1 
0.5318506806360885 4:1 6:1 10:1 41:1 59:1 181:1 236:1 1024:1 
1 6:1 10:1 15:1 41:1 62:1 536:1 
0.9693681780979735 10:1 17:1 62:1 69:1 94:1 406:1 1426:1 
1 10:1 17:1 26:1 40:1 79:1 80:2 84:1 137:2 138:1 406:1 1426:1 
0.1677840444760447 10:1 17:1 84:1 94:1 95:1 247:1 300:1 582:1 
0.517266187819939 10:1 94:1 234:1 746:1 1432:1 
0.9699701663003191 10:1 646:1 
1 6:1 7:1 10:1 17:1 32:1 83:1 88:1 236:1 266:1 
0.0532732113468691 10:1 69:1 84:1 95:1 236:1 342:1 444:1 1438:1 1439:1 
0.002078026713814509 10:1 69:1 84:1 95:1 236:1 342:1 444:1 1051:1 1348:1 
0.3900813906364898 10:1 17:1 26:1 69:1 94:1 206:1 262:1 467:1 483:1 901:1 
0.2881156478669761 5:1 7:1 10:1 24:1 41:1 75:1 236:1 433:1 1074:1 1075:1 
0.9660112560001356 6:1 10:1 17:1 26:2 63:1 69:1 145:1 439:1 460:1 1074:1 1075:1 
0.2704862161970941 5:1 10:1 17:1 26:1 28:1 59:1 61:1 80:1 206:1 266:1 299:1 1074:1 1075:1 
0.8339012808897913 7:1 10:1 17:1 41:1 100:1 180:1 236:1 433:1 1074:1 1075:1 
0.471798058500385 10:1 63:1 64:1 232:1 967:1 968:1 1074:1 1075:1 
1 10:1 63:1 64:1 280:1 1074:1 1075:1 
0.1672489701129661 10:1 17:1 280:1 1074:1 1075:1 
1 5:1 6:2 10:1 38:1 84:1 92:1 174:1 232:1 354:1 739:1 956:1 
0.1583936926260666 10:1 17:1 112:1 946:1 985:1 
1 4:1 5:1 6:1 7:2 10:1 15:1 30:1 69:1 80:1 92:1 115:1 178:1 653:1 763:1 
1 6:1 10:1 15:1 26:2 27:1 69:1 115:1 141:1 
1 5:1 6:1 10:1 15:1 38:1 71:1 92:1 180:1 354:1 956:1 1449:1 
0.4593151932344837 6:1 10:1 17:1 62:1 1181:1 1450:1 
1 6:1 10:1 22:1 26:1 30:1 149:1 174:1 306:1 487:1 665:1 
0.2699599166129739 6:1 7:1 10:1 26:1 30:1 31:1 149:1 174:1 306:1 487:1 498:1 
0.5276504866146546 5:1 10:1 26:1 40:1 48:1 102:1 104:1 136:1 141:1 150:1 437:1 574:1 580:1 1456:1 
0.3782303656850068 4:1 10:1 104:1 136:1 141:1 150:1 204:1 1069:1 1459:1 
1 4:1 10:1 48:1 59:1 62:1 69:1 94:1 104:1 136:1 141:1 150:1 437:1 
0.2867182112001481 10:1 26:1 48:1 74:1 262:1 437:1 487:1 580:1 631:1 677:1 1462:1 1464:1 
0.4182201816073897 10:1 48:1 136:1 141:2 394:1 437:1 580:1 626:1 1462:1 1463:1 
0.03500616671496833 10:1 26:1 40:1 48:1 74:1 150:1 240:1 262:1 437:1 950:1 1458:1 
1 1:1 2:1 10:1 151:1 168:1 554:1 593:1 1466:1 1467:1 1468:1 
0.06787911110532609 10:1 542:1 554:1 600:1 659:1 1348:1 1469:1 1470:1 
0.3121185773666648 10:1 26:1 50:1 69:1 206:1 267:1 460:1 560:1 1017:1 1054:1 1202:1 
0.6221787594419259 10:1 63:1 71:1 206:1 262:1 398:1 485:1 553:1 1481:1 
0.03461174104284549 10:1 63:1 80:1 147:1 178:1 485:1 553:1 612:1 941:1 1208:1 
0.3453819394199498 10:1 26:1 63:1 198:1 485:1 553:1 1249:1 
0.3087538159340507 10:1 121:1 122:1 135:1 236:1 248:1 256:1 375:1 614:1 1262:1 1389:1 1489:1 
0.03461089740789516 2:3 10:1 244:1 552:1 593:1 637:1 979:1 1090:1 1499:1 1500:1 
0.03048533404406502 10:1 63:1 467:1 651:1 1502:1 1503:2 1504:1 
0.248651952266384 4:1 10:1 26:1 69:1 84:1 100:1 121:1 122:1 232:1 251:1 262:1 322:1 1239:1 1242:1 1375:1 
0.08190141175029864 10:1 26:1 61:1 74:1 110:1 135:1 177:1 201:1 262:1 1288:1 1456:1 1511:1 
0.5927260500245377 10:1 87:1 92:1 197:1 710:1 890:1 900:1 1102:1 
0.3604154693521271 10:1 121:1 248:1 258:1 267:1 552:1 603:1 688:1 
1 10:1 69:1 87:1 248:1 262:1 603:1 
0.1406318567793123 10:1 97:1 135:1 289:1 628:1 809:1 1484:1 1527:1 
0.7812326859366775 10:1 21:2 236:1 612:1 651:1 1530:1 
0.1415100199650101 10:1 21:2 236:1 612:1 651:1 1530:1 
0.2115246570920117 2:2 10:1 61:1 94:1 201:1 262:1 435:1 593:2 633:1 1288:1 1501:1 1511:1 1531:1 1532:1 1533:1 
0.128384394707102 2:2 10:1 74:1 135:1 201:1 262:1 593:2 633:1 1288:1 1501:1 1511:1 1533:1 
0.2100148032393379 10:1 107:2 127:2 206:1 232:1 262:1 295:1 316:1 398:1 1325:1 1348:1 1491:1 1495:1 
1 10:1 92:1 377:1 990:1 1371:1 
0.01276789767861492 10:1 71:1 256:1 591:1 886:1 890:1 900:1 1051:1 1313:1 
0.1824084697186641 10:1 13:1 87:1 152:1 300:1 410:1 670:1 1414:1 1508:1 
0.08433002283641605 10:1 15:1 28:2 495:1 497:1 1309:2 1555:2 
0.2634555574945721 10:1 15:1 28:2 495:1 497:1 1556:2 
0.3655658613524295 6:1 10:1 16:1 17:1 22:1 26:1 38:1 53:1 148:1 1558:1 
0.2547231033889672 10:1 17:1 22:1 26:1 53:1 692:2 
0.2511284758006012 4:1 5:1 6:1 10:1 17:1 22:1 26:1 38:1 40:1 45:2 48:1 94:1 421:1 422:1 
0.5679648259423993 6:1 10:1 17:1 26:1 38:1 214:1 215:1 498:1 1559:2 
0.4376639462731475 10:1 17:1 58:1 102:1 224:1 455:1 498:1 886:1 1559:2 
0.7064650227560828 10:1 80:1 136:1 141:1 1559:2 
0.09677915351555588 10:1 17:1 59:1 136:1 141:2 1559:2 
1 7:1 10:1 40:1 141:1 1559:2 
0.07342268954281123 10:1 180:1 476:2 625:2 1292:2 1561:1 1562:1 
1 10:1 17:1 28:1 38:1 59:1 63:1 80:1 120:1 121:1 178:1 247:1 258:1 
0.6519254304846527 7:1 10:1 17:1 26:1 60:1 80:1 120:1 121:1 150:1 178:1 237:1 258:1 
1 10:1 17:1 26:1 67:1 68:1 69:1 80:1 178:1 320:1 1565:1 
1 6:1 10:1 30:1 68:1 72:1 88:1 144:1 179:1 230:1 236:1 353:1 357:1 1174:1 
1 10:1 17:1 40:1 62:1 78:1 113:1 141:1 237:1 
0.7588034827478654 10:1 17:1 62:1 113:1 136:1 141:2 236:1 237:1 1175:1 
1 6:1 10:1 17:1 26:1 180:1 233:1 236:1 278:1 345:1 451:1 1341:1 1357:1 1461:1 
0.4647617803690064 10:1 15:1 17:1 61:2 65:1 66:1 664:1 1043:1 1044:1 
1 6:1 10:1 38:1 78:1 100:1 458:1 923:1 1043:1 
0.1911719282376925 10:1 15:1 17:1 23:1 40:1 61:2 458:1 530:1 828:1 1043:1 
0.1871479944187112 10:1 38:1 62:1 84:1 412:1 515:1 522:1 555:1 1508:1 1514:1 1538:1 
1 7:1 10:1 63:1 67:2 95:1 112:1 150:1 227:1 245:1 420:1 1466:1 1468:1 
0.7972349593370254 1:1 2:1 5:1 10:1 59:1 69:2 80:2 151:2 178:1 186:2 204:2 245:1 256:2 593:2 960:1 1578:1 1579:1 1580:1 
0.01710638174558131 10:1 296:1 483:1 1221:1 1581:1 1582:1 1583:1 
1 5:1 7:2 10:1 80:1 105:2 178:1 206:1 224:2 245:1 347:1 444:1 1544:1 
0.0775609889003953 4:1 5:1 7:1 10:1 15:1 26:1 61:1 79:1 80:1 95:1 110:1 150:1 233:1 238:1 245:1 271:1 272:1 497:1 522:2 539:2 582:1 1590:1 
0.5217020783879066 5:1 10:1 44:1 63:1 80:1 82:1 93:1 170:1 178:1 236:1 245:1 328:1 429:1 459:1 553:1 595:1 675:1 1276:1 1443:1 1591:1 1592:1 1593:1 
0.4202052130294255 5:2 10:1 26:2 63:1 69:1 80:1 110:1 120:2 178:1 204:2 245:1 460:1 468:1 544:1 612:1 619:1 737:1 1011:2 1107:1 
0.3517824823849376 3:1 5:2 10:1 71:1 80:1 99:1 150:1 170:1 178:1 223:1 245:1 309:1 582:2 613:1 686:1 1093:1 1465:1 1507:1 1595:2 1596:2 1597:1 
0.2077067862736326 4:1 5:2 10:1 15:2 61:1 71:1 80:1 81:1 131:1 178:1 236:1 239:1 245:1 268:1 444:3 459:1 525:1 534:1 663:1 714:1 982:1 1052:1 1110:1 1164:1 1598:1 1599:1 
0.9895379244465194 10:1 15:1 26:1 69:1 206:1 245:1 251:1 378:1 445:1 446:1 455:1 460:1 1197:1 
0.4195400350234038 4:2 10:1 17:1 26:1 65:1 66:1 105:1 236:1 245:1 262:1 468:1 619:1 691:1 1060:1 1070:1 1208:1 1597:1 
0.02016293861079551 5:2 10:1 15:1 26:2 99:1 127:2 141:1 150:1 223:1 262:1 939:1 1208:1 1441:2 1496:1 1507:1 1597:1 
0.5416578616138493 1:2 5:3 10:1 49:1 71:1 80:1 94:1 95:1 110:2 141:1 148:1 150:1 152:2 176:1 178:1 206:1 395:1 396:1 418:1 429:1 459:3 713:1 810:1 1287:1 1601:2 1602:1 
1 5:1 10:1 22:1 62:2 65:1 69:1 71:1 80:1 86:1 87:2 141:1 177:1 178:1 186:1 206:1 225:1 226:1 245:1 363:1 377:1 1142:1 1397:1 
0.1045375624667955 10:1 26:1 32:1 69:1 80:1 87:1 141:1 171:2 178:1 186:1 236:1 336:1 573:1 574:1 858:1 1376:1 1608:1 
0.132527720275151 10:1 15:1 17:1 69:1 78:1 80:1 117:3 141:2 163:1 178:1 206:1 220:1 306:1 399:1 476:1 573:1 574:1 619:1 620:1 690:1 802:1 1597:1 1610:1 
0.3604190504273485 10:1 63:1 64:1 71:1 80:1 178:1 224:1 232:1 295:1 429:1 445:1 446:1 1167:1 1325:1 
0.3169834148550165 10:1 71:1 80:1 81:1 95:1 157:1 178:1 422:1 495:1 707:1 1436:1 1616:1 1617:1 
0.9392209617145713 10:1 47:1 50:1 71:1 80:1 86:1 95:1 102:1 178:1 180:1 204:1 220:1 236:1 245:1 459:1 882:1 1114:1 
1 10:1 15:1 64:1 71:1 80:1 141:1 178:1 206:1 224:1 278:1 629:1 982:1 1618:1 1619:1 
0.3785805484224327 5:2 10:1 30:1 49:1 71:1 80:1 86:1 87:2 95:1 163:1 178:1 206:1 230:1 245:1 345:1 495:1 795:2 917:1 1002:1 1620:1 
0.2678654456956518 5:3 10:1 52:1 58:1 69:1 71:1 74:1 80:1 86:2 87:1 95:1 102:1 121:1 141:1 150:1 178:1 206:1 224:1 236:4 245:1 332:1 335:1 345:3 459:2 489:2 634:1 748:1 766:1 839:1 899:1 1291:1 1351:1 1465:1 1597:1 1623:1 1624:1 1625:2 1626:1 1627:1 
0.1082275417742944 5:2 10:1 26:2 69:1 79:1 80:1 93:1 95:1 150:1 236:2 245:1 345:1 423:2 429:1 634:1 795:1 1008:1 1113:1 1124:1 1125:1 1154:1 1628:1 
0.1802144624161114 5:1 10:1 61:1 71:1 78:1 80:1 94:1 95:1 100:1 121:1 136:1 150:1 178:1 206:1 224:1 245:1 258:1 408:1 552:1 634:1 710:1 818:1 1325:1 
0.9544492011415144 5:2 10:1 15:1 26:2 45:1 69:2 71:1 74:1 78:1 80:1 82:1 84:1 95:1 110:1 122:1 136:1 141:1 178:1 184:1 220:1 230:1 236:1 238:1 245:1 345:1 380:1 495:1 498:1 552:1 626:1 640:1 746:1 893:1 935:1 1090:1 1267:1 1629:1 
0.0240320454726412 5:1 10:1 71:1 80:1 168:1 178:1 180:1 204:1 245:1 525:1 593:1 594:1 982:1 1057:1 1630:1 1631:1 
0.02117998680801973 5:1 10:1 46:1 48:1 71:1 80:1 81:1 82:1 94:1 102:1 136:1 178:1 180:1 206:1 236:1 344:1 437:1 810:1 982:1 1632:1 
0.1796387991934497 4:2 5:2 10:1 26:1 71:1 80:1 86:1 95:1 136:1 141:1 168:2 178:1 206:1 232:1 236:1 239:1 245:1 455:1 558:1 596:1 660:1 665:1 1114:1 1390:1 1597:1 1634:1 
0.3776639242460508 4:1 5:4 10:1 15:2 58:1 61:1 63:1 71:1 80:1 100:1 141:1 178:1 206:1 236:1 245:1 268:1 342:1 345:2 399:1 418:1 487:1 497:1 626:1 921:1 926:1 986:1 1104:1 1544:1 1635:1 1636:1 1637:1 
0.4011061539868217 4:1 5:1 10:1 26:1 71:1 80:1 147:1 148:1 165:1 170:1 178:1 224:1 236:2 245:1 268:1 459:2 868:1 953:1 1048:1 1105:1 1399:1 1403:1 1596:1 
1 5:2 10:1 15:2 17:1 30:1 36:1 55:1 58:2 69:1 71:1 80:1 82:2 85:2 92:2 100:1 112:1 141:1 178:1 198:1 206:1 232:1 236:2 245:1 378:1 418:1 497:1 666:2 888:2 1098:1 1399:1 1466:1 1468:1 1470:2 1638:1 1639:1 
0.1747414768540144 10:1 15:1 71:1 80:1 178:1 370:1 539:1 582:1 667:1 810:1 1270:1 1640:3 
1 5:1 10:1 135:2 339:2 518:1 1413:2 
0.4530900342962074 10:1 53:1 186:1 423:1 1033:1 1143:1 1645:1 1646:1 
0.291458661760585 10:1 637:1 899:1 911:1 1656:1 1657:1 1658:1 1659:1 
0.1328400404266757 10:1 1247:1 1401:1 1503:1 1584:1 1637:1 1660:1 1661:1 
0.2262860665222963 10:1 433:1 1080:1 1548:1 1663:1 1664:1 1665:1 1666:1 
0.2220569229247477 10:1 162:1 236:1 828:1 1043:1 1412:1 1668:2 
0.08774853134289384 10:1 25:1 176:1 542:1 1188:1 1242:1 1375:1 1679:1 
0.2755623075698028 10:1 25:1 176:1 542:1 1188:1 1242:1 1375:1 
0.1714397339707195 10:1 25:1 26:1 176:1 180:1 236:1 542:1 573:1 1188:1 1375:1 1680:1 1681:1 1682:1 
0.3830379787488798 10:1 120:1 121:1 163:1 168:1 212:1 332:1 1691:1 
0.1269250512237966 10:1 141:1 256:1 1366:1 1430:1 1691:1 1697:1 
0.464795813495983 10:1 157:1 164:1 1073:1 1107:1 1710:1 
0.07375109228894451 5:1 10:1 69:1 78:1 157:1 489:1 1713:1 
0.3492443933776204 5:1 10:1 92:1 147:1 637:2 910:1 1313:1 1714:1 1715:1 1716:1 
1 5:1 10:1 69:1 78:1 92:1 263:1 489:1 
0.6649434530665164 5:1 10:1 45:1 92:1 122:1 168:1 1719:1 1720:1 1721:1 
0.1196423894555848 10:1 25:1 102:1 1349:1 1370:1 1671:1 1722:1 1723:1 
0.002871706146286116 10:1 142:1 186:1 490:1 1423:1 1725:1 1726:1 
0.1835171920673253 10:1 63:1 322:1 573:1 771:1 1655:1 1733:1 
0.1319211343863607 10:1 322:1 408:1 440:1 582:1 1550:1 1739:1 
0.01926918550016823 10:1 28:1 110:1 243:1 407:1 1155:1 1740:1 1741:1 
1 10:1 224:1 256:1 264:1 1166:1 1701:1 1723:1 
0.1349908376807265 10:1 351:1 886:1 1412:1 1481:1 1755:1 
0.46314221682412 10:1 74:1 145:1 650:1 1309:1 1762:1 
0.04920143409383996 10:1 110:1 577:1 582:1 1150:1 1764:1 
0.0001546290251889314 10:1 506:1 545:1 1623:1 1770:1 1771:1 
0.08499961010370108 10:1 65:1 248:1 1131:1 1155:1 1280:1 1375:1 1660:1 
0.3494171706041345 10:1 157:1 533:1 582:1 1485:1 1649:1 1773:1 1774:1 
0.04760302495383096 10:1 61:1 269:1 522:1 812:1 1187:1 1404:1 1777:1 
0.2577800962762383 10:1 88:1 186:1 490:1 979:1 1693:1 1767:1 1780:1 
0.04809412940226831 6:1 10:1 69:1 206:1 647:1 1738:1 1781:1 1782:1 
0.5295088879752923 10:1 53:1 99:1 785:1 1391:1 1423:1 1799:1 1800:1 
0.07384885741989074 10:1 65:1 143:1 1139:1 1156:1 1807:1 1808:1 1809:1 
0.9671000942930867 10:1 100:1 121:1 161:1 236:1 788:1 
0.05855025531071972 10:1 221:1 467:1 1141:1 1212:1 1711:1 
0.1674792210987866 10:1 186:1 1156:1 1525:1 1647:1 1747:1 
0.1706739453121701 10:1 74:1 490:1 672:1 1825:1 1826:1 
0.3456965244770203 10:1 241:1 986:1 1827:1 1828:1 1829:1 
0.4871673156436769 10:1 120:1 332:1 439:1 691:1 1412:1 
0.2892389531076219 10:1 157:1 948:1 1242:1 1663:1 1707:1 
0.1658764251029087 10:1 256:1 408:1 1155:1 1577:1 1622:1 
0.1084261653809116 10:1 99:1 236:1 553:1 1036:1 1654:1 1873:1 1874:1 
0.06050140193028885 10:1 264:1 632:1 672:1 1531:1 1724:1 
0.01353677918407437 10:1 180:1 669:1 1267:1 1368:1 1886:2 1887:1 
0.04945488062384487 10:1 102:1 236:1 264:1 363:1 419:1 1143:1 1166:1 
0.6555620237185389 10:1 100:1 573:1 674:1 959:1 1267:1 1604:1 1857:1 
0.08438151889822625 10:1 552:1 637:1 966:1 1150:1 1607:2 1902:1 
1 10:1 87:1 100:1 121:1 669:1 783:1 1413:1 1647:1 
0.6617690884952081 10:1 408:1 1156:1 1178:1 1390:1 1464:1 1649:1 1905:1 
0.4298259263922954 10:1 206:1 975:1 1650:1 1660:1 1914:1 
0.05249408879975267 10:1 180:1 423:1 490:1 577:1 672:1 1868:2 
1 5:1 10:1 86:1 92:1 102:1 114:1 177:1 186:1 264:1 966:1 1367:1 
0.07358335400595571 10:1 161:1 168:1 174:1 957:1 1242:1 1850:1 1935:1 
0.4445849524117447 10:1 15:1 65:1 74:1 122:1 1937:1 1938:1 1939:1 
0.1830775124911704 10:1 248:1 966:1 1020:1 1180:1 1607:1 1647:1 1941:1 
0.1210997821756404 10:1 29:1 437:1 468:1 614:1 917:1 1663:1 1864:1 
1 10:1 92:1 99:1 116:1 236:1 243:2 367:1 376:1 424:1 1000:1 1108:1 
0.4774601142319629 10:1 92:1 206:1 236:1 256:1 329:1 376:1 1212:1 1583:1 1950:1 1951:1 1952:1 
0.002000688645609099 10:1 53:1 642:1 818:1 1346:1 1643:1 1953:1 
1 5:1 10:1 15:2 79:1 92:1 116:2 903:2 985:1 
0.05953534571043882 10:1 230:1 256:1 419:1 543:1 591:1 853:1 1313:1 
0.04691080680537368 10:1 82:1 115:1 674:1 1214:1 1247:1 1348:1 1857:1 
0.3098708884293467 10:1 186:1 332:1 552:1 979:1 1348:1 1758:1 1966:1 
0.05088765685909211 10:1 82:1 419:1 1401:1 1884:1 1941:1 1967:1 1968:1 
0.1607577254766204 10:1 71:1 344:1 701:1 1615:1 1656:1 1857:1 1969:1 
0.1040576500579817 10:1 87:1 979:1 1264:1 1325:1 1663:1 1972:1 1973:1 
0.7599251456835928 10:1 71:1 102:1 141:1 176:1 253:1 542:1 1471:1 
0.2432418952350299 10:1 59:1 99:1 137:1 213:1 363:1 570:1 1974:1 
0.0237941495072069 10:1 110:1 487:1 542:1 669:1 1647:1 1975:1 
0.04130979983967108 10:1 186:2 703:1 818:2 1033:1 1155:1 
0.6638349802988385 10:1 216:1 223:1 929:1 940:1 1361:1 1985:1 1987:1 
0.09703978963682891 10:1 223:1 580:1 940:1 966:1 1114:1 1649:1 1987:1 
0.0448264014521229 10:1 206:1 916:2 966:1 1208:1 1607:1 1991:1 
0.6471837432005187 10:1 74:2 87:1 236:2 467:1 832:1 
0.03965769949213572 10:1 26:1 82:1 112:1 170:1 183:1 208:1 593:1 713:1 886:1 911:1 960:1 1188:1 1603:1 1996:1 
0.3417818094753147 10:1 204:1 235:1 238:1 923:1 1267:1 
1 10:1 88:1 95:1 235:1 236:1 238:1 923:1 1267:1 
0.7168998244643358 10:1 15:1 26:1 69:2 157:1 297:1 1649:1 2003:1 
0.4986632829385094 10:1 26:2 49:1 69:2 157:1 297:2 1649:1 2002:1 2003:1 
0.5168474426093057 4:2 6:1 10:1 28:1 93:1 136:1 141:1 204:1 230:1 658:1 868:1 869:1 
0.8947931771211128 4:1 6:1 10:1 15:1 17:2 38:1 59:1 93:1 100:1 105:1 106:1 221:1 658:1 
0.6695533539328237 10:1 26:1 160:1 621:1 901:1 996:1 1611:1 1711:1 
0.212435366488687 10:1 80:1 141:1 178:1 621:1 901:1 1438:1 1611:1 1711:1 2008:1 
0.4464967025666218 10:1 26:1 160:1 621:1 901:1 996:1 1666:1 2010:1 
0.08528484065048991 10:1 26:1 160:1 621:1 771:1 901:1 996:1 1727:1 
0.07168365822023343 10:1 26:1 160:1 621:1 771:1 901:1 996:1 1402:1 
0.3543443704492347 10:1 102:1 160:1 179:1 230:1 352:1 370:1 463:1 1535:1 2014:1 
0.098133515916518 10:1 59:1 141:1 160:1 230:1 297:1 370:1 398:1 1535:1 2014:1 
1 10:1 18:1 31:1 40:1 80:1 92:1 138:1 178:1 620:1 
1 10:1 17:1 18:1 30:1 31:1 40:1 59:1 80:1 92:1 138:1 178:1 
1 6:1 10:1 18:2 80:1 87:1 92:1 144:1 178:1 474:1 
1 5:1 10:1 49:1 58:1 73:1 74:1 92:1 112:1 141:1 201:1 227:1 987:1 
0.308043217880145 1:1 2:1 10:1 69:1 113:1 127:1 201:1 206:2 232:1 262:1 398:1 408:1 424:1 468:1 527:1 593:2 619:1 1495:1 
0.34697091973699 1:1 2:1 10:1 113:1 127:1 141:1 201:1 206:1 232:1 251:1 408:1 424:1 468:1 527:1 593:2 619:1 1495:1 
0.203441766279022 10:1 74:1 110:1 262:1 425:1 435:1 943:1 1506:1 1511:1 
0.1003153086439326 2:1 10:1 21:1 39:1 63:1 102:1 151:1 170:1 236:1 621:1 806:1 911:1 981:1 996:1 1412:1 1510:1 1535:1 2026:1 
0.01425814619553739 2:1 10:1 39:1 86:1 149:1 151:1 170:1 236:1 393:1 607:1 806:1 981:1 1412:1 1510:1 2027:1 
0.0280858327328466 10:1 86:1 87:1 135:1 144:1 171:1 179:1 230:1 245:1 248:1 375:1 570:1 900:1 1262:1 1389:1 1413:1 1455:1 1489:1 
0.1537340617518765 2:2 10:1 15:1 49:1 69:2 86:1 121:2 149:1 248:1 570:1 594:1 886:2 1320:1 1389:1 1488:1 1489:1 
0.1073770255386532 10:1 26:1 89:1 300:1 620:1 689:1 907:1 2033:1 
1 1:2 10:1 28:1 60:1 92:1 197:1 245:1 648:1 687:1 
1 1:2 10:1 40:1 54:2 60:1 197:1 518:1 648:1 687:1 
0.02480203128457704 1:2 4:1 6:1 10:1 17:2 60:2 91:1 92:1 163:1 197:1 214:1 215:1 247:1 648:1 687:2 822:1 
0.709429337479615 10:1 112:1 184:1 208:1 236:1 243:1 595:1 687:1 2034:2 
0.4115024746868142 1:1 2:1 10:1 26:1 63:1 201:1 436:1 437:1 593:2 741:1 1305:1 1415:1 2035:1 
0.01870087086974253 1:1 2:1 10:1 26:1 63:1 149:1 201:1 436:1 437:1 593:2 1305:1 1415:1 1779:1 
0.1236285087339203 1:1 2:1 10:1 26:1 63:1 69:1 112:1 149:1 201:1 208:1 436:1 437:1 593:2 1305:1 1415:1 2036:1 
0.002039308057106812 1:1 2:1 10:1 26:1 69:1 112:1 149:1 201:1 208:1 375:1 408:1 527:1 593:2 1305:1 1457:1 2036:1 
0.2699718872441376 6:1 10:1 256:1 445:1 446:1 495:1 614:1 1526:1 1556:1 
0.07185789987941797 10:1 26:1 256:2 408:1 614:1 854:1 1526:1 1556:2 2039:1 
0.4530866532211962 10:1 26:1 102:1 201:1 263:1 594:1 1094:1 1237:1 1320:1 1488:1 
1 10:1 26:1 102:1 201:1 263:1 594:1 1094:1 1320:1 1471:1 1488:1 
0.3336237369983585 10:1 26:1 102:1 201:1 263:1 594:1 643:1 1094:1 1320:1 1488:1 
0.520905609139191 2:2 10:1 60:1 112:1 208:1 594:1 687:1 907:1 2034:1 
0.6480472607020675 10:1 26:1 89:1 620:1 689:1 907:1 2034:1 
0.1338643777071937 10:1 60:1 112:1 208:1 613:1 614:1 687:1 907:1 2034:1 
0.3968852839602773 10:1 26:1 186:1 256:1 1292:1 1320:1 1455:1 
0.03212823207480312 10:1 1488:1 2030:1 
0.2209324053501243 10:1 26:1 113:1 191:1 355:1 691:1 815:1 960:1 1215:1 1455:1 1998:1 
0.3376718070758147 6:1 10:1 183:1 522:1 1082:1 2053:1 2054:1 
0.3270320237304541 10:1 36:1 192:2 516:2 
0.1833087097942185 10:1 62:1 81:1 141:1 168:1 381:1 576:1 879:1 
0.1314445578791601 10:1 17:1 40:1 54:2 62:1 76:1 141:1 168:1 247:1 251:2 381:1 576:1 879:1 896:1 
0.3674043383107483 10:1 26:1 332:1 422:1 454:1 536:1 621:1 901:1 970:1 982:1 2061:1 
0.8044317486993406 10:1 70:1 220:1 422:1 577:1 629:1 
1 10:1 40:1 97:1 204:1 313:1 518:1 
1 5:1 10:1 17:1 41:1 59:1 69:1 92:1 97:1 204:1 313:1 
1 4:1 5:2 6:1 10:1 17:1 41:1 92:1 97:1 139:1 140:1 204:1 313:1 379:1 455:1 
0.008472502313803859 10:1 26:1 160:1 353:1 468:1 619:1 1249:1 1885:1 
0.1869251217676402 10:1 12:1 73:1 74:1 79:1 80:1 93:1 103:2 110:1 238:1 295:2 399:1 497:1 595:1 626:2 882:1 1104:1 2065:1 
0.1564460763269282 10:1 26:1 272:1 1054:1 1248:1 1317:1 1375:1 2024:1 
0.2517324532293309 10:1 26:1 58:1 621:1 901:1 1109:1 1224:1 1262:1 1435:1 
0.2051577345617738 10:1 58:1 621:1 901:1 1109:1 1284:1 1435:1 2046:1 2047:1 2075:1 
0.8368610563925911 10:1 26:1 237:1 338:1 1111:1 1249:1 
0.2914488043880036 10:1 26:2 206:1 237:1 383:1 933:1 1111:1 1816:1 2076:1 
0.04024085151544783 10:1 27:1 32:1 900:1 1128:2 1717:2 
0.1076217580559402 4:1 10:1 15:1 213:1 642:1 1124:1 1354:1 
0.2759431231452522 3:1 4:1 10:1 15:1 170:1 213:1 495:1 658:1 1342:1 
0.1973397775638116 4:1 6:1 10:1 47:1 48:1 82:1 163:1 169:1 170:1 175:1 179:1 434:1 1411:1 1475:1 
0.1406273344487205 10:1 26:1 74:1 84:1 135:1 181:1 262:1 1261:1 1354:1 1511:1 2079:1 2080:1 
1 10:1 26:1 28:1 55:1 71:1 80:1 136:1 141:1 178:1 206:1 445:1 446:1 495:2 917:1 1027:1 
0.01731291786534617 10:1 15:1 28:1 49:1 71:1 80:2 84:1 141:1 178:1 206:1 495:2 917:1 1027:1 
1 10:1 15:1 17:1 92:1 
1 10:1 15:1 17:1 62:1 92:1 
1 10:1 15:1 22:1 120:1 540:1 
0.04961812213002652 10:1 26:1 28:1 136:1 141:2 478:1 479:1 
0.2668669849118571 10:1 26:1 63:1 70:1 80:1 84:1 354:1 822:1 2085:1 
0.3638524390028799 10:1 26:1 70:1 239:1 354:1 822:1 1472:1 2085:1 
0.08302204821360469 10:1 26:1 70:1 239:1 1472:1 1816:1 1997:1 2087:1 2088:1 
1 1:1 10:1 92:1 107:1 593:1 594:1 1488:1 
0.3777932058399928 10:1 26:1 69:1 352:1 463:1 464:1 465:1 516:1 
1 6:1 10:1 26:1 28:1 47:2 48:2 69:1 80:1 82:1 178:1 214:1 215:1 225:1 226:1 460:1 
0.7795656511680823 10:1 26:1 28:1 47:1 48:1 69:1 82:1 225:1 226:1 460:1 
0.01387112854778863 6:1 7:1 10:1 28:1 47:1 48:1 80:1 81:1 178:1 522:1 
0.8161680254511013 10:1 26:1 28:1 47:1 48:1 69:1 460:1 
0.3057812173701703 10:1 26:1 28:1 47:1 48:1 69:1 81:1 236:1 262:1 460:1 1538:1 
1 10:1 26:1 28:1 47:1 48:1 69:1 236:1 262:1 370:1 459:1 460:1 
1 10:1 61:1 92:1 224:1 502:1 
1 4:2 5:1 6:1 10:1 89:1 92:1 224:1 502:1 
0.003237312890921822 10:1 15:1 40:1 65:1 69:2 163:1 445:1 446:1 457:1 803:1 
1 6:1 10:1 26:1 55:1 314:1 445:1 446:1 451:1 1356:1 2025:1 
1 6:1 10:1 26:2 49:1 69:1 179:1 230:1 542:1 832:1 1356:1 2025:1 
0.6373844225326525 6:1 10:1 26:1 49:1 55:1 69:1 445:1 446:1 1356:1 2025:1 
0.9527132382496089 10:1 19:1 69:1 95:1 105:1 739:1 1821:1 
0.8036949638118398 6:1 10:1 26:1 69:1 316:1 457:1 633:1 2058:1 2098:1 
0.1867245029634967 4:1 10:1 123:1 206:1 445:1 446:1 457:1 512:1 633:1 2058:1 
0.22158711508451 6:1 10:1 26:1 55:1 445:1 446:1 457:1 633:1 762:1 2058:1 2099:1 
0.1082937602005864 4:1 6:1 10:1 26:1 62:1 69:1 445:1 446:1 457:1 460:1 633:1 2058:1 
0.2023075162613057 6:1 10:1 15:1 28:2 47:1 48:1 94:1 278:1 522:1 
0.5244660803402423 10:1 26:1 28:1 136:1 141:2 204:1 224:1 295:1 502:1 
0.6378079616068016 5:1 6:1 10:1 26:1 28:1 30:1 95:1 136:1 141:2 180:1 224:1 278:1 930:1 931:1 
0.5373831084310332 10:1 26:1 69:1 126:1 127:1 170:1 248:1 460:1 545:1 626:1 
0.3726286488315719 6:2 10:1 62:1 90:1 126:1 206:1 445:1 446:1 
1 6:1 10:1 126:1 127:1 268:1 445:1 446:1 626:1 1197:1 
0.07858859456622926 6:1 10:1 62:1 69:1 81:1 184:1 576:1 976:1 
0.008847575466185772 10:1 17:1 26:1 576:1 977:1 
0.5449021265853132 10:1 17:1 80:1 141:1 178:1 220:1 576:1 1424:1 1479:1 
1 3:1 10:1 26:1 49:1 69:1 206:1 417:1 445:1 446:1 512:1 
1 10:1 26:1 27:1 28:1 41:1 224:1 2103:1 2104:1 2105:1 
0.8707030046427657 10:1 26:1 27:1 28:1 55:1 224:1 2103:1 2104:1 2105:1 
1 10:1 19:1 23:1 62:1 94:1 552:1 719:1 
0.01721206738549304 6:1 10:1 26:1 55:1 224:1 295:1 506:1 507:1 1325:1 1614:1 2106:1 
0.4251197570704887 10:1 100:1 158:1 1084:1 1276:1 
1 6:1 10:1 67:1 68:1 74:1 81:1 
1 6:1 10:1 67:1 68:1 74:1 440:1 
1 10:1 67:1 68:1 74:1 81:1 440:1 
1 5:1 6:1 10:1 15:1 30:2 62:1 69:1 139:1 140:1 196:1 271:1 368:1 369:1 
0.7947849704848079 6:1 10:1 30:2 69:1 368:1 369:1 459:1 
0.9584905846252478 6:1 10:1 62:1 69:1 81:1 206:1 609:1 
1 6:1 10:1 26:1 30:1 62:1 63:1 64:1 69:1 206:1 609:1 
1 6:1 10:1 26:1 30:1 62:1 63:1 64:1 69:1 206:1 609:1 
0.9333437126215238 6:1 10:1 38:1 93:1 397:1 1027:1 
0.1359293503421823 3:1 4:1 6:1 10:1 38:1 49:1 57:1 62:1 69:1 86:1 87:1 141:1 208:1 278:1 498:1 756:2 989:1 1302:2 2109:1 2110:1 
1 5:1 10:1 17:1 92:1 100:1 536:1 923:1 1120:1 1121:1 
0.05132178264285176 5:1 6:1 7:1 10:1 12:1 61:1 77:1 80:1 86:1 87:1 178:1 664:1 924:1 1043:1 1044:1 
0.163663323447731 10:1 12:1 28:1 77:1 80:1 81:1 86:1 87:1 178:1 664:1 1043:1 1044:1 
1 6:1 10:1 30:1 62:1 69:1 314:1 451:1 894:1 
1 6:1 7:1 10:1 105:1 1463:1 
0.1175071934186105 6:1 7:1 10:1 105:1 1463:1 2112:1 
0.02199548031831397 6:1 10:1 69:1 71:1 80:1 81:1 105:1 178:1 268:1 567:1 939:1 940:1 
0.03462705221672045 6:1 10:1 61:1 71:1 80:1 81:1 105:1 178:1 567:1 939:1 940:1 
0.2155361126383376 10:1 22:1 28:1 41:1 224:1 500:1 531:1 691:1 
0.01740366979855365 10:1 28:1 63:1 230:1 776:1 896:1 1428:1 
0.5512396696334416 10:1 100:1 135:1 158:1 198:1 238:1 455:1 920:1 933:1 
0.2123995708321012 6:1 10:1 63:1 170:1 179:1 379:1 936:1 
0.9223280251851697 7:1 10:1 71:1 80:1 81:1 178:1 1263:1 2114:1 2115:1 
0.001917550256161917 10:1 15:1 17:1 40:1 61:2 622:1 623:1 2116:1 
0.2318460460665825 10:1 28:1 32:1 40:1 112:1 595:1 2072:1 
1 4:1 6:1 10:1 32:1 38:1 49:1 69:1 84:1 85:1 100:1 232:1 595:1 2072:1 
1 6:1 10:1 38:1 95:1 235:1 595:1 
0.01796133362189972 6:1 10:1 38:1 93:1 95:1 235:1 
1 6:1 10:1 26:1 62:1 69:1 170:1 467:1 605:1 2022:1 
1 6:1 10:1 26:1 62:1 69:1 170:1 467:1 605:1 2022:1 
0.9299032828474951 6:1 10:1 26:1 62:1 69:1 80:1 139:1 140:1 170:1 467:1 605:1 2022:1 
0.01354397172286433 10:1 32:1 112:1 141:1 256:1 467:1 605:1 744:1 779:1 
0.7664352694447212 10:1 47:1 49:1 69:1 81:1 377:1 399:1 553:1 
1 6:1 10:1 17:1 38:1 39:1 59:1 182:1 912:1 
0.2733518979629069 10:1 53:1 174:1 264:1 967:1 968:1 1701:1 
0.2001226705730653 10:1 42:1 204:1 244:1 583:1 
0.8729187437308118 3:1 10:1 15:1 22:2 40:1 176:1 341:1 612:1 1612:1 
0.1954372919905973 10:1 94:1 102:1 206:1 317:1 612:1 1221:1 
1 7:1 10:1 17:1 40:1 93:1 216:1 352:1 372:1 463:1 476:1 1324:1 
1 10:1 40:1 79:1 80:1 93:1 216:1 232:1 372:1 445:1 446:1 476:1 1324:1 
0.1579394773757213 10:1 40:1 59:1 79:1 80:2 93:1 216:1 372:1 445:1 446:1 476:1 1324:1 
1 6:2 10:1 16:1 17:1 26:1 30:1 38:1 180:1 236:1 766:1 769:1 
0.3325405397179212 6:2 10:1 26:1 30:1 180:1 766:1 769:1 
1 6:2 10:1 30:1 80:1 92:1 178:1 180:1 379:1 
1 6:2 10:1 17:2 26:1 28:1 39:1 61:1 328:2 379:1 
0.3240952782136675 6:1 10:1 15:1 179:1 230:2 278:1 522:1 554:1 664:1 2123:1 2124:1 
0.6864728994639533 6:1 10:1 16:1 38:1 88:1 100:1 236:1 573:1 574:1 999:1 
0.8413494452216402 6:1 10:1 32:1 38:1 88:1 236:1 714:1 1052:1 
0.8736249363987977 6:1 10:1 62:1 69:1 300:1 347:1 
0.2507694773854164 6:1 10:1 26:1 62:1 69:1 96:1 300:1 347:1 834:1 
1 6:1 10:1 59:1 62:1 69:1 94:1 300:1 347:1 
0.4025120089151619 10:1 17:1 26:1 28:1 40:1 82:1 87:1 224:1 744:1 833:1 1151:1 1663:1 
0.1067816255287761 4:1 10:1 26:1 87:1 123:1 164:1 744:1 833:1 1151:1 1663:1 
0.03541936761174393 7:1 10:1 15:1 41:1 80:1 134:1 178:1 236:1 433:1 719:1 
0.5181786522387706 6:1 10:1 67:1 82:1 86:1 87:1 247:1 
1 6:2 9:1 10:1 38:1 49:1 69:1 99:1 100:1 224:1 239:1 1618:1 
0.1267247283805777 6:1 9:1 10:1 17:1 38:1 81:1 99:1 100:1 224:1 239:1 1618:1 
1 6:1 10:1 38:1 49:1 69:1 84:1 85:1 94:1 100:1 204:1 224:1 239:1 1618:1 
0.382625409125616 6:1 10:1 266:1 502:1 522:1 576:1 958:1 
0.1625169811597438 6:1 10:1 22:1 94:1 314:1 451:1 522:1 1114:1 
1 10:1 26:1 49:1 69:1 82:1 121:1 258:1 322:1 577:2 824:1 955:1 1066:1 1107:1 
0.8102543740929037 6:1 10:1 64:1 100:1 158:1 936:2 
0.1271679040560335 10:1 26:1 40:1 47:1 48:1 63:1 64:1 71:1 80:1 100:1 178:1 232:1 377:1 522:1 990:1 
0.3676781243706701 10:1 26:1 69:1 95:1 352:1 463:1 582:1 1247:1 
0.0692342408383534 4:2 7:1 10:1 40:1 236:1 438:1 540:1 907:1 1435:1 1609:1 
0.3811834257000313 10:1 69:1 80:1 92:1 178:1 614:1 633:1 1149:1 1288:1 1332:1 2129:1 
0.4103112450641442 10:1 69:1 80:1 92:1 178:1 966:1 1134:1 1149:1 1332:1 2058:1 2091:1 
0.3244559945079323 10:1 69:1 80:1 92:1 178:1 962:1 963:1 966:1 1149:1 1332:1 
0.863192100800976 10:1 69:1 80:1 92:1 178:1 204:1 1149:1 1332:1 2130:1 
1 5:1 6:1 10:1 22:1 40:1 69:1 136:1 137:1 141:1 180:1 236:1 459:1 
1 6:2 10:1 15:2 17:1 81:1 131:1 137:2 138:1 179:1 180:1 220:2 224:1 230:2 236:1 
0.6186363058597067 10:1 17:1 90:1 94:1 105:1 168:1 317:1 332:1 
0.1173597082121677 6:1 10:1 26:1 41:1 204:1 1090:1 
1 10:1 15:1 40:1 61:2 204:1 235:1 239:1 
1 10:1 17:1 26:1 59:1 81:1 204:1 322:1 
0.319194055424149 7:1 10:1 74:1 112:1 162:1 198:1 208:1 236:1 933:1 969:1 970:1 1088:1 1447:1 1510:1 2133:1 
0.09528973119947641 10:1 361:1 2134:1 2135:1 2136:1 
0.670831394258203 10:1 26:1 65:1 66:1 1103:1 1166:1 
1 10:1 373:1 2139:1 
1 10:1 28:1 38:1 105:1 196:1 271:1 567:1 940:1 
0.130625878194381 10:1 26:1 27:1 28:1 62:1 63:2 67:2 144:1 170:1 186:1 220:1 239:1 266:1 958:1 1018:1 1054:1 
0.2629357903545527 10:1 2142:1 
1 10:1 204:1 2142:1 
0.4601540349768642 6:1 10:1 60:2 
1 6:1 10:1 58:1 60:1 62:1 82:1 102:1 180:1 236:1 580:1 
0.9014324073637155 10:1 26:1 69:1 80:1 81:1 178:1 467:1 605:1 919:1 1215:1 
0.1875210900360677 10:1 40:1 121:1 258:1 267:1 467:1 605:1 1136:1 1246:1 
1 10:1 26:1 64:1 92:1 479:1 527:1 591:1 1319:1 1474:1 
1 10:1 26:1 69:1 92:1 251:1 479:1 527:1 591:1 929:1 1319:1 1474:1 
1 7:1 10:1 26:1 39:1 55:1 94:1 161:1 206:1 236:1 397:1 1229:1 
1 10:1 19:1 26:1 53:1 69:1 92:1 112:1 154:1 251:1 479:1 929:1 
0.6296791723570329 5:1 6:1 10:1 22:1 82:1 665:1 1095:1 2144:1 
0.2480190171379153 6:1 10:1 22:1 41:1 82:1 665:1 2144:1 
1 10:1 612:1 1361:1 2022:1 
0.4429283892518631 10:1 26:2 69:1 80:1 85:1 178:1 206:1 239:1 253:1 1361:1 
0.007101324884559696 6:1 10:1 15:1 17:1 149:2 150:1 240:1 911:1 
0.4347595302129257 7:1 10:1 15:1 16:1 17:1 18:1 31:1 61:2 84:1 85:1 87:1 137:1 146:1 316:1 1489:1 
0.5534396639598003 7:1 10:1 15:1 69:2 81:1 370:1 1489:1 
0.491220351776217 10:1 272:1 478:1 479:1 2154:1 
0.5399300633361938 10:1 22:1 80:1 150:1 178:1 240:1 522:1 964:1 1390:1 
1 6:1 10:1 17:1 29:1 72:1 82:1 87:1 88:1 92:1 100:1 134:1 177:1 236:1 525:1 1693:1 
0.0440313149328326 10:1 17:1 61:1 81:1 230:1 525:1 1693:1 
1 10:1 28:2 61:1 141:1 206:1 352:1 1214:1 
1 10:1 92:1 1095:1 
0.6982299438649634 4:1 6:1 10:1 40:1 78:1 536:1 628:1 
1 4:1 6:1 10:1 78:1 81:1 536:1 628:1 
0.2339153585548553 10:1 180:1 236:1 489:1 881:1 2159:1 
0.3805200355939245 6:1 10:1 38:1 78:1 104:1 131:1 236:1 478:1 479:1 1292:1 
0.3093715229577267 5:1 6:2 10:1 12:1 15:1 64:1 69:2 77:1 105:1 206:1 1214:1 1451:1 
0.4175106629304236 6:1 10:1 61:1 82:1 399:1 429:1 491:1 626:1 1198:1 1385:1 
0.5310202408641943 10:1 105:1 2161:1 2162:1 
0.5317401149448403 10:1 28:1 40:1 655:1 1132:1 
0.07270700499174072 7:1 10:1 99:1 348:1 1029:1 
1 10:1 145:1 946:1 
1 10:1 55:1 145:1 946:1 
0.7692210936604226 6:1 10:1 15:1 65:1 511:1 606:1 
1 4:1 6:1 10:1 15:2 17:1 69:1 440:1 606:3 615:1 984:1 
1 4:1 6:1 10:1 15:2 17:1 69:1 92:1 440:1 606:3 615:1 984:1 
0.9934824974967413 6:1 10:1 440:1 606:1 615:1 
0.5069451772046427 6:1 10:1 17:1 79:1 80:1 81:1 99:1 105:1 986:1 
0.1246213916575994 6:1 10:1 22:1 890:1 1853:1 
1 10:1 15:1 28:1 65:1 66:1 316:1 511:1 947:1 1195:1 
0.3302578642111307 10:1 26:1 63:1 65:1 66:1 136:1 141:1 145:1 236:1 947:1 1633:1 
1 7:1 10:1 15:1 40:1 236:1 266:1 950:1 968:1 
0.2283112346382519 10:1 26:1 55:1 87:1 232:1 713:1 1643:1 1856:1 
0.7167235087395457 10:1 26:1 74:1 206:1 239:1 795:1 950:1 1413:1 1856:1 
0.5620567593194657 10:1 63:1 137:1 251:1 347:1 467:1 1643:1 1668:1 1678:1 1864:1 
1 4:1 6:1 10:1 99:1 100:1 714:1 1276:1 
0.5869093551530751 6:1 7:1 10:1 94:1 100:1 714:1 1276:1 
0.04382455262739265 10:1 26:1 38:1 90:1 163:1 1242:1 1375:1 
0.3914805831267968 10:1 15:1 28:1 79:1 80:1 435:1 603:2 604:1 
1 10:1 15:1 22:1 41:1 100:1 1618:1 1619:1 
0.07087343218326074 6:1 10:1 15:1 22:1 38:1 71:1 664:1 735:1 
0.01090919268543419 6:1 10:1 15:1 2172:1 
0.7115606525827251 10:1 15:1 71:1 520:1 784:1 
1 10:1 26:1 39:1 55:1 92:1 272:1 339:1 399:1 687:1 721:1 785:1 998:1 1208:2 1597:1 
0.1193227887128364 10:1 26:1 55:1 58:1 69:1 168:1 339:1 482:1 721:1 860:1 957:1 
1 4:1 10:1 112:1 339:1 495:1 558:1 694:1 
0.198056705202692 4:2 10:1 15:1 61:1 62:1 204:1 495:1 704:1 868:1 869:1 
0.07122298129128145 3:1 10:1 15:1 26:1 78:1 204:1 236:1 704:2 868:1 869:1 
0.3023227150940332 3:1 4:1 6:1 10:1 15:1 28:1 73:1 74:1 78:1 112:1 236:1 495:1 868:1 
0.02014923237181025 10:1 15:1 17:1 26:1 99:1 495:1 786:1 1128:1 
0.07506523836305433 6:1 10:1 22:1 419:1 495:1 1799:1 
0.2635013335409864 6:1 10:1 22:1 419:1 495:1 1799:1 
0.7441272780178078 10:1 26:1 31:1 51:1 88:1 141:2 322:1 364:1 379:1 495:1 572:1 1038:1 
1 4:1 10:1 26:1 82:1 87:1 99:1 115:1 309:1 437:1 
0.0452542719627586 6:1 10:1 26:1 99:1 115:1 719:1 
0.6175527372701572 10:1 102:1 212:1 788:1 957:1 982:1 1123:1 1181:1 1543:1 
0.1037773828659492 10:1 26:1 58:1 112:2 123:2 653:1 
0.9480569543406762 4:1 6:1 10:1 15:1 22:1 26:1 77:1 93:1 163:1 168:1 200:1 206:1 
0.3769060595307503 10:1 63:1 127:1 236:1 610:1 901:1 1085:1 1507:1 1517:1 
0.2517841050060444 10:1 670:2 1551:1 2089:1 
0.8880399862558559 10:1 15:2 20:1 179:1 205:1 230:2 662:1 923:1 
0.9645968093534597 10:1 15:2 20:1 179:1 205:1 230:2 662:1 923:1 
0.3268927718200268 6:1 7:1 10:1 19:1 82:1 552:1 1114:1 1413:1 
0.3240016511493276 7:1 10:1 17:1 20:1 80:2 115:1 139:1 140:1 178:1 662:1 685:1 831:1 942:1 1114:1 
0.1073164126292889 10:1 12:1 20:1 77:1 80:1 115:1 178:1 662:1 831:1 942:1 1114:1 
0.1854268780086838 10:1 17:1 20:1 26:1 80:1 115:1 139:1 140:1 168:1 662:1 831:1 942:1 1114:1 1567:1 
0.2373020045541937 10:1 20:1 26:1 69:1 115:1 168:1 262:1 398:1 662:1 831:1 1114:1 1567:1 2127:1 
0.432380279727285 10:1 17:1 26:1 48:1 80:1 139:1 140:1 160:1 455:1 468:1 621:1 663:1 901:1 
0.4635639170357563 10:1 12:1 40:1 74:1 77:1 115:1 121:1 160:1 262:1 398:1 663:1 831:1 1114:1 1603:1 
0.2754167318949783 10:1 26:1 70:1 141:1 247:1 262:1 354:1 398:1 1246:1 1605:1 
0.7532739435249932 10:1 26:1 40:1 70:1 141:1 262:1 354:1 398:1 1246:1 1521:1 1605:1 1705:1 
0.08525912521483554 4:1 6:1 10:1 26:1 667:1 1114:1 1605:1 
0.2340229076300328 4:1 10:1 26:1 220:1 251:1 387:1 422:1 899:1 1498:1 
1 10:1 60:1 81:1 112:1 208:1 422:2 648:1 687:1 
0.4811280981707863 10:1 60:1 112:1 208:1 247:1 422:2 648:1 687:1 
0.7168530624975678 4:1 10:1 55:1 79:1 80:1 92:1 157:1 206:1 227:1 333:1 345:1 422:1 
1 4:1 5:1 6:1 10:1 12:1 55:1 79:1 80:1 92:1 227:1 345:1 422:1 454:1 
0.08944472585011244 4:1 5:1 6:2 10:1 12:1 55:1 79:1 80:1 92:1 157:1 227:1 332:1 333:1 345:1 422:1 454:1 952:1 
0.8333633046936869 4:1 5:1 6:2 10:1 55:1 79:1 80:1 92:1 157:1 227:1 332:1 333:1 345:1 422:1 454:1 952:1 
1 4:1 5:1 6:3 10:1 17:1 55:1 79:1 80:1 81:1 92:1 131:1 133:1 146:1 157:1 227:1 245:1 332:1 333:1 345:1 422:1 952:1 
0.2700454884141942 4:2 6:1 10:1 26:1 62:1 92:1 100:1 206:1 422:1 453:1 454:1 499:1 
1 6:1 10:1 92:1 204:1 235:1 453:1 454:1 
0.1042057597018309 4:1 6:2 10:1 15:1 17:2 26:1 28:1 30:1 74:1 102:1 131:2 224:1 227:1 238:1 317:1 453:1 454:1 518:1 997:1 1256:1 1417:1 
0.0004400484930252135 4:1 5:1 6:1 10:1 40:1 55:1 60:1 227:1 345:1 453:1 454:1 518:1 613:1 1264:1 1313:1 
0.372266429853488 4:1 6:2 10:1 31:1 39:1 40:1 55:1 157:1 223:1 227:1 345:1 453:1 454:1 518:1 860:1 
1 6:2 7:1 10:1 26:1 79:1 80:1 92:1 139:1 140:1 206:1 453:1 454:1 766:1 769:1 
1 6:1 10:1 16:1 79:1 80:1 92:1 157:1 333:1 952:1 
1 6:1 10:1 80:1 84:1 92:1 157:1 333:1 
0.7101155129217521 4:1 6:2 10:1 92:1 94:1 141:1 174:1 206:1 236:1 345:1 453:1 454:1 1181:1 
1 10:1 79:1 85:1 92:1 97:1 157:1 239:1 332:1 333:1 
1 6:1 10:1 15:1 26:1 69:1 422:1 482:1 741:1 845:1 860:1 
0.2874421280357705 10:1 38:1 94:1 180:1 266:1 278:1 422:1 482:1 1474:1 
1 10:1 26:1 65:1 69:1 422:1 482:1 2194:1 
0.5535348839899629 10:1 26:2 55:1 57:1 58:1 69:1 169:1 206:1 422:1 552:1 553:1 596:1 626:1 688:1 860:1 896:1 1413:1 1517:1 
0.2355648521817091 10:1 70:1 71:1 174:2 236:2 422:1 596:1 
0.06846846650924597 10:1 12:1 15:1 26:1 619:1 1226:1 1441:1 1652:1 1853:1 2201:1 
0.1372050245289345 10:1 15:2 26:2 141:1 239:1 262:1 336:2 398:1 495:1 621:1 966:1 
0.6826574905628421 10:1 15:1 26:1 112:1 495:1 614:1 619:1 749:1 1208:1 1652:1 
1 10:1 28:1 112:1 120:1 121:1 122:1 233:1 460:1 495:1 658:1 
0.02456607365350066 10:1 112:1 542:1 658:1 1386:1 1608:1 1611:1 2007:1 
0.4124583247816019 10:1 26:2 119:1 130:1 165:1 653:1 1195:1 1196:1 1200:1 2109:1 2110:1 
0.07346396635039804 10:1 26:1 69:1 119:1 130:1 239:1 253:1 262:1 272:1 398:1 408:1 653:1 1200:1 2109:1 2110:1 
0.3421794432731856 10:1 28:1 74:1 80:1 121:2 178:1 183:1 258:1 460:1 890:1 1027:1 1034:1 2054:1 
0.7265227669126828 4:1 10:1 33:2 34:2 35:2 36:2 59:1 72:1 404:1 
0.1980073418228838 5:1 10:1 36:1 41:1 191:1 192:2 194:1 250:1 288:2 355:1 465:1 
0.09644601358096942 10:1 34:1 35:1 36:2 154:1 155:1 191:1 192:2 193:1 195:1 
0.1181008732641968 10:1 34:1 36:3 155:1 192:4 193:1 194:2 409:1 
0.2679859333716618 10:1 36:4 153:1 154:1 191:1 192:3 193:2 250:2 288:2 355:2 465:1 
0.9220509850845785 10:1 34:1 35:2 36:2 153:1 155:1 192:4 193:1 195:2 323:1 465:1 
1 10:1 35:2 117:1 153:2 154:1 156:1 250:1 288:1 355:1 532:1 724:5 927:1 
0.01869641852221189 10:1 34:1 153:1 192:1 195:2 
0.1358685566676149 10:1 410:1 2052:1 2089:2 
0.02482201961490655 10:1 34:2 35:1 36:3 154:1 155:2 191:2 192:1 195:1 323:1 355:1 464:1 465:1 516:1 517:1 
1 5:1 10:1 34:1 36:1 41:1 154:1 155:1 191:1 192:1 355:1 465:1 516:1 
0.2690731931994333 10:1 34:1 36:5 154:2 155:1 191:1 192:3 193:1 194:1 195:1 355:1 465:1 515:1 517:1 1147:1 
0.1776737165321174 10:1 33:1 34:1 35:5 36:7 153:3 155:1 156:1 191:3 192:3 193:1 195:1 250:2 355:1 465:3 516:1 927:1 
1 10:1 15:1 17:1 357:1 361:1 371:1 518:1 
1 10:1 30:1 31:1 71:1 80:1 81:1 178:1 179:1 230:1 374:1 375:1 459:1 
0.4108293243609014 10:1 26:1 32:1 264:1 497:1 1008:1 1166:1 1195:1 1817:1 2209:1 
1 10:1 49:1 69:2 73:1 74:1 81:1 87:2 264:1 1533:1 
1 10:1 49:1 69:2 73:1 74:1 81:1 87:2 264:1 1525:1 
0.06956960243937887 10:1 49:1 69:2 73:1 74:1 81:1 87:2 1525:1 1701:1 
0.3888736858028519 10:1 49:1 69:2 73:1 74:1 81:1 87:2 1533:1 1701:1 
0.6752053360647622 10:1 26:1 32:1 79:1 85:1 115:1 204:1 684:1 815:1 831:1 879:1 977:1 1539:1 2221:1 2222:1 
0.298023238231086 10:1 15:2 26:2 80:1 85:1 141:1 178:1 245:1 289:1 335:1 336:2 470:1 476:1 579:1 618:1 1085:1 1315:1 1316:1 2216:1 
0.1397221409729316 7:1 10:1 15:1 26:2 65:1 66:1 79:1 85:1 245:1 289:1 335:1 336:1 470:1 476:1 579:1 618:1 1315:1 1316:1 1549:1 2001:1 2216:1 
0.09228210527013651 10:1 26:1 240:1 570:1 621:1 901:1 1051:1 1383:1 2224:1 2225:1 2226:1 
0.2187173905747248 10:1 26:1 69:1 80:1 96:1 178:1 495:1 621:1 901:1 1195:1 1526:1 1630:1 
0.7672398774411625 10:1 58:1 96:1 102:1 212:1 363:1 375:1 495:1 1195:1 1526:1 1630:1 
0.3510748530113492 5:1 10:1 12:1 26:1 79:1 85:1 92:1 206:1 879:1 1180:1 1885:1 2210:1 2217:1 
0.2823756031282774 5:1 10:1 12:1 26:1 39:1 77:1 79:1 85:1 92:1 206:1 378:1 687:1 879:1 1180:1 1885:1 2210:1 2217:1 2218:1 
0.02511405785683992 10:1 12:1 28:1 63:1 77:1 80:1 178:1 187:1 223:1 470:1 569:1 579:1 664:1 684:1 1043:1 1044:1 2216:1 2229:1 
0.3393876639599321 10:1 26:1 28:1 63:1 80:1 85:1 178:1 224:1 433:1 664:1 684:1 1043:1 1044:1 2216:1 2230:1 
0.01025580878328123 10:1 26:1 28:1 80:1 85:1 178:1 223:1 470:1 569:1 579:1 664:1 684:1 1043:1 1044:1 1539:1 2216:1 
0.1108145846785189 10:1 13:1 26:1 28:1 80:1 85:1 121:1 178:1 223:1 569:1 645:1 664:1 684:1 1043:1 1044:1 1113:1 1539:1 2216:1 
1 4:1 10:1 17:1 26:1 49:1 82:1 87:1 177:1 220:1 306:1 352:1 463:1 471:1 802:1 1237:1 1238:1 
1 6:1 10:1 16:1 26:1 30:2 82:1 86:1 87:1 1237:1 1238:1 
1 6:1 10:1 16:1 26:1 30:2 82:1 87:1 442:1 1237:1 1238:1 
0.1013710851751147 10:1 26:1 58:1 80:1 82:1 168:1 178:1 186:1 239:1 256:1 455:1 482:1 1237:1 1238:1 1946:2 
0.0008187216234739527 6:1 10:1 69:1 82:1 94:1 236:1 251:1 527:1 544:1 1237:1 1238:1 2156:1 2232:1 
1 6:1 10:1 26:2 61:1 65:1 66:1 104:1 150:1 1074:1 1075:1 
1 6:1 10:1 26:1 61:1 141:1 236:1 242:1 243:1 266:1 606:1 687:1 1074:1 1075:1 
1 10:1 17:1 28:1 70:1 71:2 
0.5723589781664108 6:1 10:1 22:1 28:1 120:1 236:1 1148:1 2233:1 2234:1 
0.3624397693609053 4:1 6:1 7:1 10:1 28:1 62:1 141:1 2233:1 2234:1 
0.3061425548012149 6:2 10:1 179:1 230:1 606:1 2168:1 
1 6:2 10:1 22:1 135:1 220:1 243:1 606:1 
1 6:1 10:1 26:1 61:1 65:1 66:1 139:1 140:1 237:1 1386:1 
1 10:1 65:1 66:1 243:1 606:1 
0.4493209257199983 6:1 10:1 47:2 72:1 74:1 82:1 166:1 256:1 605:1 974:1 1161:1 
0.2775097816569465 2:1 6:1 10:1 26:2 35:1 71:1 74:1 107:1 121:1 190:1 192:1 220:1 237:1 258:1 300:1 517:1 967:1 968:1 1171:1 
0.4107567387443224 6:1 10:1 26:1 141:1 967:1 968:1 1125:1 2109:1 2110:1 2235:1 2236:1 
1 6:1 10:1 22:1 236:1 419:1 1361:1 2184:1 
0.1301502619476398 10:1 80:1 141:1 178:1 179:1 230:1 236:1 419:1 435:1 621:1 1361:1 2184:1 
1 6:1 7:1 10:1 22:1 28:1 67:1 93:1 221:1 239:1 
1 6:1 7:1 10:1 67:1 68:1 746:1 1432:1 
1 6:1 7:1 10:1 28:2 67:1 68:1 78:1 
0.5112669842183641 10:1 26:1 69:1 88:1 144:1 168:1 236:1 245:1 268:1 460:1 616:2 657:1 1662:1 2042:1 
0.8633032316048725 10:1 239:1 348:1 508:1 1658:1 
0.0395600878085012 4:1 6:1 10:1 22:1 26:1 109:1 180:1 387:1 482:1 830:1 1285:1 1340:1 2238:1 2239:1 
0.01196643959217792 6:1 10:1 14:1 22:1 26:1 45:1 109:1 139:1 140:1 141:1 497:1 687:1 901:1 1132:1 2238:1 2239:1 
0.4920023734967693 4:1 6:1 10:1 22:1 87:1 180:1 387:1 1792:1 2241:1 
0.2925862909777746 10:1 20:1 26:1 40:1 59:1 212:1 363:1 423:1 724:1 797:1 1149:1 1719:1 2244:1 2245:1 
0.1199607006662263 6:1 10:1 16:1 26:1 30:2 61:1 317:1 482:1 580:1 830:1 1267:1 1285:1 1340:1 1490:1 1507:1 
0.1464767840402619 10:1 15:1 23:1 28:2 81:1 245:1 591:1 612:1 635:1 1116:1 1238:1 2247:1 
0.09833970070312695 4:1 6:1 10:1 22:1 26:1 45:1 140:1 180:1 375:1 387:1 482:1 635:1 830:1 1285:1 1340:1 1685:1 
0.2531751673356801 6:1 10:1 14:1 22:1 26:1 45:2 139:1 140:2 141:1 375:1 497:1 635:1 687:1 901:1 1132:1 1685:1 
0.07432204034390248 4:1 6:1 22:1 26:1 96:1 180:1 387:1 482:1 830:1 1285:1 1340:1 2249:1 
-0.09883700044207065 5:1 8:1 10:1 26:2 38:1 87:2 92:1 100:1 236:2 556:1 561:1 696:1 697:1 721:1 1597:1 
-1 10:1 13:1 14:1 28:2 38:1 
-1 4:1 5:1 10:1 20:1 28:1 29:1 518:1 
-1 10:1 17:1 28:1 53:1 93:1 94:1 280:1 
-0.5664726219865821 5:1 6:1 10:1 15:1 17:1 26:1 55:1 92:1 114:1 131:1 150:1 220:1 248:1 370:1 545:1 
-1 10:1 92:1 201:1 208:1 263:1 264:1 440:1 899:1 
-1 5:1 6:1 10:1 69:1 467:1 489:1 536:1 987:1 1148:1 1436:1 1856:1 2256:1 
-1 10:1 17:1 55:1 92:1 150:1 165:1 248:1 545:1 
-1 10:1 26:1 198:1 352:1 407:1 452:1 455:1 1249:1 
-0.9976535619116914 6:1 7:1 10:1 22:1 26:1 69:1 76:1 116:1 141:1 213:1 230:2 420:1 625:1 
-1 6:1 10:1 17:1 22:2 26:1 55:2 78:1 
-0.04353606538357668 4:1 5:1 6:2 10:1 17:1 22:1 26:1 69:1 73:1 86:2 123:1 406:1 455:1 518:1 624:1 1315:1 1316:1 
-0.8900754684967799 4:1 6:1 10:1 17:1 78:1 89:1 92:1 157:1 332:1 333:1 
-1 10:1 26:1 27:1 28:2 63:1 64:1 69:1 233:1 
-1 10:1 17:1 27:1 40:1 56:1 57:1 
-1 4:1 10:1 266:1 472:1 686:1 687:1 
-0.4825946792602484 5:2 10:1 15:1 17:1 28:1 84:1 85:1 92:1 96:1 239:1 253:1 363:2 556:1 559:1 788:2 1170:1 1597:1 
-1 6:2 9:1 10:1 59:1 79:1 80:2 81:1 92:1 102:1 113:1 136:1 141:1 144:1 238:1 245:1 417:1 
-1 3:1 6:1 10:1 62:1 69:1 99:1 322:1 352:1 378:1 387:1 616:1 
-1 3:1 6:2 10:1 17:1 26:1 61:1 71:1 121:1 122:1 196:1 278:1 657:1 1220:1 
-0.6265791744784187 6:1 10:1 15:1 72:1 105:1 145:1 179:1 230:1 243:1 552:1 577:1 665:1 692:1 1709:1 2272:1 
-0.8003273447717577 4:1 5:1 6:1 10:1 17:1 26:1 28:1 92:1 112:1 114:2 888:1 964:1 
-0.05004605555417879 4:1 5:1 10:1 17:1 28:1 30:1 40:1 86:1 92:1 93:1 150:1 168:1 482:1 695:1 
-0.04366115796679923 10:1 38:1 61:1 92:1 100:1 300:1 712:1 924:1 
-1 4:1 5:1 8:1 10:1 38:1 59:1 62:1 92:1 103:1 163:1 309:1 1018:1 
-0.009568611459303548 3:1 5:1 6:1 8:1 10:1 15:1 92:1 95:1 141:1 429:1 460:1 568:1 950:1 1040:1 
-1 10:1 26:1 69:1 102:1 145:1 238:1 482:1 720:1 
-0.2073756649935228 10:1 15:1 143:1 363:1 720:4 1911:1 
-1 6:1 10:1 17:1 22:1 26:2 69:1 460:1 573:1 574:1 719:1 879:1 1438:1 1658:1 
-0.02544529284648573 10:1 26:1 28:1 121:1 134:2 224:1 238:1 258:1 460:1 518:1 635:1 719:1 1125:1 1633:1 1710:1 2236:1 
-0.3034264799170631 5:1 10:1 92:1 105:1 106:1 116:1 146:1 408:1 603:1 1061:1 
-0.08008062430598244 5:1 10:1 15:1 74:1 86:1 92:1 115:1 166:1 206:1 225:1 239:1 455:1 1253:1 1367:1 1481:1 1646:1 1694:1 
-0.5978572819379392 6:1 10:1 48:1 63:1 69:1 92:1 206:1 305:1 661:2 
-1 6:1 10:1 17:1 38:1 59:1 214:1 215:1 
-1 6:1 10:1 24:1 26:1 75:1 421:2 518:1 
-0.6121946565415435 5:1 10:1 19:1 22:1 30:1 80:2 81:1 90:1 92:1 94:1 169:1 178:2 236:1 356:1 984:1 1212:1 
-1 6:1 10:1 19:1 49:1 95:1 
-1 4:1 5:2 10:1 15:3 22:1 71:1 80:1 86:1 92:1 137:1 139:1 140:1 178:1 
-0.08766284197979388 10:1 26:1 69:1 90:1 92:1 145:1 150:1 333:1 482:1 838:1 860:1 1169:1 1349:1 
-0.697273520987594 5:1 10:1 19:1 92:1 141:1 262:1 580:2 1544:2 
-0.09682176860562131 3:1 4:1 6:1 10:1 17:1 26:1 49:1 69:1 73:1 92:1 455:1 489:1 1351:1 2290:1 
-0.2838792520673677 6:2 10:1 26:1 69:1 71:1 84:1 86:1 139:1 145:1 168:1 179:1 405:1 869:1 1600:1 
-1 6:1 10:1 15:1 41:1 49:1 868:1 
-1 6:1 10:1 17:1 26:1 60:1 74:1 81:1 102:1 150:1 236:1 258:1 433:1 
-1 6:1 10:1 17:1 19:1 55:1 60:1 74:1 84:1 227:1 
-1 6:1 10:1 41:1 74:1 232:1 236:1 433:1 
-1 10:1 19:1 114:2 126:1 127:1 
-1 6:1 10:1 17:1 30:1 55:1 80:1 84:1 248:1 545:1 
-1 10:1 17:1 28:1 92:1 275:1 385:1 433:1 675:1 
-0.2361836838355244 6:1 10:1 26:1 30:1 69:1 92:1 96:1 97:1 459:1 894:1 1393:1 2294:1 
-1 4:1 6:1 10:1 17:1 26:1 145:1 626:1 999:1 
-1 9:1 10:1 26:1 85:1 113:1 236:1 437:1 
-1 4:1 6:1 10:1 26:1 145:1 468:1 
-1 6:1 10:1 17:2 18:1 50:1 87:1 145:1 474:1 552:1 
-1 6:1 10:1 17:1 18:2 38:1 92:1 474:1 
-1 6:1 10:1 15:1 17:1 26:2 55:1 61:1 512:1 1071:1 
-1 6:1 10:1 30:1 40:1 80:1 92:1 136:1 141:1 178:1 
-0.3266838706872576 6:1 10:1 80:1 136:1 141:1 178:1 247:1 472:1 518:1 
-1 6:1 10:1 17:1 49:1 80:1 81:1 141:1 178:1 518:1 874:1 
-0.7375509839338548 4:1 5:1 10:1 15:1 26:1 63:1 80:1 92:1 136:1 178:1 236:1 719:2 
-1 10:1 19:1 26:1 69:1 399:1 595:1 
-1 6:2 10:1 16:1 17:1 18:1 60:1 64:1 74:1 81:1 87:1 
-1 6:1 7:1 10:1 15:1 26:1 80:1 178:1 232:1 370:1 375:1 436:1 478:1 685:1 1285:1 
-0.7727574304396803 10:1 15:1 17:1 26:1 38:1 61:2 69:1 802:1 1016:1 2303:1 
-0.09648734709860729 5:1 6:2 10:1 17:1 26:2 28:1 62:1 69:2 72:1 91:4 92:1 247:1 395:1 396:1 661:4 
-0.6142776490782569 5:1 10:1 19:1 20:1 29:1 92:1 128:1 
-1 6:1 10:1 15:1 74:1 81:1 82:1 84:1 352:1 440:1 491:1 
-1 6:1 10:1 17:1 18:1 26:1 40:1 62:1 69:1 82:1 87:1 474:1 491:1 1195:1 1256:1 
-1 4:1 5:2 10:1 92:1 100:1 112:1 123:1 136:2 206:1 238:1 290:1 890:1 900:1 997:1 
-1 4:1 5:1 10:1 11:1 64:1 74:1 87:1 92:1 197:1 1527:1 
-1 5:1 10:1 17:1 73:1 92:1 158:1 304:2 455:1 626:1 
-1 10:1 41:1 69:1 84:1 230:1 241:1 501:1 
-1 10:1 161:1 363:1 1647:1 2308:1 
-0.3922305848419104 6:2 10:1 26:1 28:1 92:1 112:1 141:1 245:1 246:4 247:1 
-1 6:1 10:1 17:1 18:1 40:1 49:1 70:1 71:1 87:1 474:1 
-1 6:1 10:1 26:2 69:1 121:1 122:1 136:1 141:1 180:1 266:1 491:1 2313:1 
-0.7560979902907309 10:1 26:1 69:1 81:1 137:2 138:1 163:1 206:1 268:1 352:1 463:1 2194:1 2314:1 
-0.3533132420180582 5:1 6:1 10:1 15:1 26:1 61:1 69:1 84:1 92:1 94:1 144:1 163:1 206:1 269:1 278:1 1196:1 1207:1 1710:1 
-1 6:1 10:1 26:1 69:1 95:1 121:1 179:1 230:1 314:1 451:1 478:1 479:1 593:1 1488:1 
-1 6:1 7:1 10:1 87:1 232:1 478:1 479:1 713:1 
-1 5:1 10:1 29:1 87:1 102:1 220:1 236:1 245:1 577:1 669:1 943:1 1660:1 1905:1 
-0.02432580424147029 6:1 10:1 19:1 26:1 39:1 69:1 130:1 168:1 196:1 272:1 491:1 584:1 648:1 
-0.8415776672542685 6:1 10:1 26:1 69:1 121:1 179:1 230:1 368:2 467:1 491:1 648:1 
-0.3209716753883617 6:1 10:1 26:1 38:1 39:1 49:1 88:1 89:1 99:1 120:1 243:1 1911:1 1929:1 
-1 6:1 10:1 55:1 737:1 919:1 2109:1 2110:1 
-1 5:1 6:1 10:1 55:2 81:1 115:1 248:1 439:1 545:1 
-1 6:1 10:1 17:1 32:1 55:1 67:1 82:1 88:1 100:1 115:1 236:1 439:1 
-1 10:1 23:1 28:1 38:1 55:1 67:1 82:1 
-1 5:1 6:1 10:1 17:1 27:1 28:1 49:1 67:1 82:1 429:1 923:1 
-1 5:1 10:1 28:1 128:2 247:1 1073:1 
-0.1652966105338535 5:1 10:1 64:1 87:1 92:1 96:1 145:1 168:1 212:1 251:1 720:1 837:1 1190:1 1440:1 1580:1 1619:1 1719:1 
-0.9774335626792858 10:1 40:1 92:1 121:1 122:1 136:1 
-1 4:1 10:1 38:1 89:1 92:1 
-0.1726510613681139 5:1 10:1 17:1 30:2 31:2 32:1 92:1 445:2 446:2 460:1 
-1 10:1 17:1 18:1 32:1 40:1 87:1 92:1 
-0.2886439233847321 6:1 10:1 17:1 18:1 32:1 87:1 92:1 445:1 446:1 
-0.6249441250617184 6:1 10:1 18:1 87:1 90:1 92:1 395:1 396:1 445:1 446:1 690:1 1375:1 
-1 6:1 10:1 17:1 62:1 80:2 92:1 178:2 445:2 446:2 
-1 6:1 8:1 9:1 10:1 92:1 445:1 446:1 
-1 6:1 10:1 17:1 92:1 445:1 446:1 
-0.07474931826271337 10:1 64:1 92:1 124:1 130:1 168:1 650:1 938:1 1623:1 
-0.1517285373163641 5:1 10:1 128:1 724:1 799:2 
-1 6:2 10:1 17:1 62:1 352:1 422:1 799:2 
-1 6:1 10:1 17:1 69:1 74:1 145:1 247:1 946:1 1082:1 
-1 6:1 10:1 15:1 17:1 26:1 27:1 80:1 99:1 100:1 236:1 245:1 986:1 1033:1 1918:1 
-1 4:1 6:1 10:1 15:1 17:1 28:1 115:1 116:1 150:1 224:1 317:1 
-1 6:1 10:1 17:1 26:1 57:1 150:1 165:1 233:1 247:1 949:1 
-0.1092263562934709 6:1 10:1 26:1 55:1 69:1 92:1 879:1 1180:1 1195:1 1196:1 
-1 6:1 10:1 15:1 26:1 61:1 160:1 625:1 719:1 
-0.2566593327908301 10:1 15:1 26:2 31:1 61:1 76:1 296:1 495:1 1127:1 1146:1 1668:2 
-0.6827699175737464 10:1 15:1 26:1 28:1 68:1 69:1 76:1 84:1 94:1 1723:1 
-1 10:1 15:1 26:1 28:1 31:1 38:1 62:1 100:1 224:2 694:1 795:1 1618:1 1619:1 
-1 10:1 15:1 28:1 30:1 92:1 265:1 314:1 
-1 10:1 28:1 40:1 92:1 
-0.6689948643966855 10:1 15:1 17:1 26:1 62:1 73:1 92:1 94:1 96:1 97:1 141:1 236:1 237:1 352:1 487:1 497:1 
-1 6:1 10:1 28:1 81:1 145:1 552:1 
-1 6:1 10:1 28:1 41:1 113:1 468:1 
-1 6:1 10:1 17:1 26:1 55:1 74:1 78:1 722:1 
-1 6:1 10:1 17:1 26:2 30:1 81:1 110:1 145:1 1342:2 
-0.4808492620159331 5:1 10:1 11:1 69:1 92:1 116:1 236:1 420:1 629:1 1208:1 
-1 10:1 19:1 22:1 399:1 595:1 
-0.1574789916393118 4:1 6:1 10:1 55:1 84:1 87:1 92:1 227:1 236:1 968:1 2254:1 
-1 6:1 10:1 15:1 17:1 26:1 27:1 30:1 31:1 69:1 139:1 140:1 
-0.6136656092434682 10:1 15:1 32:1 99:1 230:1 1036:1 1086:1 1243:1 2357:1 
-1 10:1 17:1 28:1 40:1 92:1 268:1 270:1 1074:1 1075:1 
-0.2709262104780274 5:2 10:1 92:1 154:1 156:2 158:1 236:1 278:1 517:1 604:2 606:1 642:1 952:2 2363:2 
-1 6:1 10:1 15:1 17:1 81:1 157:1 332:1 333:1 399:1 1198:1 
-0.4094608282211349 4:1 5:1 10:1 15:1 26:1 45:1 58:1 62:1 69:1 73:1 74:1 100:1 168:1 322:1 404:1 701:1 2364:1 
-1 6:1 10:1 17:1 59:1 136:1 141:1 179:1 214:1 215:1 247:1 487:1 
-1 6:1 10:1 17:1 79:1 85:1 445:1 446:1 577:1 785:1 1261:1 1747:1 
-1 6:1 10:1 55:1 1074:1 1118:1 
-1 10:1 212:1 243:2 383:1 546:1 998:1 1000:1 
-0.3643056493482079 10:1 22:1 92:1 317:1 435:1 621:1 952:1 1145:2 
-0.05523807705495347 3:1 10:1 28:1 49:1 50:1 69:1 92:1 97:1 223:1 236:1 239:2 289:1 429:1 569:1 
-1 6:1 10:1 17:1 92:1 422:1 
-0.7096218698238599 6:1 10:1 15:1 28:1 30:1 92:1 115:1 
-1 5:2 6:1 9:1 10:1 15:1 69:1 79:1 80:1 81:1 113:1 144:1 150:1 304:2 724:1 
-1 4:1 5:1 10:1 15:1 17:1 39:1 50:1 60:1 88:1 92:1 227:1 
-0.4193785606785118 5:2 6:1 7:1 10:1 15:1 17:1 61:1 62:1 86:1 87:3 102:1 177:1 230:1 271:1 278:1 442:1 508:1 1004:1 1201:1 1937:1 
-0.6428737119496841 5:1 6:1 7:1 10:1 15:1 17:2 62:1 157:1 243:1 278:1 689:1 724:1 987:1 1004:1 1242:1 
-1 6:1 10:1 63:1 80:1 84:1 99:1 168:1 180:1 230:1 236:1 603:1 955:1 
-0.3332275310746617 10:1 82:1 123:1 300:1 439:1 929:1 1036:1 1654:1 2013:1 2346:2 2366:1 
-1 6:1 10:1 17:1 53:1 74:1 110:1 268:1 300:1 
-0.8798288470796051 10:1 17:1 27:1 28:1 40:1 69:1 94:1 206:1 289:1 531:1 610:1 724:1 
-1 10:1 17:1 28:1 30:1 69:1 84:1 86:1 94:1 268:1 300:1 
-1 4:1 7:1 10:1 28:2 59:1 62:1 508:1 509:1 952:1 1658:1 
-1 10:1 31:1 59:1 62:1 94:1 105:1 278:1 295:1 317:1 952:1 
-1 10:1 17:1 112:1 474:2 952:1 967:1 968:1 
-1 10:1 22:1 31:1 38:1 62:1 94:1 105:1 278:1 295:1 952:2 
-1 10:1 69:1 78:1 86:1 148:1 157:1 236:1 552:1 801:1 1208:1 
-1 5:2 6:1 9:1 10:1 15:1 17:1 26:1 80:1 84:1 113:1 145:1 314:1 378:1 379:1 421:1 422:1 860:1 2320:1 
-1 5:1 6:1 10:1 17:1 24:1 75:1 80:1 81:1 145:1 178:1 204:1 235:1 245:1 379:2 1009:1 
-0.9809097567368859 5:1 6:1 10:1 17:1 26:1 49:1 55:1 69:2 72:1 86:1 232:1 314:1 379:1 417:1 451:1 624:1 1073:1 
-1 4:1 5:1 6:1 7:1 10:1 15:1 26:1 61:1 72:1 84:1 85:1 145:1 180:1 181:1 946:1 
-1 5:1 10:1 28:2 62:2 136:2 168:2 
-1 6:1 10:1 15:1 92:1 139:1 140:1 141:1 247:1 267:1 
-1 4:1 5:1 6:1 10:1 17:1 59:1 79:1 80:1 245:1 435:1 1024:1 
-1 4:1 6:1 7:1 10:1 15:1 26:1 40:1 46:1 94:1 206:1 236:1 347:1 1024:1 
-1 4:1 5:1 10:1 17:1 69:1 80:1 206:1 245:1 347:1 2260:1 
-1 6:1 10:1 17:1 26:1 28:1 71:1 74:1 79:1 80:1 81:1 116:1 220:1 509:1 603:1 664:1 735:1 
-0.2215082981168089 10:1 26:1 69:1 74:1 82:1 83:1 112:1 148:1 232:1 236:1 314:1 451:1 664:1 913:1 1015:1 2375:1 
-1 6:1 10:1 22:1 28:1 40:1 61:1 83:1 169:1 236:1 1257:1 
-1 5:1 6:2 10:1 17:3 26:3 30:2 49:1 62:1 69:3 81:1 352:1 
-1 10:1 17:1 26:1 27:1 28:1 40:1 140:1 2139:1 
-1 5:1 6:1 10:1 17:1 26:2 69:2 79:1 80:1 81:1 86:2 220:1 
-1 4:1 5:2 6:1 10:1 15:1 23:1 72:1 73:1 135:1 232:1 268:1 455:1 626:1 1197:1 
-1 5:1 10:1 26:1 41:1 65:2 66:2 93:1 168:1 421:1 482:1 
-1 5:1 6:1 10:1 15:1 48:1 61:1 69:1 206:1 305:1 479:1 1054:1 1098:1 
-1 10:1 15:1 26:1 28:1 39:1 239:1 476:1 640:1 830:1 
-1 10:1 26:1 39:1 69:2 136:1 141:1 212:1 1123:1 1181:1 
-1 6:1 10:1 17:1 26:1 69:1 383:1 384:1 422:1 
-1 5:1 10:1 17:4 22:2 26:2 92:1 383:2 384:2 422:2 
-1 5:1 10:1 17:1 19:1 22:1 26:1 62:1 69:1 80:1 112:1 123:1 137:1 138:1 141:1 178:1 563:1 864:1 
-1 5:1 7:1 10:1 22:2 26:1 112:1 145:2 168:1 482:1 552:2 890:1 
-1 5:1 6:2 10:1 26:1 62:1 85:1 157:1 236:2 243:1 316:1 330:1 606:1 893:1 1382:1 1383:1 
-1 5:1 6:1 10:1 17:1 26:1 27:1 28:1 40:1 69:1 80:1 141:1 178:1 975:1 1062:1 
-1 10:1 15:1 17:1 48:1 206:1 305:1 1062:1 2172:1 
-0.1937528975306629 10:1 26:1 40:1 69:1 84:1 372:1 460:1 676:1 795:1 845:1 2379:1 
-1 6:1 10:1 17:1 19:1 22:1 30:1 31:1 84:1 232:1 495:1 1063:1 1064:1 
-0.6313195486511636 6:1 10:1 17:1 26:1 41:1 179:1 230:1 595:1 1217:1 1218:1 1262:1 1489:1 2381:1 
-1 10:1 95:1 141:1 179:1 230:1 482:1 856:1 
-1 5:1 10:1 15:1 184:1 368:1 378:1 942:1 1800:1 2383:1 
-0.266262006828794 6:2 7:1 10:1 15:2 17:1 40:1 224:1 278:1 344:1 378:1 518:1 
-0.7527183359331969 5:1 6:2 10:1 15:3 19:1 28:2 30:1 31:1 59:1 69:2 702:1 1853:1 1906:1 
-1 4:1 5:1 10:1 17:1 60:1 70:1 71:1 214:2 215:2 225:1 226:1 662:1 687:1 
-1 3:1 6:1 7:1 10:1 40:1 78:1 122:1 141:1 164:1 206:1 2194:1 
-1 10:1 15:1 17:1 19:1 62:1 69:1 214:1 215:1 241:1 501:1 
-1 6:1 10:1 17:1 81:1 99:1 233:1 984:1 1037:1 
-1 5:1 10:1 17:1 85:1 95:1 163:1 1227:1 2384:1 
-1 5:1 10:1 110:1 141:2 145:1 206:1 233:1 984:1 1156:1 1914:1 
-1 5:1 6:3 10:1 17:1 28:1 40:1 58:2 59:1 62:1 100:2 136:1 141:1 204:1 379:1 497:1 
-1 5:1 7:1 10:1 15:1 17:1 58:2 62:1 80:1 84:1 100:2 352:1 1771:1 
-1 5:1 6:2 10:1 15:1 17:1 28:2 40:1 47:1 49:1 58:1 62:1 73:1 74:2 79:1 80:1 82:1 100:1 
-1 10:1 40:1 163:1 
-1 6:1 10:1 15:1 17:1 28:2 59:1 87:2 134:1 474:1 
-1 5:1 6:1 10:1 22:1 28:1 41:1 80:1 84:1 113:1 247:1 468:1 
-1 5:1 6:3 10:1 16:1 17:1 22:1 26:1 30:1 61:1 73:1 74:1 180:1 238:1 487:1 497:1 953:1 1399:1 
-1 10:1 15:1 61:1 79:1 80:1 81:1 
-0.09447876721274495 4:1 5:1 7:1 10:1 15:2 26:1 74:1 85:1 168:1 204:1 230:1 236:1 271:1 272:1 314:1 487:1 489:1 606:1 1464:1 2235:1 2388:1 
-1 10:1 141:1 220:1 230:1 236:1 646:1 2389:1 
-1 10:1 26:1 41:1 55:1 69:1 73:1 230:1 236:1 333:1 422:1 1208:1 
-1 10:1 26:1 41:1 55:1 112:1 141:1 182:1 901:1 912:1 1085:1 1208:1 
-1 6:1 10:1 26:1 41:1 61:1 78:1 182:1 912:1 
-1 4:2 5:1 10:1 15:2 26:2 27:2 518:1 900:2 
-0.310440785518649 5:1 6:2 10:1 15:1 26:2 30:1 92:1 100:1 139:1 140:1 242:1 314:1 364:2 471:1 
-1 5:1 6:1 10:1 17:1 38:1 59:1 74:1 81:1 90:1 649:1 
-0.922194659864826 5:2 7:1 10:1 15:1 49:1 69:1 78:1 86:1 90:1 157:1 163:2 206:3 236:1 245:1 371:1 649:2 685:1 1267:1 1479:1 2025:1 
-0.8807162344795466 5:1 10:1 15:1 22:1 26:1 68:1 69:1 71:1 80:1 86:1 178:1 206:2 236:1 361:1 426:1 649:2 1208:1 1723:1 
-0.3683243475276829 5:1 10:1 71:1 80:1 92:1 100:2 178:1 352:2 
-1 5:1 10:1 15:2 40:1 62:1 92:1 100:2 251:2 896:1 
-1 5:1 10:1 17:1 28:1 38:1 59:1 1244:1 1245:1 
-1 5:1 6:1 10:1 15:1 17:2 26:1 30:1 69:1 78:1 237:1 
-1 5:1 6:1 10:1 15:2 69:1 78:1 135:1 611:1 
-0.3225241167874668 5:1 9:1 10:1 15:1 26:1 63:1 69:2 113:1 141:1 236:1 399:1 1208:1 2296:1 2390:1 
-0.1656099468713151 5:1 6:2 7:1 10:1 17:2 41:1 62:1 74:1 77:1 80:1 84:2 94:1 200:1 399:1 722:1 758:1 2335:1 
-1 6:1 10:1 26:1 41:1 55:1 61:1 1071:1 
-1 6:1 10:1 17:1 26:1 31:1 61:1 90:1 236:1 266:1 1073:1 
-1 6:1 10:1 15:1 17:1 40:1 80:1 84:1 243:1 606:1 
-1 5:1 10:1 61:1 128:2 184:1 236:1 266:1 
-1 6:1 7:1 10:1 15:1 22:1 30:1 31:1 71:1 78:1 80:1 178:1 375:1 1076:1 
-0.4707061536319394 7:1 10:1 69:1 92:1 236:1 266:1 331:1 341:1 
-0.3737768505661138 5:1 10:1 15:1 26:1 28:1 40:1 73:1 74:1 88:1 92:1 216:1 663:1 911:1 935:1 2406:1 
-1 6:1 10:1 17:1 92:1 445:1 446:1 
-0.748611165899056 5:1 10:1 15:1 41:1 69:2 206:1 251:1 347:1 1481:1 2410:1 
-1 6:1 10:1 17:1 26:1 40:1 62:1 69:1 395:1 396:1 
-1 5:1 10:1 31:1 94:1 138:1 144:1 220:1 241:1 245:1 501:1 620:1 
-0.7210866597667551 6:1 10:1 17:1 86:1 87:2 92:1 170:1 177:1 179:1 232:1 242:1 687:1 
-1 6:1 10:1 26:1 69:1 91:2 206:1 422:1 460:1 
-0.2272165587681559 6:1 10:1 69:1 92:1 97:1 143:1 204:1 239:1 
-1 6:1 10:1 26:1 92:1 121:1 258:1 417:1 422:1 454:1 460:1 661:2 692:1 
-0.2817877560394303 5:1 7:1 10:1 15:1 17:1 22:1 30:2 62:1 80:2 92:1 122:1 178:2 306:1 352:1 395:1 396:1 1099:1 2420:1 
-0.3680090447674141 10:1 19:1 60:1 74:1 95:1 112:1 121:1 258:1 612:1 788:1 
-1 10:1 26:1 86:1 92:1 406:1 1315:1 1316:1 
-0.628744731815482 3:1 5:1 10:1 28:1 38:1 40:1 92:1 309:1 552:1 658:1 868:1 
-0.2010886171333057 5:1 10:1 38:1 88:1 92:1 100:1 236:1 495:1 536:1 658:1 710:1 
-0.1666113140153775 5:1 10:1 15:1 28:1 40:1 92:1 102:1 163:1 165:1 227:1 577:1 2421:1 
-0.3615659158379658 10:1 19:1 60:1 74:1 95:1 112:1 121:1 258:1 612:1 788:1 
-1 4:1 5:1 10:1 17:1 22:1 28:1 92:1 136:1 165:1 227:1 344:1 
-1 4:1 10:1 17:1 22:1 27:1 136:1 150:2 165:1 438:1 
-1 5:1 10:1 28:1 40:1 54:2 92:1 136:1 165:1 227:1 
-1 4:1 10:1 40:1 495:1 658:1 
-1 6:1 10:1 17:1 80:2 92:1 178:2 495:2 
-1 4:1 10:1 81:1 236:1 495:1 651:1 1027:1 2422:1 
-1 10:1 64:1 91:1 174:1 224:1 661:1 
-1 6:1 10:1 22:1 28:1 49:1 81:1 136:1 
-0.5128930037356174 4:1 5:1 6:1 10:1 23:1 40:1 69:1 92:1 102:1 344:1 354:1 524:1 719:1 
-1 6:1 10:1 17:1 18:1 22:1 26:1 41:1 59:1 60:1 87:1 99:1 121:1 258:1 379:1 434:1 
-1 6:1 9:1 10:1 18:1 26:2 49:1 69:1 72:1 99:1 145:1 247:1 404:1 552:1 717:1 
-1 10:1 16:1 17:1 18:1 22:1 64:1 69:1 87:1 206:1 230:1 352:1 
-0.01401598609779674 5:2 8:1 9:1 10:1 88:1 92:1 102:1 251:1 264:1 792:1 802:1 1203:1 1727:1 1939:1 1953:2 1956:1 2424:1 
-1 6:1 10:1 19:1 27:1 59:1 69:1 123:1 145:1 552:1 
-1 10:1 17:2 22:1 26:2 29:1 74:1 94:1 145:1 419:1 420:1 713:1 799:1 944:1 
-1 4:1 6:2 10:1 30:1 79:1 80:1 81:1 105:1 318:2 2161:1 2162:1 
-1 6:1 10:1 17:1 18:1 22:1 59:1 62:1 72:1 80:2 90:1 178:2 179:1 230:1 247:1 
-1 6:1 10:1 17:2 62:1 76:1 80:2 90:1 178:2 278:1 445:1 446:1 682:1 
-0.04714716149430039 4:2 5:1 6:1 10:1 15:1 26:1 28:1 80:1 87:1 91:2 92:1 93:1 139:1 140:1 177:1 178:1 204:1 278:1 379:1 495:1 869:1 870:2 2432:2 
-1 6:1 10:1 26:1 81:1 115:1 129:3 130:3 720:1 
-1 6:1 10:1 49:1 72:1 122:1 247:1 267:1 306:1 405:1 640:1 1390:1 
-0.6149833419140491 5:1 6:1 10:1 15:1 17:1 28:1 30:1 92:1 104:1 251:1 345:1 378:1 823:2 
-1 10:1 15:1 17:1 41:1 87:1 102:1 145:1 177:1 224:1 482:1 653:1 
-0.114306408283727 6:1 10:1 17:1 23:1 38:1 92:1 102:1 236:1 397:1 398:1 921:1 1162:1 
-0.06220865817464293 10:1 23:1 26:1 28:1 80:1 92:1 100:1 141:1 178:1 224:1 2436:2 
-1 6:2 10:1 15:1 17:1 22:1 30:1 99:1 314:1 451:1 536:1 986:1 
-0.4116653483684985 10:1 17:1 26:1 74:1 120:1 145:1 180:1 237:1 422:1 429:1 2035:1 2259:1 2437:1 2438:1 
-1 6:1 10:1 17:1 26:1 38:1 93:1 102:1 133:1 378:1 
-1 10:1 15:1 17:1 41:1 87:1 102:1 145:1 177:1 224:1 482:1 653:1 
-1 6:1 10:1 17:1 55:1 92:1 145:1 448:1 546:1 552:1 
-1 6:1 10:1 17:1 41:1 55:1 78:1 150:1 165:1 1074:1 1118:1 
-1 6:1 10:1 38:1 72:1 100:1 180:1 204:1 236:1 1115:1 1116:1 
-1 10:1 22:1 62:1 80:2 178:2 317:1 495:2 
-0.9288458866261259 10:1 19:1 87:1 180:1 236:2 544:1 591:1 1088:2 
-0.352711542781775 6:1 10:1 15:1 17:1 69:1 76:1 92:1 230:1 268:1 270:1 
-1 6:1 10:1 17:1 38:1 92:1 131:1 137:2 345:1 
-1 6:1 10:1 16:1 17:1 22:1 23:1 27:1 40:1 69:1 88:1 145:1 236:1 
-1 10:1 26:1 30:1 38:1 86:2 87:2 168:1 169:1 
-0.01497044366910494 5:1 10:1 40:1 86:2 92:1 112:1 177:1 186:3 212:1 451:1 1033:1 
-1 6:2 10:1 16:1 17:1 18:1 19:1 61:1 87:1 125:1 139:1 140:1 223:1 468:1 569:1 
-0.8645103430379377 10:1 132:1 158:1 220:1 429:1 746:1 1379:1 2278:1 
-1 10:1 19:1 26:1 62:1 67:1 68:1 84:1 85:1 112:1 179:1 230:1 509:1 573:1 574:1 
-0.7745953782752784 4:1 9:1 10:1 15:1 40:1 61:1 88:1 99:1 102:1 132:1 164:1 186:1 204:1 233:1 698:1 
-1 6:1 8:1 9:1 10:1 15:1 26:1 81:1 102:1 982:1 
-0.0725476366891418 3:1 5:1 10:1 15:1 19:1 45:1 58:1 92:1 95:1 113:1 136:1 141:1 205:1 460:1 568:1 844:1 952:1 
-1 10:1 26:1 27:1 28:2 63:1 64:1 69:1 233:1 
-1 6:1 10:1 23:1 38:1 72:1 88:1 236:1 
-0.2984410327218324 5:1 6:1 10:1 17:2 22:1 23:1 28:1 30:1 62:1 80:2 92:1 178:2 701:1 2439:1 
-1 3:1 6:1 10:1 23:1 38:1 59:1 72:1 80:1 92:1 178:1 
-1 7:1 10:1 26:1 28:2 41:1 87:1 183:1 236:1 553:1 648:1 
-1 6:1 8:1 9:1 10:1 15:1 26:1 28:1 78:1 609:1 628:1 1226:1 
-0.270412318276141 10:1 17:1 28:1 41:1 2292:1 2293:1 
-0.1640369319920188 10:1 28:1 39:1 92:1 105:1 714:1 879:1 1065:1 2217:1 2446:2 
-1 10:1 17:1 28:1 247:1 
-1 6:1 10:1 17:1 22:1 59:1 69:1 145:1 322:1 429:1 552:1 621:1 1097:1 
-0.488850677347118 10:1 38:1 92:1 100:1 224:2 239:1 309:1 1618:1 
-0.1289221840938574 10:1 17:1 92:1 131:1 317:1 1041:2 1042:2 
-0.006741561588903454 3:1 5:1 6:1 8:2 10:1 15:1 17:2 28:1 38:1 79:1 80:1 81:1 84:1 85:1 92:1 94:1 99:1 179:1 230:1 245:1 278:1 429:1 435:1 1239:1 2024:1 2363:1 2455:1 
-1 8:1 10:1 15:1 429:1 489:1 552:1 1627:1 
-1 8:1 9:1 10:1 29:1 40:1 82:1 136:1 206:1 220:1 266:1 459:1 2458:1 
-1 6:2 8:1 10:1 13:1 14:1 17:1 60:1 180:1 233:1 
-0.09726161593601078 5:1 6:2 8:2 10:1 15:1 17:1 92:1 115:1 383:1 418:1 439:1 474:1 
-0.07983817296262762 5:1 6:1 8:3 9:1 10:1 15:1 69:1 89:1 92:1 94:1 134:1 230:3 236:1 297:1 735:1 1123:1 1315:1 1316:1 
-0.1384406852260314 6:1 8:1 9:1 10:1 15:1 26:1 92:1 247:1 370:1 
-0.3583016888696697 6:1 8:2 10:1 17:1 74:1 92:1 170:1 232:1 233:1 247:1 
-0.9353365900833047 4:1 5:1 10:1 29:1 49:1 64:1 81:1 92:1 136:1 206:1 442:1 950:1 1040:1 
-1 5:1 10:1 15:1 17:1 30:1 49:1 69:2 84:1 144:1 251:1 370:1 518:1 
-0.201102968413663 4:1 5:1 6:1 10:1 17:1 79:1 80:1 163:1 247:2 435:1 724:1 1146:1 
-0.9835276414190203 10:1 28:2 32:1 38:1 64:1 206:1 925:2 
-1 10:1 41:1 59:1 236:1 845:1 1166:1 1413:1 
-1 7:1 10:1 20:1 41:1 82:1 115:1 662:1 831:1 1413:1 
-0.07840607984221461 4:1 10:1 92:1 560:2 2289:2 
-1 4:1 10:1 27:1 145:1 180:1 360:1 483:1 552:1 
-1 4:1 10:1 13:1 14:1 59:1 61:1 62:1 179:1 230:1 
-1 7:1 10:1 41:1 49:1 60:1 82:1 180:1 360:1 
-1 9:1 10:1 26:1 27:1 28:1 113:1 180:1 247:1 360:1 
-1 6:1 10:1 38:1 88:1 100:1 236:1 923:1 
-0.2776461184028359 4:1 5:1 6:1 10:1 15:2 92:1 123:1 511:1 640:1 923:1 1474:1 
-1 7:1 10:1 41:1 99:1 160:1 394:1 434:1 476:1 618:1 
-1 10:1 28:1 40:1 903:1 1649:1 
-0.7582486260754636 4:1 5:1 10:1 27:1 40:1 56:1 57:1 92:1 232:1 463:1 
-1 4:1 5:1 10:1 28:1 92:1 463:1 
-1 5:1 6:2 10:1 15:1 16:1 17:1 26:1 40:1 69:1 92:1 110:1 139:1 140:1 234:1 262:1 438:1 1038:1 
-1 10:1 54:2 724:1 
-1 4:1 10:1 12:1 17:1 28:2 890:2 948:2 
-1 6:1 10:1 17:1 22:1 26:1 336:1 621:1 2302:1 
-1 4:1 6:1 10:1 23:1 28:1 43:1 44:1 59:1 72:1 100:1 110:1 262:1 644:1 903:1 
